//Generated by mkmodel
#include "/home/gongxiaochao/code/esp/esp-who/components/esp_facenet/face_detection/coefficients/onet_model.h"


const static int det_win_list[]={
	6, 
};

const static fptp_t det_thresh_list[]={
	0.980, 0.960, 
};

const static char *wake_word_list[]={
	"mtcnn", 
};

const static model_info_t model_info={
	.word_num=1,
	.word_list=(char **)(&wake_word_list[0]),
	.win_list=(int *)(&det_win_list[0]),
	.thresh_list=(fptp_t *)(&det_thresh_list[0]),
	.info_str="pNet_v0_mtcnn_6_0.98_0.96",
};

const static fptp_t onet_l1_bias_item_array[]={
	-0.109471f, 6.365994f, -1.248928f, -0.452098f, 0.384569f, -0.276686f, -0.110944f, 0.213764f, 
	-0.105099f, 0.220690f, 0.012174f, 0.286695f, 3.826739f, 0.079209f, 1.207778f, 0.772567f, 
	4.719433f, 0.071781f, 0.083615f, 8.130016f, 0.386988f, 0.190069f, -3.798368f, -2.671838f, 
	1.437409f, -0.384614f, -0.687955f, -0.080438f, -0.786917f, 0.276509f, -0.552829f, -0.300772f, 
};

const static dl_matrix3d_t onet_l1_bias={
	.w=1,
	.h=1,
	.c=32,
	.n=1,
	.stride=32,
	.item=(fptp_t *)(&onet_l1_bias_item_array[0])
};

const static fptp_t onet_l1_compress_item_array[]={
	-0.156345f, -0.277088f, -0.061982f, -0.088733f, 0.078770f, -0.159990f, -0.032965f, -0.001204f, 
	0.082786f, 0.146224f, 0.033484f, -0.125881f, 0.060366f, 0.065483f, -0.060807f, -0.270438f, 
	0.081659f, 0.116488f, -0.101529f, 0.071669f, 0.137640f, -0.068003f, -0.101197f, 0.088062f, 
	0.177005f, -0.065911f, -0.016103f, -0.068747f, 0.031487f, -0.145413f, -0.188681f, 0.247721f, 
	0.183321f, 0.039532f, 0.274082f, 0.094323f, -0.383274f, -0.611366f, -0.220531f, 0.103256f, 
	-0.093489f, -0.180211f, 0.135178f, 0.005164f, -0.113411f, 0.086352f, 0.251394f, -0.039733f, 
	0.251338f, 0.054525f, -0.171678f, -0.103148f, 0.064531f, 0.117701f, -0.208057f, 0.138444f, 
	0.066725f, -0.160638f, 0.147214f, -0.152692f, 0.024861f, -0.187714f, -0.051966f, -0.110959f, 
	0.011812f, -0.099883f, -0.113046f, -0.047654f, 0.140758f, 0.642878f, -0.208085f, -0.133616f, 
	-0.037625f, 0.054824f, -0.099573f, 0.010801f, 0.124762f, -0.099543f, 0.140962f, 0.144185f, 
	-0.095993f, 0.028320f, 0.229417f, -0.057604f, -0.066333f, -0.171214f, -0.116790f, -0.001791f, 
	0.108975f, 0.126504f, 0.039705f, 0.025843f, -0.110244f, 0.253679f, -0.092470f, -0.233243f, 
};

const static dl_matrix3d_t onet_l1_compress={
	.w=1,
	.h=1,
	.c=3,
	.n=32,
	.stride=3,
	.item=(fptp_t *)(&onet_l1_compress_item_array[0])
};

const static fptp_t onet_l1_depth_item_array[]={
	0.021005f, -0.125862f, 0.006208f, -0.024659f, -0.266048f, 0.010926f, -0.079700f, -0.244512f, 
	0.019199f, -0.148690f, -0.133364f, 0.034263f, -0.252717f, -0.190156f, 0.039665f, -0.164158f, 
	-0.185655f, 0.019867f, 0.006925f, -0.040784f, 0.036338f, 0.052841f, 0.028979f, 0.034858f, 
	0.003275f, 0.026841f, 0.016230f, 
};

const static dl_matrix3d_t onet_l1_depth={
	.w=3,
	.h=3,
	.c=3,
	.n=1,
	.stride=9,
	.item=(fptp_t *)(&onet_l1_depth_item_array[0])
};

const static fptp_t onet_l1_prelu_alpha_item_array[]={
	-0.129302f, 0.080673f, -0.240140f, 
};

const static dl_matrix3d_t onet_l1_prelu_alpha={
	.w=1,
	.h=1,
	.c=3,
	.n=1,
	.stride=3,
	.item=(fptp_t *)(&onet_l1_prelu_alpha_item_array[0])
};

const static fptp_t onet_l2_bias_item_array[]={
	-0.443934f, 0.733329f, 0.322025f, -0.296707f, -0.118122f, 0.003745f, 0.731107f, 1.662935f, 
	0.209224f, 0.108796f, 0.409276f, 0.225106f, 0.051656f, 0.765945f, 0.018884f, 0.024702f, 
	0.089156f, -0.169104f, -0.080355f, -0.020768f, -0.396388f, 0.354406f, -0.073307f, 0.152038f, 
	0.253404f, -0.469642f, 0.305873f, -0.162564f, 0.237871f, -0.151996f, 0.414125f, -1.447578f, 
	-0.040213f, 0.090488f, -0.037241f, 0.349214f, 0.204225f, 0.264367f, -0.509822f, 0.353033f, 
	1.419087f, -0.160901f, 0.114324f, -0.117554f, 0.238749f, 0.180234f, 0.315930f, 0.046751f, 
	-0.299576f, 0.084452f, -0.398260f, 0.073092f, 0.530815f, -0.099655f, -0.098310f, 0.311293f, 
	0.140101f, 0.260920f, -0.117044f, 0.129431f, -0.286242f, -0.232435f, -0.001642f, 0.354674f, 
};

const static dl_matrix3d_t onet_l2_bias={
	.w=1,
	.h=1,
	.c=64,
	.n=1,
	.stride=64,
	.item=(fptp_t *)(&onet_l2_bias_item_array[0])
};

const static fptp_t onet_l2_compress_item_array[]={
	0.102685f, -0.023320f, 0.181844f, 0.271230f, -0.397365f, 0.298003f, -0.049097f, 0.026840f, 
	0.048412f, 0.112628f, 0.022682f, -0.434313f, 0.365972f, -0.248569f, -0.276683f, 0.568168f, 
	0.416265f, 0.173536f, 0.197422f, -0.069768f, 0.148144f, 0.082800f, 0.150206f, 0.290600f, 
	0.013485f, -0.023924f, -0.127224f, 0.066836f, -0.010200f, -0.166512f, -0.135944f, 0.130802f, 
	-0.075672f, -0.097065f, -0.067778f, 0.025669f, -0.212377f, 0.007375f, -0.066657f, -0.126910f, 
	-0.135061f, -0.090106f, 0.307975f, -0.037491f, 0.126396f, -0.396845f, 0.081198f, 0.089531f, 
	0.125014f, 0.030881f, -0.362490f, 0.044156f, -0.277858f, -0.041765f, 0.042893f, 0.079497f, 
	-0.191626f, 0.098931f, -0.310149f, 0.000571f, 0.018307f, -0.078137f, -0.261614f, 0.565826f, 
	-0.489705f, -0.285813f, -0.023390f, 0.004625f, 0.134385f, 0.175417f, 0.055995f, 0.155247f, 
	0.146083f, 0.125647f, 0.257552f, 0.114066f, 0.085421f, 0.128377f, -0.039978f, -0.788476f, 
	-0.076586f, -0.223459f, -0.204866f, -0.062187f, 0.192780f, 0.003573f, -0.157286f, 0.063616f, 
	-0.270833f, -0.157562f, 0.108378f, -0.045008f, 0.086605f, 0.233831f, 0.192640f, -0.108239f, 
	-0.124419f, -0.035118f, -0.235097f, -0.044961f, -0.162004f, 0.382042f, -0.114757f, 0.056597f, 
	0.108524f, 0.162270f, 0.061764f, -0.212686f, -0.102549f, -0.426600f, 0.006648f, 0.444577f, 
	0.108222f, 0.370468f, -0.184370f, -0.000374f, 0.028607f, 0.327659f, 0.040829f, -0.060694f, 
	-0.164415f, -0.047071f, -0.395286f, 0.335219f, 0.241382f, 0.005170f, 0.374520f, -0.299315f, 
	-0.068867f, -0.019868f, -0.223741f, 0.044637f, 0.060023f, 0.227988f, -0.039303f, 0.134807f, 
	-0.241363f, 0.009175f, -0.252585f, -0.027915f, 0.470798f, 0.094721f, 0.032503f, 0.021542f, 
	0.347302f, -0.041607f, -0.025763f, 0.369507f, -0.171494f, -0.067283f, 0.097104f, 0.189361f, 
	-0.112867f, -0.268596f, -0.027728f, 0.373576f, 0.563530f, 0.096940f, 0.124779f, 0.067289f, 
	-0.288448f, 0.125986f, 0.005219f, 0.159532f, 0.045834f, 0.201875f, 0.249922f, -0.088504f, 
	-0.080329f, -0.322740f, -0.181633f, -0.506538f, 0.346104f, -0.123952f, -0.539365f, 0.002052f, 
	0.375758f, 0.165274f, 0.061968f, 0.261514f, 0.027119f, 0.193664f, -0.028291f, 0.246690f, 
	0.071979f, 0.121984f, -0.140485f, 0.344574f, 0.142666f, 0.070062f, -0.136269f, -0.077378f, 
	-0.540289f, 0.271598f, -0.041445f, -0.110413f, -0.255710f, 0.330958f, -0.255702f, 0.045214f, 
	0.117493f, 0.143547f, -0.680450f, -0.019045f, -0.002773f, -0.036216f, 0.382016f, -0.242662f, 
	-0.113763f, -0.202917f, 0.406053f, 0.156153f, 0.171573f, 0.107683f, -0.180382f, 0.020228f, 
	-0.049191f, 0.024453f, 0.274648f, 0.306168f, -0.135778f, -0.371674f, -0.093315f, 0.332842f, 
	-0.044059f, 0.065710f, 0.166706f, -0.611898f, -0.490122f, 0.214219f, -0.726809f, 0.144306f, 
	-0.333351f, 0.125601f, -0.357546f, -0.397018f, 0.288985f, -0.073671f, 0.049506f, -0.346464f, 
	0.052707f, -0.169396f, -0.244894f, 0.002280f, 0.243281f, -0.269376f, 0.058411f, 0.198119f, 
	0.148975f, -0.316790f, -0.115007f, -0.398009f, -0.278224f, -0.118303f, 0.100379f, 0.307025f, 
	0.325685f, -0.163906f, 0.384211f, -0.074677f, -0.040760f, -0.095450f, 0.288746f, -0.257429f, 
	0.041055f, 0.078325f, 0.295284f, -0.121317f, -0.076869f, 0.169149f, 0.197263f, -0.099872f, 
	-0.075723f, -0.023054f, 0.026908f, -0.099508f, 0.141787f, 0.000049f, -0.011694f, 0.020755f, 
	-0.220621f, 0.105831f, 0.046688f, -0.107858f, -0.294357f, 0.107326f, 0.194000f, -0.309326f, 
	-0.002324f, 0.163342f, 0.232240f, 0.302325f, -0.131677f, -0.186271f, -0.100722f, 0.172412f, 
	0.026174f, 0.298694f, 0.188889f, -0.143212f, -0.073080f, -0.254386f, 0.323681f, 0.038770f, 
	-0.185843f, -0.340236f, 0.317978f, -0.048578f, 0.251349f, 0.010278f, 0.182768f, -0.065259f, 
	0.182435f, -0.103816f, 0.147722f, -0.094364f, -0.150979f, 0.288521f, 0.029820f, 0.283277f, 
	0.117138f, 0.175538f, 0.151587f, -0.040695f, -0.067497f, -0.140321f, 0.057873f, 0.142343f, 
	-0.183105f, -0.163630f, 0.012142f, 0.128461f, -1.088055f, 0.094118f, 0.089580f, -0.244601f, 
	-0.235220f, 0.037252f, 0.040947f, -0.064390f, -0.120781f, 0.044563f, -0.324418f, -0.731663f, 
	0.103675f, 0.008638f, 0.109241f, -0.083802f, -0.095897f, -0.056054f, -0.045353f, -0.060681f, 
	0.045850f, -0.225393f, 0.445802f, 0.219950f, 0.131103f, -0.075157f, -0.096965f, -0.219884f, 
	0.103373f, -0.286751f, 0.070176f, 0.054539f, 0.127630f, 0.220163f, 0.209953f, -0.354663f, 
	0.029316f, 0.042750f, -0.044964f, -0.197273f, -0.235462f, -0.042726f, -0.147473f, 0.001836f, 
	-0.116795f, 0.013467f, 0.111483f, -0.201640f, -0.405287f, 0.002665f, 0.298469f, -0.126641f, 
	0.025761f, 0.141657f, -0.278418f, -0.034056f, -0.030023f, 0.265409f, -0.095500f, 0.353553f, 
	0.130473f, 0.361996f, -0.197010f, 0.315959f, -0.251326f, 0.370182f, 0.355071f, 0.541909f, 
	-0.163294f, 0.162940f, 0.146731f, -0.032070f, 0.068248f, -0.332514f, -0.154371f, -0.190872f, 
	-0.028721f, -0.243173f, 0.195911f, -0.077040f, -0.430558f, 0.128944f, 0.168099f, -0.168074f, 
	0.047901f, -0.275421f, -0.189501f, 0.115680f, -0.405075f, 0.104875f, -0.275778f, 0.032456f, 
	0.114533f, 0.020334f, -0.064452f, 0.396484f, 0.168972f, -0.675392f, -0.101366f, 0.350839f, 
	0.077354f, -0.300724f, -0.187166f, -0.015845f, -0.353317f, 0.182307f, 0.092041f, 0.056094f, 
	0.029309f, 0.070260f, -0.151124f, 0.262279f, 0.166639f, 0.012955f, 0.389941f, 0.528922f, 
	-0.085061f, -0.049409f, 0.119780f, 0.100812f, 0.094326f, -0.241229f, -0.229939f, 0.100604f, 
	0.025318f, 0.143894f, -0.031647f, 0.412991f, 0.193894f, -0.021770f, -0.030389f, 0.022743f, 
	-0.271708f, -0.185519f, 0.191966f, 0.185472f, -0.150619f, -0.415855f, -0.042090f, 0.148295f, 
	0.100266f, -0.166302f, 0.476245f, -0.021681f, -0.274722f, 0.179214f, 0.083477f, 0.100369f, 
	0.051514f, 0.095476f, -0.265368f, 0.085735f, -0.152040f, -0.092012f, -0.168207f, -0.390568f, 
	0.214593f, -0.090037f, 0.035226f, 0.056383f, 0.208044f, 0.122073f, -0.430656f, -0.164602f, 
	0.127350f, -0.027485f, 0.041113f, 0.015394f, -0.100075f, 0.372376f, 0.190661f, 0.083493f, 
	0.307933f, 0.539676f, -0.047650f, -0.015616f, 0.280825f, 0.170636f, -0.250446f, -0.202664f, 
	-0.086337f, 0.013096f, 0.182554f, -0.123883f, -0.231653f, -0.057453f, 0.114837f, -0.398353f, 
	-0.097193f, -0.188647f, 0.103073f, 0.388789f, 0.044840f, -0.161556f, -0.045093f, 0.096826f, 
	0.173476f, 0.254887f, 0.038250f, -0.057774f, -0.206341f, 0.092304f, 0.006730f, 0.035702f, 
	-0.004900f, 0.158148f, -0.246257f, 0.395724f, 0.145417f, -0.343078f, 0.167967f, -0.073050f, 
	0.066226f, -0.138936f, 0.098305f, 0.440949f, -0.222324f, -0.406156f, -0.067079f, 0.156371f, 
	0.129291f, -0.037724f, -0.191470f, -0.002735f, 0.148140f, 0.658528f, 0.009572f, -0.591783f, 
	-0.119318f, -0.205322f, -0.114036f, -0.023510f, -0.249421f, -0.074783f, -0.143292f, 0.171951f, 
	0.000616f, -0.138511f, 0.180156f, -0.197681f, -0.421035f, 0.367907f, -0.222902f, -0.231049f, 
	-0.130229f, 0.130965f, -0.077041f, 0.239388f, 0.052731f, 0.016519f, 0.059357f, 0.398433f, 
	-0.138833f, -0.100636f, -0.049333f, 0.024666f, -0.106730f, 0.150137f, 0.235299f, -0.226616f, 
	0.025173f, 0.037921f, -0.049105f, 0.077906f, 0.210694f, -0.162418f, -0.221039f, -0.037064f, 
	-0.178138f, -0.274235f, 0.390073f, -0.466767f, -0.434103f, 0.084740f, -0.366719f, -0.055730f, 
	-0.132978f, 0.052629f, -0.063933f, -0.027234f, 0.130850f, -0.003954f, -0.510714f, -0.110252f, 
	0.249289f, -0.348125f, -0.013153f, 0.175605f, 0.029072f, -0.062931f, 0.138573f, -0.017382f, 
	0.050039f, 0.046628f, -0.051850f, 0.032249f, -0.031672f, -0.111842f, -0.014535f, 0.030557f, 
	-0.303919f, 0.405166f, -0.099531f, 0.109399f, -0.044444f, 0.176189f, -0.470548f, -0.002474f, 
	-0.422384f, -0.082376f, 0.313874f, -0.110421f, 0.028213f, -0.127925f, -0.120934f, -0.020850f, 
	-0.114968f, -0.165841f, 0.175766f, 0.267196f, 0.102026f, 0.369559f, -0.301637f, 0.235589f, 
	-0.060127f, -0.148815f, 0.005588f, -0.072730f, -0.028752f, -0.058179f, -0.060732f, -0.047376f, 
	0.126507f, 0.024917f, 0.469797f, -0.117293f, -0.126617f, -0.012280f, -0.118221f, -0.035265f, 
	-0.189840f, 0.163204f, 0.013015f, 0.137992f, -0.018158f, 0.369560f, 0.036307f, 0.110308f, 
	-0.122829f, -0.061487f, -0.275359f, -0.365554f, -0.016774f, -0.083337f, -0.000595f, 0.408761f, 
	0.256314f, -0.082174f, 0.226803f, 0.020406f, 0.127562f, -0.088334f, -0.281141f, -0.086008f, 
	-0.019286f, -0.069860f, 0.021508f, 0.131084f, -0.143471f, -0.090838f, 0.075941f, 0.064510f, 
	0.250375f, 0.028513f, -0.015821f, -0.160213f, 0.264260f, 0.076845f, -0.517476f, 0.109131f, 
	-0.035279f, -0.109564f, -0.000847f, -0.282814f, 0.135818f, 0.103921f, -0.010411f, -0.088523f, 
	-0.230891f, -0.513785f, -0.062157f, -0.012464f, -0.066103f, -0.301571f, 0.024298f, 0.089119f, 
	0.244924f, -0.198898f, 0.255710f, -0.122915f, -0.195728f, 0.089208f, 0.075296f, -0.082928f, 
	-0.035413f, 0.638335f, -0.199618f, -0.016459f, 0.015412f, -0.100347f, 0.029465f, 0.183237f, 
	-0.143970f, -0.269799f, 0.027378f, 0.018677f, -0.350219f, 0.054207f, 0.147567f, -0.052443f, 
	-0.125572f, -0.121445f, 0.082865f, 0.519905f, 0.078038f, -0.206225f, -0.279824f, -0.299258f, 
	0.049010f, -0.111382f, 0.071058f, -0.234056f, -0.113671f, 0.106025f, -0.226095f, 0.074707f, 
	0.016525f, -0.166950f, 0.221187f, -0.072215f, 0.084561f, -0.493209f, -0.364272f, -0.124013f, 
	-0.053062f, 0.374428f, 0.107632f, -0.120874f, -0.030655f, 0.333116f, 0.212822f, -0.063477f, 
	-0.096685f, -0.208609f, 0.128349f, -0.133736f, -0.195462f, -0.116526f, -0.259687f, 0.047386f, 
	-0.227524f, -0.195421f, 0.456921f, -0.128123f, -0.291482f, 0.189004f, 0.262375f, -0.032206f, 
	0.541509f, -0.126252f, -0.027619f, 0.255093f, -0.038117f, -0.026272f, 0.061991f, -0.171232f, 
	0.152658f, 0.366208f, 0.034176f, 0.347045f, 0.181075f, 0.099961f, 0.031131f, 0.721721f, 
	-0.018878f, 0.127965f, -0.075056f, -0.035977f, -0.321405f, -0.129542f, -0.000140f, 0.083051f, 
	-0.237769f, 0.072446f, -0.007329f, -0.229025f, -0.023152f, 0.039509f, -0.158547f, -0.012941f, 
	-0.028479f, -0.544472f, 0.059930f, 0.055633f, -0.001215f, -0.204740f, -0.015128f, 0.082021f, 
	0.193718f, -0.282315f, 0.100933f, 0.072807f, -0.287232f, -0.011861f, -0.050459f, 0.067492f, 
	-0.231301f, -0.122784f, 0.039694f, -1.019253f, 0.000193f, -0.145004f, 0.369617f, -0.386896f, 
	-0.289488f, -0.022102f, 0.101367f, -0.037921f, -0.161292f, 0.067264f, 0.025680f, -0.015189f, 
	-0.009498f, 0.057755f, -0.185201f, 0.044228f, -0.068594f, 0.374107f, -0.006214f, -0.452532f, 
	-0.300376f, -0.121536f, -0.184858f, 0.141407f, 0.112390f, -0.052128f, 0.024533f, -0.288284f, 
	0.152510f, 0.276701f, -0.110239f, 0.006741f, -0.225529f, 0.217290f, 0.031412f, -0.067671f, 
	0.022051f, 0.066038f, -0.086737f, -0.032691f, 0.437688f, 0.020439f, 0.114284f, -0.061591f, 
	-0.186004f, -0.087894f, 0.214177f, 0.127327f, 0.210158f, -0.269914f, -0.015646f, -0.118357f, 
	0.065417f, 0.184156f, 0.142045f, -0.117094f, 0.155650f, 0.335296f, -0.081381f, 0.257178f, 
	0.406172f, 0.195567f, 0.369440f, -0.095248f, 0.432579f, 0.114653f, -0.566392f, 0.128897f, 
	0.304506f, 0.020045f, -0.243908f, -0.051214f, 0.082696f, -0.132561f, 0.100605f, -0.182324f, 
	-0.102728f, 0.242538f, -0.022474f, -0.329235f, 0.099650f, 0.302855f, -0.065151f, 0.155333f, 
	0.133930f, -0.518053f, 0.059238f, -0.099895f, 0.384314f, 0.140117f, -0.130681f, 0.124196f, 
	-0.214681f, -0.210942f, -0.149887f, 0.155735f, 0.155822f, -0.435961f, 0.134201f, 0.192981f, 
	0.196243f, -0.104069f, 0.171205f, -0.305413f, -0.226666f, 0.147565f, -0.036758f, 0.060029f, 
	-0.344049f, 0.101734f, -0.141211f, -0.337539f, -0.205614f, -0.021710f, -0.164687f, 0.052029f, 
	-0.286179f, -0.118295f, -0.028542f, 0.061265f, 0.162880f, -0.471215f, 0.096948f, 0.161314f, 
	-0.048796f, -0.278399f, -0.282752f, -0.026547f, 0.003979f, 0.009115f, 0.284027f, 0.113487f, 
	-0.094301f, 0.017035f, -0.003589f, -0.213049f, -0.154359f, -0.040375f, -0.267776f, 0.229743f, 
	0.553508f, 0.027904f, 0.175665f, 0.472054f, 0.196050f, -0.342202f, -0.061171f, 0.050630f, 
	-0.088693f, 0.207134f, 0.381825f, 0.171399f, 0.185240f, 0.383791f, -0.152282f, -0.236320f, 
	-0.414832f, 0.250504f, -0.061407f, 0.177572f, 0.405759f, -0.270161f, -0.211791f, 0.084732f, 
	-0.317053f, 0.147659f, 0.318225f, -0.077133f, -0.238642f, 0.374482f, 0.031679f, -0.120187f, 
	0.446138f, 0.040866f, -0.106689f, -0.403160f, 0.651982f, 0.240093f, 0.043777f, 0.080973f, 
	-0.072629f, 0.021500f, -0.531688f, -0.211921f, 0.015070f, 0.045980f, 0.125276f, -0.109102f, 
	-0.129115f, -0.184702f, -0.488824f, 0.051338f, -0.068692f, -0.023582f, -0.179226f, 0.021725f, 
	0.048289f, -0.058065f, 0.032548f, 0.195891f, 0.366619f, 0.226770f, -0.302907f, 0.122651f, 
	0.255988f, 0.024759f, -0.241141f, 0.234342f, -0.197542f, -0.060723f, 0.149897f, 0.285314f, 
	-0.036795f, 0.191664f, 0.184465f, 0.079786f, -0.290012f, -0.078548f, 0.059383f, 0.073067f, 
	-0.354733f, -0.472629f, 0.025726f, 0.014141f, -0.296041f, -0.352518f, -0.118228f, -0.210418f, 
	-0.420750f, -0.361880f, 0.191400f, -0.062280f, -0.111457f, 0.279163f, 0.143016f, 0.151092f, 
	0.167606f, 0.028278f, -0.001565f, -0.153713f, -0.202597f, 0.363154f, 0.069830f, 0.290623f, 
	0.262737f, 0.135499f, -0.129345f, -0.228245f, 0.180653f, -0.049867f, -0.144501f, 0.013347f, 
	-0.105884f, -0.247234f, -0.201406f, -0.033668f, -0.295372f, -0.188147f, 0.025770f, 0.104337f, 
	-0.017617f, -0.340917f, 0.140133f, 0.027912f, -0.227375f, -0.004429f, -0.037029f, 0.174321f, 
	-0.143770f, -0.002960f, 0.117578f, -0.122498f, 0.237719f, -0.221813f, 0.053235f, -0.062149f, 
	-0.032170f, -0.074639f, 0.147774f, 0.049658f, -0.512220f, 0.358350f, 0.198417f, -0.129834f, 
	-0.088078f, -0.098839f, -0.022326f, -0.083700f, 0.018443f, -0.338972f, -0.047127f, -0.401186f, 
	0.012021f, -0.035780f, 0.074981f, -0.167964f, -0.379617f, -0.007669f, 0.280972f, -0.430862f, 
	0.183113f, -0.121455f, 0.219457f, 0.236624f, 0.192781f, -0.192063f, -0.057579f, -0.120399f, 
	0.021803f, -0.070428f, -0.017787f, 0.039890f, -0.047260f, 0.099838f, -0.396253f, -0.195247f, 
	-0.173784f, 0.109785f, 0.031319f, 0.042719f, -0.120277f, 0.139922f, -0.234854f, -0.026827f, 
	-0.182997f, 0.269686f, 0.105058f, -0.435216f, -0.135196f, 0.103951f, -0.096532f, -0.265233f, 
	0.117506f, -0.017651f, -0.113709f, 0.140560f, 0.069496f, -0.214018f, 0.050731f, 0.036577f, 
	-0.082168f, -0.176979f, 0.250247f, 0.095244f, -0.084721f, 0.092155f, -0.120133f, -0.350170f, 
	-0.269726f, 0.102289f, 0.196929f, -0.049040f, -0.087369f, -0.388710f, -0.307100f, -0.094483f, 
	-0.099719f, -0.166686f, 0.263771f, -0.262968f, -0.261559f, 0.250824f, 0.059090f, -0.144293f, 
	0.161679f, 0.247408f, 0.117408f, -0.189968f, -0.140956f, 0.184830f, -0.108370f, 0.340834f, 
	-0.277334f, 0.358752f, 0.260807f, -0.021396f, -0.271845f, -0.091617f, 0.258817f, -0.109213f, 
	-0.292572f, -0.248994f, -0.290230f, 0.199807f, 0.158955f, -0.144514f, -0.157831f, -0.165188f, 
	0.326781f, -0.109975f, 0.196485f, -0.045265f, -0.022597f, 0.111766f, -0.014625f, 0.018347f, 
	-0.538783f, -0.218498f, -0.134823f, -0.033308f, -0.002510f, 0.358535f, 0.449825f, -0.125706f, 
	-0.232099f, 0.230541f, -0.240312f, -0.150196f, -0.073306f, 0.203798f, 0.050851f, -0.024211f, 
	-0.147418f, 0.078787f, 0.201138f, -0.111713f, 0.290582f, -0.052969f, 0.233536f, -0.084503f, 
	0.138390f, 0.114204f, -0.083012f, 0.355070f, 0.223874f, 0.054315f, -0.038774f, -0.329313f, 
	0.014114f, 0.025219f, -0.088192f, -0.205826f, -0.672396f, -0.136889f, 0.084337f, 0.408789f, 
	0.191988f, -0.424187f, -0.408021f, 0.090011f, 0.136662f, -0.307113f, -0.255914f, -0.208109f, 
	-0.165122f, 0.011790f, -0.289404f, -0.046872f, -0.034635f, -0.232316f, -0.107474f, 0.183848f, 
	0.092385f, 0.041686f, -0.018941f, -0.134605f, 0.079160f, -0.140341f, -0.436125f, 0.437681f, 
	-0.228471f, 0.151376f, -0.064006f, 0.016520f, 0.198562f, 0.604458f, 0.053088f, 0.054917f, 
	0.000470f, 0.050046f, -0.174285f, -0.098331f, -0.591637f, -0.024258f, 0.083290f, 0.062837f, 
	0.305768f, -0.107830f, -0.018047f, 0.043187f, 0.081224f, -0.160321f, -0.092395f, -0.523524f, 
	0.480143f, -0.038899f, 0.099446f, 0.051068f, 0.062964f, -0.081564f, 0.209864f, -0.079953f, 
	0.053831f, -0.187080f, 0.376442f, -0.172336f, -0.189702f, -0.175244f, 0.089707f, -0.242441f, 
	0.016564f, 0.138993f, 0.229682f, -0.017560f, -0.118843f, -0.013925f, -0.057768f, 0.001708f, 
	0.042045f, 0.082963f, -0.189982f, -0.229437f, -0.115660f, 0.140051f, 0.179122f, -0.102883f, 
	-0.163515f, 0.074692f, -0.228758f, -0.338096f, -0.100323f, -0.012327f, -0.229011f, -0.059579f, 
	0.118149f, 0.296390f, 0.283559f, -0.003972f, -0.196299f, 0.337858f, 0.078014f, -0.099314f, 
	-0.083981f, 0.100032f, -0.157426f, -0.095503f, -0.238151f, -0.214061f, 0.403569f, -0.664995f, 
	0.188453f, -0.159003f, 0.097594f, 0.094800f, -0.052997f, 0.141443f, -0.096256f, -0.093966f, 
	0.287881f, 0.093603f, 0.015615f, 0.172738f, 0.253194f, -0.289910f, 0.054677f, 0.282080f, 
	-0.143730f, 0.101866f, -0.281020f, -0.694796f, 0.232503f, -0.120202f, -0.043745f, 0.105044f, 
	-0.164605f, -0.216581f, 0.031624f, -0.120707f, 0.245739f, -0.283356f, 0.094932f, 0.303240f, 
	-0.055353f, -0.052654f, -0.599355f, 0.122753f, 0.101416f, -0.122766f, 0.291799f, 0.229863f, 
	-0.137094f, -0.092035f, -0.180984f, -0.285302f, 0.044552f, 0.039103f, 0.109494f, 0.168912f, 
	0.023486f, -0.185220f, 0.445348f, -0.197039f, 0.197567f, 0.141085f, -0.010867f, 0.088302f, 
	-0.090854f, 0.384879f, -0.045706f, -0.120104f, 0.104770f, 0.120262f, 0.267836f, -0.136803f, 
	-0.187017f, -0.037298f, 0.153386f, -0.413807f, 0.148734f, -0.042258f, -0.189791f, 0.063955f, 
	0.328873f, -0.086189f, 0.126136f, -0.143232f, 0.091606f, -0.179888f, -0.177477f, 0.049578f, 
	0.193550f, 0.145284f, -0.242326f, -0.226388f, 0.034269f, -0.211257f, 0.201464f, 0.038099f, 
	0.020643f, -0.461160f, 0.121460f, 0.250229f, -0.155076f, -0.139987f, -0.127559f, -0.490528f, 
	-0.217327f, 0.244442f, 0.017119f, 0.066064f, 0.016863f, -0.017988f, -0.247995f, -0.168498f, 
	0.001384f, 0.192461f, -0.158311f, 0.315076f, 0.058143f, -0.056417f, 0.095011f, 0.013242f, 
	0.149643f, 0.020445f, 0.247827f, 0.312932f, -0.002848f, -0.155857f, -0.062260f, -0.120082f, 
	0.043438f, 0.387826f, 0.251271f, -0.010550f, -0.144340f, 0.218329f, -0.093204f, -0.373875f, 
	-0.169674f, 0.251420f, 0.027254f, -0.196599f, 0.017763f, -0.246561f, -0.235309f, -0.072565f, 
	0.121593f, -0.095280f, 0.290408f, -0.322835f, -0.205680f, 0.217425f, 0.372820f, -0.268583f, 
	0.254837f, -0.145602f, 0.226781f, -0.395662f, -0.062795f, 0.082424f, 0.160261f, -0.185928f, 
	0.018938f, -0.174876f, -0.230629f, 0.075735f, 0.294878f, -0.222623f, -0.181802f, 0.210869f, 
	0.277942f, 0.224343f, 0.104184f, 0.094190f, -0.180771f, -0.045460f, -0.256215f, 0.184627f, 
	-0.074765f, 0.272129f, -0.044246f, 0.014322f, 0.036996f, 0.018515f, -0.026504f, 0.348396f, 
	0.234872f, 0.218496f, -0.002055f, 0.055616f, 0.078299f, -0.330178f, 0.150545f, 0.109589f, 
	0.179015f, 0.227930f, -0.299146f, 0.130004f, -0.184427f, 0.428195f, -0.417826f, 0.145982f, 
	0.162722f, 0.004518f, 0.355390f, 0.124923f, -0.017964f, -0.064174f, -0.112184f, -0.210525f, 
	0.032261f, -0.160120f, 0.098948f, -0.048896f, -0.209929f, 0.530006f, 0.035542f, -0.191496f, 
	0.098814f, 0.168075f, 0.391172f, 0.001138f, 0.206355f, 0.084384f, -0.045087f, 0.102123f, 
	0.073559f, -0.207621f, 0.025850f, 0.488790f, -0.153242f, 0.186682f, 0.129290f, -0.464361f, 
	0.047742f, -0.094155f, 0.216872f, 0.151216f, 0.208626f, 0.223666f, -0.239948f, -0.037577f, 
	0.054991f, -0.112213f, -0.061802f, 0.055511f, 0.367206f, 0.177771f, -0.152363f, -0.253626f, 
	-0.084676f, 0.095501f, -0.170715f, 0.150313f, -0.034499f, 0.121423f, 0.516156f, 0.033031f, 
	-0.053326f, 0.037907f, 0.326732f, 0.139765f, -0.410256f, -0.050494f, -0.095382f, -0.521083f, 
	0.147380f, 0.557729f, -0.277928f, -0.016183f, -0.047119f, 0.032447f, -0.363144f, -0.221460f, 
	0.001281f, 0.016790f, 0.080564f, 0.047764f, 0.119847f, 0.300642f, 0.108579f, -0.218009f, 
	-0.181414f, 0.342466f, -0.320881f, 0.086566f, 0.049678f, 0.110191f, -0.238528f, 0.098397f, 
	-0.165423f, -0.221228f, -0.070836f, -0.111550f, -0.513256f, 0.006231f, 0.171957f, -0.075826f, 
	-0.355664f, -0.135186f, -0.036735f, 0.071897f, 0.088022f, -0.090895f, -0.219663f, -0.445753f, 
	-0.107104f, -0.135226f, -0.012767f, 0.058781f, -0.136651f, -0.002619f, 0.064785f, -0.064905f, 
	0.427300f, -0.017223f, -0.179627f, 0.041044f, -0.188376f, -0.197018f, -0.103563f, 0.137376f, 
	0.001040f, -0.190407f, 0.325230f, 0.173900f, -0.016777f, -0.141884f, -0.071052f, 0.172069f, 
	-0.044495f, 0.170523f, -0.350610f, 0.031161f, -0.333030f, -0.127447f, 0.145929f, 0.016008f, 
	-0.135573f, -0.110453f, -0.039602f, -0.074822f, -0.124959f, 0.054217f, -0.058720f, 0.236334f, 
	0.148362f, 0.126269f, 0.312171f, -0.166139f, -0.034593f, -0.166207f, -0.051571f, -0.358594f, 
	-0.130433f, -0.072379f, -0.064333f, -0.104496f, 0.010101f, 0.226168f, -0.163753f, 0.243545f, 
	0.124561f, 0.270620f, 0.013229f, -0.052311f, 0.156974f, 0.261786f, -0.275071f, -0.040351f, 
	0.112151f, 0.392658f, -0.039645f, 0.413957f, -0.108492f, -0.183486f, -0.139978f, -0.119110f, 
	-0.348106f, -0.379412f, 0.153510f, 0.126227f, 0.090484f, -0.313215f, 0.017430f, -0.091941f, 
	-0.094487f, -0.307617f, 0.166994f, 0.236869f, -0.050161f, 0.040948f, -0.346888f, -0.568142f, 
	-0.148037f, 0.147404f, -0.053575f, -0.289421f, -0.447916f, -0.304322f, -0.002776f, -0.074289f, 
	-0.017351f, 0.118168f, 0.325799f, -0.177212f, -0.265301f, 0.153618f, 0.006690f, 0.072339f, 
	-0.077800f, 0.105070f, 0.387159f, -0.066901f, -0.073605f, 0.032530f, -0.018146f, 0.535241f, 
	-0.337561f, 0.073048f, 0.019010f, -0.176464f, 0.319725f, -0.083662f, 0.634663f, 0.431299f, 
	0.227183f, -0.078442f, 0.172769f, -0.195958f, 0.034858f, 0.326775f, -0.111581f, 0.180906f, 
	0.176036f, -0.006004f, 0.255190f, 0.581348f, 0.208530f, 0.220773f, 0.025802f, 0.257185f, 
	0.264749f, 0.151261f, -0.021107f, 0.020500f, -0.027907f, 0.354396f, -0.093920f, -0.082641f, 
	0.315221f, 0.002904f, -0.341540f, 0.077552f, 0.214899f, -0.193338f, 0.160848f, 0.614259f, 
	-0.146658f, -0.064732f, 0.135827f, 0.296676f, -0.110902f, 0.031796f, 0.189013f, 0.118848f, 
	0.130790f, -0.156329f, -0.174278f, 0.126051f, 0.155596f, 0.040766f, 0.050659f, 0.219743f, 
	-0.017220f, -0.054084f, 0.258447f, -0.037770f, -0.038223f, 0.356396f, 0.094028f, -0.040218f, 
	0.198241f, -0.279014f, -0.235720f, -0.250219f, 0.101544f, -0.141272f, 0.042423f, -0.074715f, 
	-0.182138f, 0.265730f, -0.099595f, -0.135942f, 0.083292f, -0.178755f, 0.294815f, 0.045567f, 
	0.377572f, 0.373277f, 0.133803f, -0.220024f, -0.085185f, -0.115883f, -0.172442f, 0.098455f, 
	0.133699f, 0.138316f, -0.023773f, 0.125840f, 0.066335f, -0.097811f, 0.591423f, 0.001691f, 
	0.045741f, -0.166487f, -0.089042f, -0.076979f, -0.014647f, -0.045482f, -0.045670f, -0.092422f, 
	-0.190540f, -0.031331f, -0.005668f, -0.042907f, 0.077965f, 0.178246f, 0.174803f, -0.051847f, 
	0.029717f, -0.275999f, -0.135712f, 0.065143f, 0.217203f, -0.089838f, 0.417773f, 0.296905f, 
	-0.168282f, 0.202893f, -0.005480f, 0.117590f, -0.467889f, 0.579350f, -0.228496f, -0.024408f, 
	-0.229428f, -0.255417f, -0.195323f, -0.112466f, 0.088014f, -0.400040f, 0.282439f, 0.282259f, 
	0.176399f, -0.214390f, -0.106779f, 0.096455f, -0.460518f, -0.032652f, -0.166313f, 0.044486f, 
	0.164883f, -0.008906f, -0.132592f, 0.041012f, 0.256379f, -0.005418f, -0.072795f, 0.304435f, 
	-0.138904f, -0.099730f, -0.078035f, -0.122960f, 0.786037f, 0.142738f, -0.172778f, -0.040864f, 
	0.150478f, -0.056741f, 0.033853f, 0.220238f, -0.031288f, -0.120029f, 0.390134f, 0.213430f, 
	0.272862f, -0.090339f, -0.001143f, -0.066864f, -0.057324f, -0.187232f, -0.056179f, 0.000826f, 
	-0.553777f, -0.107092f, -0.103207f, 0.515794f, 0.111977f, 0.036396f, 0.113994f, -0.051780f, 
	-0.086908f, 0.133878f, -0.217465f, -0.151696f, -0.042324f, 0.317508f, -0.026133f, -0.031234f, 
	-0.164766f, -0.242891f, 0.268874f, -0.135197f, -0.066919f, -0.031297f, 0.028159f, -0.540616f, 
	-0.134172f, 0.481362f, 0.260993f, 0.005371f, 0.224802f, 0.037315f, -0.257309f, -0.070286f, 
	0.021811f, 0.038640f, -0.071602f, 0.057921f, 0.328437f, -0.470013f, 0.136227f, 0.257740f, 
	-0.600779f, -0.007451f, -0.071869f, -0.024111f, 0.059018f, 0.209206f, -0.044760f, 0.090602f, 
	-0.320059f, -0.060241f, -0.075214f, -0.105023f, 0.064176f, -0.006954f, -0.056779f, 0.069874f, 
	0.080594f, -0.066560f, 0.094309f, -0.032252f, 0.147834f, 0.038393f, 0.195977f, 0.036529f, 
	-0.023577f, 0.035891f, 0.004612f, -0.010684f, 0.013139f, -0.102798f, 0.066004f, -0.026645f, 
};

const static dl_matrix3d_t onet_l2_compress={
	.w=1,
	.h=1,
	.c=32,
	.n=64,
	.stride=32,
	.item=(fptp_t *)(&onet_l2_compress_item_array[0])
};

const static fptp_t onet_l2_depth_item_array[]={
	-0.127588f, -0.099435f, 0.009033f, -0.035006f, -0.055653f, 0.049209f, -0.298355f, 0.173093f, 
	0.180815f, 0.049865f, -0.157940f, -0.061915f, -0.063835f, 0.048698f, -0.218952f, 0.357995f, 
	0.196709f, 0.050541f, -0.108690f, 0.059091f, -0.148445f, 0.198714f, 0.053391f, 0.129028f, 
	0.069712f, 0.144160f, -0.115675f, 0.000023f, 0.016099f, 0.121515f, -0.188828f, -0.023755f, 
	-0.200374f, 0.215517f, -0.084232f, 0.036667f, -0.169426f, -0.383680f, 0.203157f, 0.178128f, 
	0.101971f, -0.017800f, -0.098561f, -0.006747f, -0.175747f, 0.148913f, 0.143068f, 0.261485f, 
	0.060832f, -0.018049f, -0.047969f, 0.165550f, -0.031243f, 0.162544f, 0.145957f, 0.145541f, 
	-0.131280f, 0.121717f, -0.225479f, 0.247136f, 0.150579f, 0.047761f, -0.054085f, -0.004610f, 
	-0.087712f, -0.029434f, 0.001743f, 0.102249f, -0.106774f, 0.126223f, -0.010699f, -0.078639f, 
	0.185020f, 0.125324f, -0.111893f, 0.038733f, -0.063838f, 0.038072f, 0.184190f, 0.461317f, 
	0.172620f, 0.056416f, 0.059088f, -0.057109f, 0.269207f, 0.013149f, 0.223271f, 0.041962f, 
	0.049335f, -0.193369f, -0.097375f, -0.016082f, 0.100319f, 0.170506f, 0.295422f, 0.162449f, 
	-0.162622f, 0.045033f, -0.091997f, -0.095855f, -0.042452f, 0.019664f, -0.088192f, 0.113856f, 
	0.077231f, 0.008621f, -0.151960f, 0.192201f, 0.232978f, -0.032183f, -0.266286f, 0.048251f, 
	-0.061830f, -0.308332f, 0.010731f, 0.112646f, -0.004453f, -0.180895f, -0.154361f, -0.299371f, 
	0.238423f, -0.052277f, 0.110842f, -0.199309f, 0.050768f, 0.222727f, -0.079068f, 0.202420f, 
	-0.311087f, 0.205276f, 0.271243f, -0.272187f, 0.230909f, -0.264997f, 0.228671f, -0.072505f, 
	0.022534f, 0.288369f, -0.097754f, 0.006120f, 0.321989f, 0.317487f, 0.108459f, -0.312012f, 
	0.067272f, -0.105582f, -0.177268f, -0.347428f, -0.011294f, -0.071400f, 0.150118f, -0.310412f, 
	-0.113709f, 0.201992f, 0.139304f, 0.165227f, -0.070749f, -0.077822f, -0.215734f, 0.142635f, 
	-0.202655f, -0.256483f, 0.192071f, -0.219804f, -0.030428f, -0.067331f, -0.030077f, -0.198371f, 
	0.036553f, -0.219456f, -0.124543f, 0.163450f, 0.060817f, 0.261470f, -0.023708f, 0.194425f, 
	-0.002859f, 0.269082f, -0.070554f, -0.075135f, -0.057816f, 0.004090f, 0.073216f, -0.058418f, 
	0.095962f, -0.190904f, -0.240636f, -0.097419f, 0.267215f, -0.041551f, 0.244897f, 0.060356f, 
	-0.036283f, 0.081736f, -0.279509f, 0.038802f, -0.085016f, -0.005546f, 0.031736f, 0.134267f, 
	-0.130713f, 0.170946f, -0.112218f, 0.136898f, -0.167197f, -0.129227f, -0.164979f, 0.165557f, 
	-0.182122f, -0.026501f, -0.002665f, -0.096442f, 0.127603f, 0.052107f, -0.220962f, 0.175574f, 
	0.094588f, 0.014767f, 0.081016f, -0.237923f, -0.355732f, -0.070027f, 0.052960f, -0.000710f, 
	-0.163299f, -0.184958f, -0.139973f, 0.190855f, -0.106187f, -0.126294f, 0.155929f, -0.000125f, 
	-0.124390f, 0.216772f, -0.103239f, -0.091602f, -0.160866f, 0.108578f, 0.231392f, 0.060705f, 
	-0.035371f, 0.037694f, 0.025604f, 0.007891f, 0.085708f, -0.269524f, -0.255186f, 0.193847f, 
	-0.322048f, -0.037830f, 0.193392f, 0.103258f, -0.176657f, -0.163039f, -0.111439f, 0.090149f, 
	-0.176771f, 0.024527f, 0.174095f, 0.149891f, 0.076043f, -0.178209f, -0.104495f, -0.184879f, 
	-0.175543f, -0.292545f, -0.132086f, -0.131681f, 0.014281f, 0.133319f, -0.022685f, 0.115334f, 
	-0.219764f, 0.150920f, -0.051410f, 0.229017f, 0.029651f, 0.020442f, -0.028706f, -0.008993f, 
	-0.007983f, -0.069262f, 0.076524f, -0.027874f, -0.056662f, -0.113457f, -0.032676f, 0.312491f, 
};

const static dl_matrix3d_t onet_l2_depth={
	.w=3,
	.h=3,
	.c=32,
	.n=1,
	.stride=96,
	.item=(fptp_t *)(&onet_l2_depth_item_array[0])
};

const static fptp_t onet_l2_prelu_alpha_item_array[]={
	0.262892f, -0.582240f, -1.065102f, -0.617561f, -0.591419f, -0.093414f, -0.645870f, -0.744543f, 
	0.397641f, -0.009805f, -0.146657f, 0.371556f, -0.934843f, -0.091031f, -0.854712f, -0.003355f, 
	-0.138846f, -0.690311f, 1.626264f, -0.728689f, 1.687128f, -0.511671f, -0.515368f, -0.816076f, 
	-0.654975f, -0.845062f, -1.448383f, -0.262399f, -0.601016f, -0.831902f, -0.199367f, 0.230940f, 
};

const static dl_matrix3d_t onet_l2_prelu_alpha={
	.w=1,
	.h=1,
	.c=32,
	.n=1,
	.stride=32,
	.item=(fptp_t *)(&onet_l2_prelu_alpha_item_array[0])
};

const static fptp_t onet_l3_bias_item_array[]={
	-0.046761f, -0.249669f, 0.357850f, 0.185460f, -0.070268f, 0.151695f, 0.025614f, 0.005680f, 
	-0.063979f, 0.246214f, 0.227007f, -0.082466f, -0.132087f, 0.179693f, -0.292856f, 0.139590f, 
	-0.195696f, -0.174804f, 0.009835f, -0.012155f, -0.178780f, 0.079500f, -0.206177f, 0.266047f, 
	0.114990f, 0.019410f, 0.126384f, -0.058058f, -0.070259f, 0.135699f, 0.247988f, 0.033552f, 
	0.134323f, 0.035262f, 0.247796f, 0.015906f, -0.027445f, -0.208009f, 0.073199f, -0.116686f, 
	0.255616f, -0.299889f, -0.205628f, 0.009344f, -0.160233f, -0.122545f, 0.170698f, 0.127344f, 
	-0.026583f, 0.225155f, 0.244675f, -0.038848f, -0.041959f, 0.053922f, 0.430064f, 0.016365f, 
	-0.135442f, 0.071716f, -0.163701f, 0.154332f, -0.005823f, -0.003574f, -0.151387f, 0.221081f, 
};

const static dl_matrix3d_t onet_l3_bias={
	.w=1,
	.h=1,
	.c=64,
	.n=1,
	.stride=64,
	.item=(fptp_t *)(&onet_l3_bias_item_array[0])
};

const static fptp_t onet_l3_compress_item_array[]={
	-0.282274f, 0.022923f, 0.003699f, 0.209273f, -0.321998f, 0.027442f, 0.072785f, 0.111812f, 
	-0.141320f, 0.113251f, -0.312703f, -0.124439f, -0.029402f, -0.087246f, 0.360459f, 0.121040f, 
	-0.106105f, -0.003422f, 0.294496f, -0.064365f, 0.062383f, 0.030435f, -0.087235f, 0.570427f, 
	-0.025858f, -0.134430f, 0.037420f, -0.009021f, -0.021617f, -0.145361f, 0.102113f, 0.023608f, 
	0.023126f, -0.290292f, 0.359445f, -0.032642f, 0.008127f, -0.096335f, -0.229484f, 0.144579f, 
	0.119897f, -0.179690f, 0.090985f, -0.112657f, -0.227118f, 0.440486f, 0.063005f, 0.157462f, 
	-0.189557f, -0.054062f, -0.014349f, 0.014018f, 0.184937f, -0.005018f, -0.255489f, -0.108670f, 
	-0.267498f, 0.459010f, -0.015018f, 0.000913f, -0.185551f, -0.130093f, 0.007598f, 0.405460f, 
	0.308450f, -0.414237f, -0.013991f, 0.008239f, 0.105859f, -0.365124f, 0.137276f, -0.013280f, 
	-0.259146f, -0.270932f, -0.059616f, 0.395098f, 0.202251f, -0.343438f, 0.160659f, 0.171236f, 
	-0.148969f, 0.078458f, -0.194335f, 0.214552f, 0.368756f, -0.185304f, -0.158539f, -0.126382f, 
	-0.088502f, -0.519590f, 0.056037f, 0.079246f, -0.119954f, 0.036468f, -0.007926f, 0.216172f, 
	0.500270f, 0.031082f, 0.060045f, 0.042475f, 0.367673f, 0.175214f, -0.083000f, 0.060228f, 
	-0.075794f, 0.299173f, 0.082842f, 0.129892f, -0.095855f, 0.070901f, -0.113155f, -0.201289f, 
	0.094405f, 0.481081f, 0.437653f, -0.206468f, -0.320914f, -0.139101f, -0.064611f, 0.026598f, 
	0.328474f, 0.262533f, 0.128678f, 0.011964f, 0.118334f, -0.052363f, 0.043210f, -0.487045f, 
	-0.058958f, 0.162367f, -0.294356f, 0.133358f, 0.086875f, -0.333280f, -0.043767f, -0.102183f, 
	-0.091675f, 0.018383f, -0.349012f, -0.381172f, -0.053544f, -0.076450f, 0.218747f, -0.222035f, 
	-0.203108f, -0.054597f, 0.355516f, -0.128216f, -0.006028f, 0.193318f, 0.420285f, -0.034826f, 
	-0.098838f, 0.088881f, -0.455616f, -0.115287f, -0.306983f, -0.043022f, -0.001620f, 0.024552f, 
	0.159362f, 0.151841f, -0.141852f, -0.250529f, 0.070697f, -0.069305f, 0.224854f, -0.410770f, 
	0.333017f, 0.255333f, -0.259528f, -0.078236f, -0.018601f, 0.004659f, 0.261619f, 0.186281f, 
	-0.114821f, -0.123739f, -0.059689f, -0.153770f, -0.056258f, 0.080078f, -0.110672f, 0.114395f, 
	-0.418875f, -0.077117f, -0.362701f, -0.098156f, 0.330573f, 0.045035f, 0.025529f, 0.084906f, 
	0.015197f, -0.007299f, 0.127784f, -0.112523f, -0.115278f, -0.022531f, 0.198557f, -0.189817f, 
	0.206076f, 0.032372f, 0.339028f, -0.445613f, -0.221427f, 0.191362f, -0.114193f, -0.122188f, 
	0.056954f, -0.242612f, -0.087244f, -0.006315f, -0.145100f, 0.232299f, 0.056595f, -0.481613f, 
	0.006308f, 0.171121f, -0.467407f, -0.104848f, 0.189633f, -0.076664f, 0.000961f, -0.057514f, 
	-0.064082f, 0.162984f, 0.305191f, 0.125645f, 0.301474f, -0.035079f, -0.027874f, -0.158737f, 
	-0.160615f, 0.034959f, 0.000706f, 0.068418f, -0.052388f, 0.011911f, -0.109568f, 0.025065f, 
	0.341129f, 0.066148f, 0.040187f, -0.233845f, 0.056021f, -0.134189f, 0.139134f, -0.315119f, 
	0.141021f, 0.079867f, -0.045640f, -0.029823f, -0.273429f, 0.110224f, -0.319188f, 0.122865f, 
	-0.293106f, 0.056208f, 0.222786f, -0.207939f, -0.063231f, 0.153465f, 0.220713f, -0.103208f, 
	0.093648f, 0.260143f, -0.059605f, -0.212078f, -0.197733f, 0.121468f, 0.042673f, 0.172026f, 
	-0.084726f, -0.076524f, -0.433671f, 0.275346f, 0.312833f, -0.095559f, 0.017728f, -0.122387f, 
	-0.105345f, 0.089212f, -0.191141f, 0.113377f, -0.110694f, -0.319851f, -0.211251f, -0.061694f, 
	0.100164f, 0.071390f, 0.099891f, -0.271255f, 0.081021f, -0.044942f, 0.257164f, -0.097295f, 
	-0.011274f, -0.017483f, -0.073858f, -0.043845f, -0.273180f, 0.348677f, 0.082593f, 0.352193f, 
	-0.053308f, 0.072073f, -0.085934f, -0.042538f, 0.116647f, -0.077183f, 0.243450f, 0.194662f, 
	0.069206f, 0.516880f, -0.393636f, 0.354754f, -0.263718f, 0.005678f, 0.047405f, 0.176647f, 
	-0.184269f, -0.174439f, 0.187246f, 0.022547f, 0.125290f, 0.250751f, -0.440267f, 0.191675f, 
	-0.029098f, 0.031600f, -0.224423f, -0.163993f, -0.334090f, -0.362731f, 0.206817f, -0.064656f, 
	0.197134f, 0.087515f, 0.058121f, 0.067886f, -0.117971f, -0.119578f, 0.382581f, -0.039765f, 
	-0.192892f, 0.245132f, -0.131361f, -0.043777f, -0.130361f, -0.003127f, 0.061828f, 0.208166f, 
	-0.170776f, 0.278022f, 0.020156f, -0.470185f, -0.070152f, 0.141528f, -0.175194f, -0.140326f, 
	0.107902f, 0.272290f, 0.143851f, 0.003220f, 0.308830f, -0.041787f, 0.141668f, 0.008553f, 
	-0.066076f, 0.055885f, -0.239697f, -0.066614f, -0.238113f, 0.160041f, 0.295666f, 0.026247f, 
	-0.295679f, -0.021926f, 0.210567f, 0.063650f, 0.081874f, -0.136258f, 0.361974f, -0.107073f, 
	0.307430f, 0.317668f, 0.050179f, -0.223223f, 0.049346f, 0.116736f, -0.053793f, 0.014390f, 
	-0.233079f, -0.269396f, -0.239932f, -0.150058f, 0.080276f, -0.144061f, -0.515572f, 0.102448f, 
	-0.080726f, -0.003564f, -0.131092f, 0.082182f, 0.162702f, -0.367413f, -0.019488f, -0.065313f, 
	0.152928f, -0.110424f, -0.123772f, 0.365409f, -0.482241f, -0.251447f, -0.123341f, -0.066183f, 
	0.305297f, 0.002850f, 0.032688f, 0.209264f, 0.135691f, 0.383831f, -0.186453f, 0.320144f, 
	-0.098927f, 0.153650f, 0.187576f, 0.296984f, -0.474375f, 0.092311f, -0.029216f, 0.214095f, 
	-0.120827f, -0.233042f, 0.153150f, 0.000990f, -0.134891f, -0.285563f, -0.162017f, -0.037598f, 
	0.033384f, 0.181145f, -0.085751f, -0.072538f, 0.170518f, -0.076666f, 0.152460f, 0.019188f, 
	0.074175f, -0.187787f, 0.247321f, 0.244084f, -0.016079f, 0.077274f, 0.042585f, -0.253322f, 
	0.335247f, -0.217125f, -0.166729f, -0.230658f, -0.117046f, -0.030100f, 0.256534f, 0.180840f, 
	-0.261270f, -0.062354f, -0.018085f, 0.143999f, 0.012941f, 0.107342f, -0.016236f, 0.478372f, 
	-0.173512f, -0.088874f, -0.127620f, -0.223626f, 0.220236f, -0.076617f, -0.113315f, 0.167009f, 
	-0.092660f, -0.087562f, 0.244938f, -0.001155f, -0.260749f, -0.206407f, -0.038424f, 0.152902f, 
	-0.314903f, 0.146391f, -0.091598f, -0.084042f, -0.039950f, 0.391104f, 0.182072f, -0.430846f, 
	-0.220390f, -0.090351f, -0.379598f, 0.283361f, -0.314674f, -0.031308f, -0.055744f, 0.234880f, 
	-0.141072f, 0.168126f, -0.062805f, 0.043626f, 0.071536f, -0.109904f, -0.197461f, 0.049875f, 
	0.067336f, 0.088336f, -0.108728f, 0.145149f, 0.118644f, 0.182588f, -0.181307f, 0.346648f, 
	-0.006763f, 0.205524f, -0.130424f, -0.022598f, 0.013283f, -0.304439f, 0.402063f, 0.231818f, 
	0.149415f, 0.412728f, 0.101610f, -0.005780f, 0.333456f, 0.002635f, 0.024508f, -0.051780f, 
	-0.292109f, -0.215106f, 0.083254f, -0.114833f, -0.065089f, 0.073073f, 0.293516f, 0.258153f, 
	0.174083f, 0.033585f, -0.018428f, 0.272122f, 0.112760f, -0.297106f, 0.201983f, -0.068427f, 
	0.099840f, 0.045284f, -0.151432f, -0.058231f, 0.198321f, 0.059762f, -0.142510f, 0.319283f, 
	-0.073049f, -0.175937f, -0.207682f, 0.194928f, -0.219056f, -0.009649f, 0.005688f, 0.127637f, 
	-0.038291f, -0.251373f, -0.018281f, -0.074974f, -0.012718f, 0.083177f, 0.017601f, -0.026411f, 
	0.202863f, -0.310319f, -0.096489f, -0.238958f, 0.156844f, -0.031641f, -0.054136f, -0.019925f, 
	-0.205193f, 0.172285f, 0.203677f, 0.029341f, 0.066825f, 0.038133f, 0.064047f, 0.022128f, 
	-0.120503f, -0.343044f, -0.059728f, 0.271873f, 0.048325f, 0.013269f, 0.190860f, -0.124734f, 
	-0.069738f, 0.026766f, -0.237405f, 0.004931f, -0.075097f, -0.400901f, -0.428199f, -0.132477f, 
	-0.132039f, 0.178535f, -0.085083f, 0.099643f, 0.123838f, 0.050506f, -0.157638f, 0.114306f, 
	-0.051799f, 0.019645f, -0.065282f, 0.105130f, -0.232476f, 0.046222f, 0.086610f, -0.292925f, 
	-0.027917f, -0.028267f, -0.063945f, -0.214405f, -0.149020f, 0.169629f, -0.136422f, -0.095058f, 
	0.112162f, 0.120487f, 0.136411f, 0.224324f, 0.344162f, 0.362414f, -0.008865f, -0.191155f, 
	0.112597f, 0.079697f, -0.151607f, 0.092295f, 0.092218f, -0.327252f, -0.113218f, -0.073895f, 
	0.013464f, -0.034838f, -0.224721f, -0.036813f, -0.233525f, -0.284080f, -0.003690f, -0.073192f, 
	0.047466f, 0.036606f, 0.101854f, -0.012068f, 0.424382f, -0.067546f, 0.159312f, 0.130160f, 
	-0.159328f, 0.089783f, 0.095275f, 0.046718f, -0.052688f, -0.428272f, -0.244519f, -0.329254f, 
	0.076734f, -0.087977f, 0.242747f, 0.002398f, 0.064533f, -0.037999f, -0.072939f, -0.087621f, 
	0.044050f, 0.266064f, 0.041289f, 0.179530f, -0.365398f, 0.331941f, 0.064117f, -0.197649f, 
	-0.379695f, 0.276011f, -0.082573f, -0.096993f, -0.255491f, -0.014469f, 0.056011f, -0.099660f, 
	-0.155578f, -0.061201f, -0.168051f, 0.140711f, 0.319678f, 0.132730f, -0.221848f, -0.087887f, 
	0.080391f, 0.140278f, -0.056828f, -0.009041f, 0.092681f, -0.066104f, 0.075228f, -0.080450f, 
	0.217462f, 0.117918f, -0.113145f, -0.014842f, 0.062743f, -0.371015f, -0.427539f, 0.372910f, 
	0.088117f, 0.011332f, -0.264446f, -0.154701f, -0.178978f, 0.205633f, 0.049800f, 0.155763f, 
	0.108787f, 0.247531f, -0.070810f, 0.401633f, 0.355578f, 0.220965f, 0.244317f, 0.161901f, 
	0.092348f, 0.115412f, 0.055319f, -0.079725f, 0.387552f, -0.115228f, -0.011579f, 0.039857f, 
	0.099599f, -0.168442f, 0.357783f, -0.044950f, 0.114101f, 0.012742f, -0.243778f, -0.360973f, 
	-0.327714f, 0.179527f, -0.088738f, 0.116223f, 0.327279f, 0.282027f, 0.458669f, -0.049289f, 
	-0.789007f, -0.001431f, -0.159594f, -0.328376f, -0.191335f, -0.157835f, -0.197958f, 0.357398f, 
	0.024411f, 0.062129f, -0.272220f, -0.093883f, 0.043682f, -0.067882f, 0.009954f, -0.225310f, 
	0.137128f, 0.348623f, -0.046886f, -0.048752f, -0.000340f, -0.227079f, -0.185447f, -0.029713f, 
	-0.078310f, 0.309674f, 0.101369f, -0.146737f, -0.223581f, -0.086289f, -0.097027f, 0.145765f, 
	-0.039589f, 0.071651f, 0.168641f, 0.200748f, 0.717463f, -0.081946f, -0.399868f, -0.144982f, 
	-0.126374f, -0.338316f, 0.215409f, -0.108888f, 0.032904f, 0.253440f, 0.142185f, -0.121186f, 
	0.106352f, 0.012154f, 0.383301f, 0.061590f, 0.020801f, -0.015081f, -0.140028f, 0.014063f, 
	-0.105144f, 0.253694f, -0.099726f, 0.407086f, 0.029865f, 0.370510f, 0.009966f, -0.098333f, 
	-0.275299f, 0.086932f, 0.068831f, -0.096249f, 0.532947f, -0.087414f, 0.071412f, -0.048842f, 
	-0.233553f, 0.254615f, -0.118218f, 0.218798f, -0.034220f, 0.026431f, 0.013745f, 0.262080f, 
	0.237123f, 0.183233f, -0.044030f, -0.249055f, -0.047506f, 0.197471f, 0.133296f, 0.098508f, 
	0.227778f, 0.239707f, -0.008579f, -0.266824f, -0.113767f, 0.139319f, 0.103673f, -0.005104f, 
	-0.203467f, 0.302227f, 0.098633f, -0.221755f, -0.112685f, -0.097406f, 0.210891f, -0.115648f, 
	-0.178260f, -0.174416f, 0.025255f, -0.207865f, 0.247250f, -0.275503f, 0.035119f, -0.198246f, 
	-0.215609f, -0.035153f, -0.161693f, 0.042302f, 0.398638f, -0.125660f, 0.239200f, 0.033411f, 
	0.269730f, 0.175796f, -0.168721f, -0.251503f, 0.266919f, 0.200370f, -0.063211f, 0.060390f, 
	-0.367495f, 0.100384f, 0.020895f, -0.056455f, -0.176255f, -0.161132f, -0.252284f, 0.042067f, 
	-0.090469f, 0.156219f, -0.072574f, 0.187251f, 0.161645f, 0.189282f, 0.043817f, 0.104354f, 
	0.077788f, 0.032430f, 0.235758f, -0.200893f, -0.027877f, 0.012290f, 0.156856f, -0.111245f, 
	-0.027697f, -0.066008f, -0.007583f, 0.179094f, 0.083131f, 0.425488f, -0.270585f, -0.017314f, 
	-0.179684f, 0.006332f, 0.156373f, 0.063438f, -0.227527f, 0.043565f, -0.039410f, -0.116515f, 
	0.067772f, -0.017276f, 0.099843f, 0.407618f, 0.103178f, -0.103533f, 0.195250f, 0.385860f, 
	0.038588f, -0.183243f, -0.138492f, -0.133769f, 0.028204f, 0.037561f, -0.227873f, 0.023176f, 
	-0.198608f, 0.022409f, -0.320775f, -0.089721f, 0.050490f, 0.097975f, -0.153475f, 0.441232f, 
	-0.005587f, -0.013762f, -0.107240f, 0.055502f, 0.044045f, 0.105681f, -0.236162f, 0.134281f, 
	0.044168f, -0.058332f, 0.143629f, -0.179154f, 0.066980f, -0.357690f, -0.192435f, 0.178914f, 
	-0.097997f, 0.191855f, -0.138323f, -0.054080f, -0.352557f, -0.045479f, -0.061867f, -0.141893f, 
	0.354404f, 0.099955f, 0.016521f, 0.109915f, 0.005600f, -0.252229f, 0.181225f, -0.337862f, 
	0.066090f, 0.113392f, -0.470389f, 0.083732f, 0.286955f, 0.035444f, 0.054240f, 0.027326f, 
	-0.043940f, -0.134557f, -0.208473f, 0.042996f, 0.074604f, 0.198238f, 0.108525f, -0.125188f, 
	-0.160904f, 0.332661f, 0.144724f, 0.372986f, -0.209822f, -0.090075f, -0.071574f, 0.060646f, 
	-0.047988f, -0.061681f, 0.060834f, -0.054704f, -0.117442f, -0.427448f, -0.014066f, -0.017458f, 
	-0.020408f, 0.126546f, -0.049140f, -0.030636f, 0.059171f, 0.126652f, 0.358088f, -0.362853f, 
	-0.199933f, -0.007046f, -0.121919f, -0.124296f, -0.175425f, -0.069649f, -0.080015f, 0.205774f, 
	0.164614f, 0.302999f, 0.140432f, -0.087479f, -0.208294f, -0.416514f, 0.243626f, -0.305427f, 
	0.117185f, 0.148840f, 0.312167f, -0.005198f, 0.222428f, 0.200109f, 0.324695f, -0.051853f, 
	-0.126211f, 0.251905f, -0.031183f, -0.173052f, -0.165773f, 0.173859f, 0.269376f, -0.098664f, 
	-0.115157f, 0.130908f, 0.306707f, -0.284941f, -0.209881f, -0.321110f, -0.098504f, -0.033146f, 
	0.117667f, -0.101255f, 0.059503f, -0.085426f, 0.260749f, -0.091004f, 0.265129f, -0.130236f, 
	0.000650f, 0.004517f, -0.105174f, 0.068656f, 0.100735f, -0.166979f, 0.053450f, -0.087547f, 
	-0.225621f, 0.190663f, 0.268557f, -0.018123f, -0.277381f, -0.044808f, -0.052835f, 0.219698f, 
	-0.248890f, 0.085939f, 0.040336f, 0.305430f, 0.228997f, -0.142657f, 0.050119f, -0.091830f, 
	-0.074158f, -0.136265f, 0.033263f, 0.032759f, -0.075306f, 0.122637f, 0.092772f, -0.133956f, 
	-0.179669f, 0.386212f, -0.177381f, 0.425513f, -0.027216f, 0.156963f, -0.077859f, 0.115441f, 
	-0.093148f, -0.003149f, 0.246227f, -0.157857f, 0.089504f, -0.045261f, -0.184969f, 0.211504f, 
	0.466225f, 0.150952f, -0.074605f, 0.087249f, 0.012155f, -0.020728f, 0.052723f, 0.020795f, 
	0.268557f, -0.158113f, -0.160758f, -0.206919f, 0.207721f, 0.040975f, -0.104727f, 0.343561f, 
	-0.256250f, -0.009715f, 0.111563f, 0.194509f, 0.021436f, -0.119033f, 0.134017f, 0.473455f, 
	0.186085f, -0.130045f, -0.254583f, 0.305025f, 0.152135f, 0.235624f, -0.143291f, -0.108950f, 
	-0.309937f, 0.054569f, -0.313848f, -0.183773f, -0.174061f, 0.265978f, 0.255317f, 0.146434f, 
	0.036019f, 0.024582f, 0.344130f, 0.293075f, 0.113231f, 0.008427f, 0.074091f, -0.190758f, 
	0.102757f, -0.006966f, 0.376623f, 0.042890f, 0.093191f, -0.039764f, 0.095674f, -0.018143f, 
	-0.308471f, -0.115493f, -0.027168f, 0.050015f, -0.238756f, 0.118132f, 0.003925f, 0.059055f, 
	-0.153627f, -0.017696f, -0.026883f, 0.029778f, -0.154119f, 0.126874f, -0.011087f, 0.093656f, 
	0.136785f, -0.196588f, -0.124527f, -0.059497f, 0.082829f, -0.045066f, -0.139240f, -0.218712f, 
	0.308302f, 0.032478f, 0.246287f, 0.048154f, 0.277927f, 0.052174f, -0.300737f, -0.047728f, 
	0.237391f, 0.091908f, 0.263723f, 0.029394f, -0.486920f, 0.058949f, 0.229840f, -0.014330f, 
	0.174388f, -0.188928f, -0.171704f, 0.120796f, -0.273949f, -0.050801f, 0.791960f, -0.128849f, 
	-0.094070f, -0.044575f, -0.139604f, 0.058496f, -0.230289f, 0.032645f, 0.032757f, 0.560955f, 
	-0.358663f, -0.317661f, -0.163652f, 0.470609f, 0.335651f, 0.167043f, -0.405139f, 0.044911f, 
	-0.392224f, 0.137939f, 0.020573f, -0.200278f, -0.272365f, -0.002243f, 0.280577f, 0.173192f, 
	0.272007f, 0.147410f, -0.207210f, -0.129886f, -0.049004f, 0.091144f, 0.155356f, 0.344648f, 
	0.094116f, -0.009240f, -0.113201f, 0.131853f, -0.385704f, 0.313739f, 0.033587f, -0.051926f, 
	0.045479f, 0.086942f, 0.113401f, 0.066892f, -0.095803f, 0.241788f, 0.046666f, 0.266860f, 
	0.061778f, 0.146742f, -0.030560f, 0.588257f, 0.240515f, 0.371280f, 0.016418f, 0.195803f, 
	0.106189f, -0.077646f, 0.010039f, 0.105951f, 0.511662f, -0.067493f, -0.020998f, 0.032835f, 
	-0.020468f, 0.172520f, 0.402696f, 0.005323f, 0.179167f, 0.107047f, -0.219579f, 0.510047f, 
	-0.244061f, -0.105425f, 0.005386f, 0.138126f, 0.105891f, -0.403591f, 0.389916f, -0.031750f, 
	0.155101f, -0.115947f, 0.031021f, -0.060037f, 0.277237f, 0.119521f, 0.020235f, 0.140062f, 
	-0.338004f, -0.290302f, 0.239597f, 0.187344f, -0.245776f, 0.224886f, -0.412565f, 0.213378f, 
	0.488580f, -0.031918f, -0.149581f, -0.080539f, 0.123640f, 0.118174f, -0.174204f, 0.442879f, 
	-0.032819f, 0.181384f, 0.244437f, -0.064371f, -0.075912f, -0.277373f, 0.033455f, 0.052228f, 
	-0.161679f, -0.216845f, 0.340268f, 0.086057f, 0.018870f, 0.159185f, 0.189752f, -0.055809f, 
	-0.087163f, 0.338593f, -0.104404f, 0.125696f, 0.413409f, -0.050880f, -0.170009f, -0.286219f, 
	-0.020554f, -0.154821f, -0.066620f, -0.043236f, 0.097232f, 0.317093f, 0.170107f, -0.078147f, 
	-0.093137f, -0.210625f, 0.254453f, -0.193447f, 0.036196f, 0.046493f, -0.422059f, -0.182473f, 
	0.146356f, 0.167147f, 0.330276f, -0.255838f, 0.123046f, 0.151200f, 0.280855f, -0.085387f, 
	0.210036f, -0.200132f, -0.202517f, 0.169312f, -0.013423f, -0.040855f, 0.118728f, -0.021739f, 
	0.221587f, -0.010099f, -0.007205f, -0.077350f, -0.008232f, 0.031418f, -0.007100f, 0.014863f, 
	-0.072008f, 0.030294f, 0.318888f, 0.096160f, -0.019382f, -0.168794f, 0.174282f, -0.057909f, 
	-0.150027f, -0.106489f, -0.048658f, -0.209208f, 0.046597f, -0.026412f, -0.249190f, -0.081804f, 
	-0.041292f, 0.075911f, 0.010370f, 0.432393f, -0.097766f, -0.059432f, 0.185568f, 0.015484f, 
	0.176662f, -0.385051f, -0.469963f, 0.374400f, 0.138161f, 0.157065f, 0.338297f, 0.198910f, 
	-0.116005f, 0.355706f, 0.328582f, -0.108539f, 0.126504f, -0.371609f, 0.074446f, 0.265723f, 
	-0.068435f, -0.063802f, 0.119768f, 0.049519f, 0.172125f, -0.061768f, 0.154893f, -0.002495f, 
	0.115081f, -0.232546f, -0.409616f, -0.102582f, -0.372430f, 0.184317f, 0.247040f, 0.286842f, 
	0.239285f, 0.275762f, -0.391886f, -0.164815f, 0.351508f, -0.075323f, -0.149514f, -0.150209f, 
	0.204946f, -0.171541f, 0.033876f, 0.181099f, -0.057594f, -0.084560f, 0.104196f, 0.103177f, 
	0.035473f, -0.125903f, 0.084784f, -0.066567f, -0.033703f, -0.235062f, 0.167257f, 0.227357f, 
	0.353452f, -0.263070f, -0.185783f, -0.087988f, 0.132050f, -0.224266f, -0.187117f, -0.118575f, 
	-0.314919f, -0.175207f, 0.096481f, -0.069970f, -0.246621f, 0.077272f, -0.138938f, 0.261728f, 
	-0.191777f, -0.200450f, -0.380902f, -0.027964f, -0.113441f, 0.044342f, 0.127080f, -0.131950f, 
	0.696504f, -0.163586f, 0.095699f, -0.090483f, -0.046045f, -0.164194f, -0.181823f, -0.473401f, 
	0.108542f, -0.094816f, -0.373979f, 0.345320f, -0.093523f, 0.192265f, -0.098374f, 0.076319f, 
	-0.107085f, -0.123726f, 0.199112f, 0.142140f, -0.110547f, -0.105987f, 0.156273f, 0.219340f, 
	-0.093158f, -0.103768f, -0.018422f, -0.261042f, 0.228633f, 0.031004f, -0.134349f, -0.049080f, 
	0.140122f, 0.156991f, -0.080513f, 0.270709f, 0.219402f, 0.168271f, 0.250620f, 0.257763f, 
	-0.038147f, 0.058311f, -0.531911f, 0.084655f, -0.036297f, 0.135959f, -0.029044f, -0.090909f, 
	0.076005f, -0.215670f, 0.003452f, 0.238655f, -0.132557f, -0.244562f, -0.107358f, 0.723869f, 
	0.070202f, 0.243651f, 0.309680f, -0.121297f, -0.219236f, 0.067439f, -0.077696f, -0.017494f, 
	0.440776f, 0.012364f, -0.269740f, -0.161976f, 0.191453f, -0.197715f, 0.334618f, 0.066441f, 
	0.217738f, -0.195954f, 0.219229f, -0.079174f, 0.077824f, -0.062975f, -0.195187f, 0.048404f, 
	-0.186559f, -0.007503f, 0.000244f, -0.379317f, 0.086958f, 0.007464f, -0.030436f, 0.007403f, 
	0.014671f, 0.137911f, 0.058989f, 0.057808f, -0.209920f, -0.114498f, 0.171569f, -0.099397f, 
	-0.673021f, 0.191638f, -0.155384f, -0.030700f, -0.212142f, -0.337900f, -0.280952f, 0.059858f, 
	0.125178f, 0.072143f, 0.020168f, 0.120692f, -0.025247f, -0.154971f, -0.129857f, 0.007602f, 
	-0.407948f, -0.463284f, 0.137720f, -0.309271f, -0.178477f, 0.107381f, -0.012301f, 0.190267f, 
	-0.077753f, -0.091112f, -0.263091f, 0.149779f, 0.018650f, -0.263356f, 0.145997f, -0.120471f, 
	0.045969f, 0.017571f, 0.143391f, -0.433856f, -0.087961f, -0.200328f, 0.256293f, -0.136047f, 
	-0.046824f, -0.023369f, 0.201045f, -0.135102f, -0.463677f, 0.172838f, 0.247441f, -0.121633f, 
	-0.199348f, -0.149667f, 0.420843f, 0.184648f, -0.066142f, 0.483565f, 0.057805f, 0.097685f, 
	0.207531f, -0.071304f, 0.140364f, 0.411624f, 0.165541f, 0.010799f, -0.165108f, -0.001281f, 
	0.151029f, 0.262653f, -0.111742f, 0.288657f, 0.335209f, 0.242361f, 0.092510f, -0.172436f, 
	0.168711f, 0.066257f, 0.289173f, -0.074234f, 0.179436f, -0.136829f, -0.032210f, -0.107248f, 
	-0.326884f, -0.483554f, 0.113134f, -0.036651f, 0.181026f, 0.247965f, -0.332345f, -0.162114f, 
	-0.344834f, 0.143035f, -0.204177f, -0.010637f, -0.018427f, -0.191281f, 0.044627f, 0.001318f, 
	-0.009401f, 0.217034f, -0.177310f, -0.040249f, 0.007003f, 0.035007f, -0.381520f, -0.215699f, 
	0.193206f, 0.206174f, -0.116052f, 0.217290f, 0.140141f, 0.223819f, 0.062187f, 0.338192f, 
	-0.402220f, 0.018321f, 0.065505f, 0.019830f, 0.134978f, 0.238562f, 0.277264f, 0.003197f, 
	-0.275798f, 0.067906f, -0.050756f, -0.184819f, 0.299048f, -0.447801f, -0.503007f, -0.206579f, 
	-0.185266f, -0.108933f, -0.156660f, -0.096418f, -0.073922f, -0.002381f, 0.288824f, -0.086134f, 
	-0.131253f, 0.094850f, 0.235242f, 0.079656f, 0.393674f, 0.106818f, -0.164209f, 0.126603f, 
	-0.112393f, -0.001208f, -0.055318f, -0.241918f, 0.011569f, -0.006186f, -0.204028f, -0.423353f, 
	0.225472f, 0.098699f, 0.280952f, 0.141034f, -0.043636f, -0.005791f, -0.042168f, 0.108498f, 
	0.010725f, -0.222475f, 0.415312f, -0.069386f, 0.055425f, 0.209633f, 0.130819f, 0.270440f, 
	-0.031387f, -0.132548f, 0.022869f, 0.024311f, 0.200075f, 0.153917f, -0.026354f, -0.036814f, 
	0.183954f, -0.159546f, 0.222904f, -0.146748f, 0.273940f, 0.114848f, -0.090960f, 0.206086f, 
	-0.074361f, -0.226657f, 0.111088f, -0.063184f, 0.013149f, 0.019501f, -0.075954f, 0.086070f, 
	-0.160471f, -0.032777f, -0.260752f, 0.262057f, 0.062333f, 0.230317f, -0.039589f, 0.013678f, 
	0.174612f, 0.015308f, 0.011359f, -0.116381f, -0.077625f, 0.023310f, -0.009826f, 0.020994f, 
	0.388877f, 0.299863f, -0.145862f, 0.080427f, 0.095344f, 0.165475f, 0.211627f, -0.131859f, 
	0.058449f, 0.042221f, 0.122768f, -0.182677f, 0.134858f, 0.113901f, -0.300408f, 0.073845f, 
	-0.728367f, -0.136928f, 0.202291f, -0.117122f, -0.129855f, 0.115158f, 0.173531f, -0.020975f, 
	0.043101f, -0.130693f, -0.035921f, -0.020055f, 0.207867f, -0.186316f, -0.270480f, 0.142255f, 
	-0.163032f, 0.254380f, 0.379151f, 0.182908f, 0.041856f, -0.168126f, -0.059059f, -0.063339f, 
	-0.303122f, 0.093088f, 0.095142f, -0.052756f, -0.071861f, 0.207594f, -0.330733f, -0.095345f, 
	-0.115401f, -0.164405f, -0.053054f, -0.194765f, -0.124712f, -0.147058f, -0.048092f, 0.165209f, 
	-0.088163f, -0.050453f, 0.014491f, 0.241744f, -0.616274f, 0.120067f, 0.274648f, -0.116331f, 
	-0.085789f, -0.105013f, -0.095889f, 0.072408f, -0.109224f, 0.060061f, 0.157788f, -0.160203f, 
	-0.117789f, -0.111218f, 0.006964f, 0.225494f, 0.215934f, -0.146430f, -0.002342f, 0.119873f, 
	-0.051651f, -0.122679f, 0.027104f, 0.210150f, -0.402162f, -0.051114f, 0.082123f, -0.018716f, 
	0.383641f, -0.038804f, -0.220469f, -0.240260f, -0.040190f, -0.087505f, -0.226625f, 0.286968f, 
	-0.050456f, 0.181981f, -0.317668f, -0.071580f, 0.013781f, 0.213195f, -0.142966f, 0.103202f, 
	-0.111503f, -0.081778f, 0.064491f, -0.048655f, -0.158560f, 0.193003f, -0.056688f, 0.312796f, 
	0.210358f, -0.128982f, -0.043977f, -0.062144f, -0.180570f, 0.069917f, 0.039849f, 0.204866f, 
	-0.018671f, -0.320826f, -0.192177f, -0.192622f, -0.109539f, 0.023687f, -0.259310f, -0.168089f, 
	-0.086944f, -0.133577f, 0.089380f, -0.116375f, 0.143503f, -0.090636f, -0.035059f, -0.024052f, 
	0.092889f, -0.156946f, -0.270781f, 0.103380f, 0.173340f, -0.094520f, -0.053164f, 0.088092f, 
	-0.127819f, -0.020763f, -0.011242f, -0.237660f, 0.091261f, -0.556758f, -0.107166f, -0.214605f, 
	0.322230f, -0.091534f, 0.040449f, 0.054001f, 0.271415f, -0.005017f, -0.252131f, -0.034553f, 
	0.042282f, -0.089261f, 0.103671f, -0.032030f, -0.129625f, -0.103197f, 0.102318f, 0.083183f, 
	0.124074f, 0.063754f, 0.124570f, -0.006922f, -0.258482f, -0.213184f, -0.214451f, 0.199378f, 
	-0.113285f, -0.156340f, 0.043455f, 0.082861f, -0.114149f, 0.084581f, -0.005113f, 0.108876f, 
	0.281312f, 0.242291f, 0.275030f, -0.091255f, -0.227284f, -0.124130f, 0.206572f, -0.056040f, 
	-0.118134f, 0.112976f, -0.071123f, -0.361204f, 0.123620f, 0.017623f, -0.328181f, 0.017534f, 
	0.078721f, -0.051352f, -0.208971f, -0.073992f, -0.238380f, -0.128163f, 0.122401f, -0.141217f, 
	0.121699f, 0.011674f, 0.326750f, 0.103471f, 0.344931f, 0.034010f, 0.083260f, 0.185433f, 
	-0.031308f, 0.207403f, -0.119807f, -0.255185f, -0.090103f, 0.104768f, 0.023381f, -0.261302f, 
	-0.416299f, 0.141061f, 0.085134f, 0.551799f, -0.157686f, -0.135228f, 0.227828f, -0.152207f, 
	0.108841f, -0.278999f, 0.204802f, -0.021377f, 0.386509f, -0.245716f, -0.003947f, 0.146795f, 
	-0.126716f, -0.035736f, -0.193048f, -0.013905f, -0.076691f, 0.094097f, -0.273144f, -0.018372f, 
	0.181719f, 0.122776f, -0.465731f, -0.482350f, -0.014398f, -0.058982f, 0.191472f, -0.056375f, 
	0.007998f, -0.236071f, -0.102257f, 0.110731f, 0.197163f, -0.321063f, -0.298285f, 0.136179f, 
	-0.083776f, -0.151959f, 0.009362f, -0.156029f, 0.110362f, 0.135613f, -0.031406f, -0.015767f, 
	0.158834f, 0.482080f, 0.070777f, 0.113841f, -0.363232f, 0.122591f, -0.288644f, -0.251948f, 
	0.112009f, 0.033641f, 0.198542f, 0.172839f, -0.235254f, 0.271234f, 0.089905f, -0.028110f, 
	-0.153355f, 0.163366f, -0.167977f, -0.223578f, -0.287149f, 0.105286f, -0.096530f, -0.065876f, 
	0.347756f, 0.396350f, -0.103668f, -0.304093f, 0.133454f, -0.089835f, 0.219824f, 0.378610f, 
	0.239136f, -0.068774f, -0.164314f, -0.085027f, 0.146973f, -0.347125f, 0.183627f, 0.101449f, 
	-0.194187f, 0.148832f, -0.370499f, 0.123481f, 0.041173f, 0.204455f, -0.239262f, -0.171134f, 
	-0.217133f, -0.095522f, -0.200783f, -0.161076f, 0.314367f, 0.019088f, -0.226169f, 0.232269f, 
	-0.294968f, 0.100582f, 0.108256f, 0.035141f, -0.350130f, -0.080449f, -0.087060f, 0.096772f, 
	0.163419f, -0.067499f, 0.255892f, 0.027392f, -0.183678f, 0.295456f, 0.127062f, -0.009547f, 
	-0.003192f, 0.112982f, -0.076718f, 0.060461f, 0.108005f, 0.406504f, 0.026686f, -0.177051f, 
	0.117884f, 0.031118f, 0.214030f, 0.061050f, -0.085973f, -0.330973f, 0.004957f, 0.342268f, 
	-0.073706f, 0.020533f, 0.008022f, -0.040277f, -0.217467f, -0.072869f, -0.098375f, 0.292102f, 
	-0.085678f, -0.075282f, -0.332546f, 0.160907f, 0.539328f, 0.109579f, -0.136362f, -0.217356f, 
	0.006139f, 0.327854f, 0.119247f, 0.001923f, 0.127297f, -0.118264f, -0.174310f, 0.252625f, 
	0.090472f, -0.041377f, -0.052441f, -0.043047f, -0.115187f, 0.121476f, -0.223955f, -0.212221f, 
	0.306976f, 0.348796f, 0.278262f, -0.460045f, -0.098765f, 0.045611f, 0.138902f, 0.022234f, 
	0.189295f, -0.025942f, 0.017518f, -0.378769f, 0.216258f, 0.093956f, 0.023960f, -0.013441f, 
	-0.112722f, -0.144073f, -0.194571f, 0.138684f, -0.189713f, -0.002606f, -0.022718f, -0.261146f, 
	0.239997f, 0.300613f, -0.022010f, 0.008827f, -0.027987f, -0.146844f, -0.054363f, -0.260528f, 
	0.176357f, 0.105591f, -0.323804f, -0.318225f, 0.023436f, -0.253446f, -0.133916f, 0.199456f, 
	0.021898f, -0.454044f, 0.135635f, -0.228994f, 0.016643f, -0.324128f, 0.169346f, -0.183201f, 
	-0.003498f, 0.129297f, 0.224818f, -0.144103f, -0.312088f, -0.205811f, 0.094658f, -0.217819f, 
	-0.415488f, -0.170173f, 0.009466f, -0.269077f, -0.334363f, 0.204967f, -0.181109f, 0.016056f, 
	0.128785f, -0.168799f, -0.254541f, 0.303937f, -0.067697f, 0.150314f, -0.095380f, -0.068166f, 
	0.146045f, -0.027566f, -0.246758f, -0.054362f, -0.006381f, 0.127799f, -0.199707f, -0.088156f, 
	-0.073111f, -0.001905f, 0.159486f, 0.018664f, 0.263632f, 0.075254f, 0.346727f, -0.234879f, 
	-0.079403f, 0.022379f, -0.408693f, 0.166517f, -0.151419f, 0.095531f, -0.371239f, 0.182151f, 
	0.242341f, 0.121460f, -0.210383f, -0.101582f, 0.209749f, -0.124669f, 0.225268f, -0.097430f, 
	0.011483f, 0.320832f, -0.239331f, -0.043636f, 0.051749f, 0.216323f, 0.214062f, -0.177247f, 
	0.192295f, -0.238244f, 0.135377f, 0.337230f, -0.008380f, -0.043882f, -0.109998f, 0.138038f, 
	0.223533f, 0.285802f, -0.093674f, -0.067883f, 0.561900f, -0.104781f, 0.047573f, -0.344169f, 
	0.064492f, 0.097090f, -0.101587f, 0.134546f, 0.095417f, 0.186574f, 0.072270f, -0.338302f, 
	0.168331f, 0.092929f, 0.012919f, 0.356301f, -0.048270f, 0.089050f, 0.125997f, 0.118162f, 
	-0.053208f, 0.169795f, -0.056041f, 0.272631f, -0.395534f, -0.315861f, -0.001523f, 0.112689f, 
	-0.331201f, 0.317942f, -0.062989f, -0.239657f, 0.342982f, -0.049045f, 0.023693f, -0.205528f, 
	-0.243388f, -0.005080f, 0.108027f, -0.165864f, -0.055575f, -0.291221f, -0.068350f, 0.065775f, 
	0.063157f, -0.207833f, 0.093148f, -0.118191f, -0.040808f, 0.138666f, -0.247882f, 0.110222f, 
	-0.166511f, -0.268774f, -0.109379f, 0.111021f, -0.087938f, 0.073846f, -0.341031f, -0.058674f, 
	0.115978f, 0.016071f, 0.032976f, 0.289004f, -0.076170f, -0.325601f, 0.243570f, 0.178091f, 
	-0.048068f, -0.142331f, -0.134777f, 0.247081f, 0.183757f, 0.093717f, -0.065287f, 0.212700f, 
	0.048019f, -0.192828f, 0.112449f, -0.112737f, 0.287087f, -0.017960f, -0.020515f, 0.188354f, 
	0.509984f, 0.049266f, 0.238333f, 0.153067f, 0.083941f, -0.233106f, -0.529501f, -0.202097f, 
	-0.008152f, -0.116136f, -0.105677f, -0.365790f, 0.130811f, 0.057169f, 0.019819f, 0.236661f, 
	-0.202832f, 0.081957f, 0.250344f, -0.117653f, -0.039724f, -0.264283f, 0.131030f, 0.027010f, 
	-0.247798f, 0.261202f, 0.121392f, 0.169671f, -0.233060f, 0.162251f, -0.076453f, -0.307143f, 
	0.093093f, -0.154234f, 0.079640f, 0.007678f, -0.503059f, 0.469721f, 0.122616f, 0.036878f, 
	-0.283562f, 0.303250f, -0.269043f, 0.447990f, 0.425418f, -0.001756f, 0.224187f, -0.053137f, 
	0.085013f, -0.239406f, -0.073586f, 0.105329f, -0.153108f, -0.060789f, -0.094178f, 0.065757f, 
	0.063804f, 0.148194f, -0.182203f, 0.235245f, 0.273284f, 0.022028f, 0.124081f, 0.359156f, 
	0.070905f, 0.550906f, -0.349732f, -0.339519f, -0.032570f, 0.273851f, 0.224445f, -0.197619f, 
	0.265821f, -0.081509f, -0.290342f, 0.039865f, 0.143583f, 0.126685f, 0.175077f, 0.340452f, 
	0.043836f, 0.167893f, 0.176832f, -0.084525f, -0.114028f, 0.032557f, -0.503917f, 0.142291f, 
	-0.222820f, -0.051456f, -0.076958f, 0.137851f, -0.025472f, -0.054010f, 0.330444f, 0.202538f, 
	-0.143639f, 0.060758f, -0.263968f, -0.181821f, -0.066519f, 0.105775f, 0.235835f, -0.011560f, 
	0.213834f, 0.250841f, -0.071367f, 0.027985f, 0.020408f, -0.021954f, -0.309003f, -0.075704f, 
	-0.081585f, -0.256347f, 0.143748f, 0.294708f, 0.011976f, -0.270661f, 0.083948f, -0.421023f, 
	0.025914f, 0.141125f, 0.337125f, 0.106545f, 0.584095f, 0.240149f, -0.119882f, 0.102226f, 
	0.067278f, -0.098682f, -0.088948f, -0.027463f, 0.174159f, 0.267559f, -0.002622f, 0.200173f, 
	-0.087724f, 0.136613f, 0.144203f, 0.477173f, -0.172183f, -0.061283f, 0.172961f, 0.209362f, 
	0.409559f, 0.268543f, 0.263573f, 0.080784f, 0.177046f, -0.339459f, -0.223108f, 0.013402f, 
	-0.282883f, 0.095867f, 0.148133f, 0.011299f, -0.194561f, 0.121058f, 0.052817f, -0.387185f, 
	-0.511501f, 0.139511f, -0.079766f, 0.035135f, -0.366000f, -0.230749f, 0.013656f, -0.145401f, 
	-0.173399f, -0.064901f, -0.201648f, 0.321803f, -0.209038f, 0.126265f, 0.030422f, -0.216277f, 
	-0.069298f, 0.112764f, -0.183907f, 0.044064f, -0.099390f, -0.336932f, 0.051643f, 0.198409f, 
	0.257562f, 0.077579f, -0.390010f, 0.090168f, -0.142424f, -0.023977f, -0.044142f, 0.189985f, 
	0.326117f, -0.183509f, 0.075528f, -0.372125f, -0.237347f, 0.384887f, 0.209102f, -0.411309f, 
	-0.383813f, 0.200648f, 0.057850f, 0.304404f, 0.060109f, -0.027413f, 0.109075f, -0.297176f, 
	0.213488f, -0.012483f, 0.313848f, 0.136739f, -0.210746f, -0.286563f, -0.333362f, -0.201697f, 
	0.248946f, 0.264647f, 0.254778f, 0.213230f, -0.026048f, 0.018574f, 0.220612f, -0.369737f, 
	0.031390f, 0.117918f, 0.150387f, 0.093512f, -0.349317f, -0.103698f, -0.076142f, -0.407521f, 
	0.021277f, -0.062128f, 0.003246f, 0.177059f, 0.094978f, -0.195786f, -0.013188f, -0.220137f, 
	-0.223995f, 0.046505f, -0.165491f, -0.043301f, 0.224008f, -0.161264f, 0.205897f, -0.026971f, 
	0.123842f, -0.118843f, 0.227779f, -0.090260f, 0.433276f, -0.109922f, -0.021333f, -0.143959f, 
	0.212239f, -0.038389f, 0.103328f, -0.058386f, 0.250739f, 0.528468f, -0.155326f, -0.161174f, 
	-0.156262f, 0.318320f, 0.292846f, 0.242858f, -0.150853f, 0.013851f, 0.027180f, -0.344908f, 
	-0.015531f, -0.140270f, 0.191441f, 0.394194f, -0.387075f, -0.270630f, -0.077323f, 0.114243f, 
	-0.101679f, -0.087528f, -0.061103f, -0.112836f, -0.026068f, 0.072812f, -0.120548f, -0.542097f, 
	-0.315824f, 0.212304f, 0.132714f, -0.093722f, -0.171277f, 0.264703f, -0.189688f, -0.216172f, 
	-0.070669f, -0.036533f, 0.096937f, 0.034668f, -0.113030f, 0.300460f, 0.484307f, -0.308702f, 
	-0.067113f, -0.326098f, 0.032849f, 0.000060f, -0.053906f, 0.241681f, -0.324797f, 0.236270f, 
	-0.309417f, -0.140785f, 0.244614f, -0.070712f, -0.322103f, -0.007932f, 0.304643f, 0.001891f, 
	0.146951f, 0.151474f, 0.207662f, -0.231732f, -0.010857f, -0.260314f, 0.150302f, -0.118462f, 
	0.098581f, -0.148016f, -0.140575f, -0.191688f, -0.338167f, 0.473654f, 0.052551f, 0.355891f, 
	0.060438f, 0.181684f, -0.252979f, 0.040977f, 0.160874f, 0.382507f, -0.127500f, 0.005998f, 
	0.101645f, 0.148106f, -0.077173f, 0.164034f, -0.205362f, -0.016678f, 0.051414f, 0.304370f, 
	0.113707f, 0.134162f, -0.020390f, 0.436336f, -0.314290f, -0.243906f, 0.015283f, -0.126397f, 
	0.018502f, -0.127083f, -0.213961f, 0.185562f, -0.192936f, 0.219733f, 0.029833f, -0.180909f, 
	-0.375599f, 0.374058f, 0.286493f, 0.072290f, 0.073378f, 0.031265f, 0.009880f, 0.209960f, 
	0.100507f, -0.491974f, -0.019449f, -0.107551f, 0.133010f, -0.066208f, 0.054112f, 0.113525f, 
	0.078999f, 0.107919f, 0.179957f, -0.185891f, -0.282070f, 0.131478f, 0.047811f, -0.107177f, 
	-0.013723f, 0.328205f, -0.055330f, 0.152203f, 0.053076f, 0.311751f, -0.157485f, -0.119814f, 
	-0.319619f, 0.074122f, 0.185147f, -0.285589f, 0.043616f, 0.068276f, -0.087133f, -0.146094f, 
	0.058821f, -0.003098f, 0.014146f, -0.019437f, 0.009479f, 0.114595f, 0.242382f, -0.244859f, 
	0.101679f, -0.194964f, 0.345676f, 0.088368f, -0.055772f, -0.186104f, -0.058486f, 0.477796f, 
	-0.136933f, 0.251031f, 0.174785f, 0.039563f, -0.448617f, 0.221202f, 0.033871f, -0.075052f, 
	0.149173f, 0.479041f, 0.153102f, 0.141947f, -0.068603f, -0.170812f, 0.063896f, 0.002673f, 
	-0.040300f, 0.205815f, -0.320714f, -0.013500f, 0.143603f, -0.171188f, 0.290750f, -0.011150f, 
	-0.145839f, 0.072652f, 0.180449f, -0.013988f, -0.303952f, -0.305149f, -0.038948f, -0.067243f, 
	0.107089f, -0.041221f, 0.090146f, -0.036696f, -0.103784f, 0.217293f, -0.303488f, -0.028942f, 
	-0.242826f, 0.117957f, -0.268382f, 0.178556f, 0.195439f, -0.057897f, 0.083609f, 0.109393f, 
	0.055767f, -0.086836f, 0.071933f, 0.048545f, -0.153961f, 0.052949f, -0.085664f, 0.008730f, 
	-0.385955f, -0.159391f, -0.012387f, 0.270425f, -0.039220f, 0.249034f, 0.255242f, 0.046031f, 
	0.173163f, 0.094865f, -0.153729f, -0.266704f, 0.164940f, 0.056821f, 0.134414f, 0.091720f, 
	-0.228742f, 0.172412f, 0.302994f, -0.297818f, -0.334778f, 0.061480f, 0.136073f, -0.156942f, 
	0.068935f, 0.028735f, -0.202119f, -0.230470f, -0.065694f, -0.151167f, 0.303270f, 0.203874f, 
	-0.213348f, 0.028698f, -0.179572f, -0.049874f, -0.019778f, -0.294042f, 0.072091f, -0.218588f, 
	0.332540f, 0.235195f, -0.045874f, 0.058818f, -0.019554f, 0.010060f, -0.131609f, 0.102536f, 
	0.174384f, 0.113452f, 0.182567f, 0.013530f, 0.057110f, 0.051601f, 0.174176f, -0.265207f, 
	0.232789f, -0.142519f, -0.113680f, -0.150174f, 0.239477f, -0.193581f, -0.282875f, 0.152307f, 
	-0.130261f, -0.034042f, 0.071327f, 0.080310f, -0.202270f, 0.181316f, -0.047266f, 0.369113f, 
	-0.162674f, 0.062182f, -0.190239f, 0.203117f, -0.085725f, -0.508018f, 0.105965f, 0.344186f, 
	0.281313f, -0.104338f, -0.087866f, -0.106844f, -0.301688f, -0.116663f, 0.315949f, 0.063871f, 
	0.080093f, 0.203246f, -0.301008f, -0.049042f, -0.041789f, 0.042633f, 0.287460f, 0.270031f, 
	-0.300939f, -0.358374f, 0.011463f, -0.153175f, -0.007252f, -0.285296f, -0.107518f, -0.113431f, 
	-0.160142f, -0.137802f, -0.082281f, -0.021502f, 0.212276f, -0.062306f, 0.575456f, -0.044575f, 
	-0.012747f, 0.061901f, -0.208493f, 0.240453f, -0.157422f, -0.025738f, 0.067959f, -0.349619f, 
	-0.139542f, 0.109786f, 0.201567f, -0.150176f, -0.064370f, -0.209794f, 0.145197f, 0.189421f, 
	-0.076600f, 0.347118f, 0.379273f, 0.051403f, 0.301798f, -0.068242f, 0.094226f, -0.161000f, 
	-0.157566f, -0.225899f, 0.449370f, -0.352808f, -0.029829f, 0.067546f, 0.116371f, -0.081491f, 
	-0.215331f, -0.273080f, -0.123695f, 0.144248f, 0.036885f, 0.081827f, 0.127378f, -0.198875f, 
	-0.292958f, -0.203290f, 0.036987f, 0.052206f, -0.413945f, 0.078705f, -0.004717f, 0.262421f, 
	0.027720f, 0.169042f, 0.089761f, -0.014293f, 0.147769f, -0.304652f, -0.018173f, 0.064692f, 
	-0.050475f, -0.204873f, -0.264985f, -0.190276f, 0.062932f, 0.207063f, 0.070096f, 0.102463f, 
	-0.141868f, -0.206364f, -0.038936f, -0.074885f, 0.102727f, 0.380455f, 0.005784f, -0.315587f, 
	-0.072883f, 0.005706f, -0.012722f, 0.096331f, -0.216312f, 0.138569f, -0.188724f, 0.595076f, 
	0.227656f, -0.519591f, -0.150762f, -0.091208f, -0.145720f, -0.005126f, -0.124656f, -0.250540f, 
	0.166752f, -0.253791f, 0.223109f, -0.017107f, -0.026817f, 0.017727f, -0.139554f, 0.178573f, 
	-0.114519f, 0.045296f, -0.115808f, 0.259148f, 0.242031f, 0.336600f, -0.045587f, -0.086023f, 
	0.224828f, 0.283787f, 0.221339f, 0.182365f, 0.037843f, -0.006863f, -0.296366f, -0.130910f, 
	0.156681f, 0.200876f, 0.063011f, 0.403528f, -0.222127f, 0.072164f, -0.206526f, 0.152219f, 
	0.228024f, 0.034905f, -0.162287f, -0.186149f, -0.059435f, -0.059172f, -0.501436f, -0.115517f, 
	-0.085463f, -0.498391f, 0.162083f, 0.248103f, 0.234031f, 0.066990f, -0.220010f, 0.312737f, 
	-0.082302f, -0.219448f, -0.013872f, -0.128796f, -0.179559f, 0.199319f, -0.405920f, 0.001230f, 
	-0.265006f, -0.017454f, -0.393049f, -0.086140f, 0.022712f, 0.088982f, 0.217603f, 0.076931f, 
	-0.221404f, 0.075172f, 0.308108f, -0.264959f, -0.020732f, -0.302412f, 0.135036f, -0.279664f, 
	-0.111906f, -0.098270f, 0.079399f, -0.030017f, -0.190485f, 0.231711f, -0.151333f, 0.210088f, 
	-0.297353f, -0.157722f, 0.094495f, -0.095668f, -0.187569f, -0.233040f, 0.001305f, 0.026737f, 
	0.141430f, 0.106493f, 0.243916f, -0.008082f, -0.114270f, -0.248654f, 0.223095f, 0.036251f, 
	-0.024226f, -0.330739f, -0.143160f, -0.325038f, 0.044459f, -0.038449f, 0.123604f, 0.001772f, 
	0.110783f, 0.101453f, -0.169327f, 0.040317f, 0.140090f, -0.045138f, 0.306154f, 0.041322f, 
	0.165384f, 0.368568f, -0.309573f, 0.134654f, 0.027502f, -0.135054f, -0.120210f, 0.698865f, 
	-0.085612f, 0.029969f, -0.041302f, -0.062743f, -0.387638f, 0.083456f, -0.267708f, -0.287720f, 
	-0.180942f, -0.095159f, -0.086577f, -0.037299f, 0.148752f, 0.170173f, -0.018301f, 0.191599f, 
	0.001967f, 0.039368f, 0.019726f, -0.183216f, 0.101337f, -0.169974f, 0.338417f, 0.095149f, 
	-0.018905f, -0.003497f, -0.081029f, 0.078322f, 0.009307f, -0.175164f, -0.473045f, -0.417454f, 
	0.129727f, 0.239120f, -0.180956f, -0.096604f, -0.013952f, 0.187794f, -0.048925f, 0.131320f, 
	-0.081823f, -0.112266f, 0.254322f, 0.137895f, -0.019295f, -0.253181f, -0.009021f, -0.089769f, 
	0.116700f, -0.104839f, 0.066064f, 0.106273f, -0.102934f, 0.243205f, 0.184556f, 0.104866f, 
	-0.081123f, -0.099321f, -0.068720f, -0.336740f, 0.002045f, -0.553369f, -0.045170f, -0.016691f, 
	-0.193896f, -0.135704f, 0.164200f, -0.116386f, 0.205390f, 0.117556f, 0.290073f, 0.242208f, 
	0.017341f, 0.014651f, 0.000428f, -0.091891f, 0.073940f, -0.141030f, 0.038869f, 0.138398f, 
	0.071364f, -0.209957f, -0.225392f, 0.401771f, -0.332380f, 0.228633f, -0.129284f, 0.046470f, 
	-0.081903f, 0.100594f, -0.144438f, -0.027781f, -0.193806f, 0.009860f, -0.085013f, 0.186262f, 
	-0.119756f, -0.243932f, -0.047157f, -0.151066f, 0.109229f, -0.053902f, 0.084382f, 0.153731f, 
	-0.291542f, -0.286323f, 0.005113f, -0.012555f, -0.043934f, -0.105076f, -0.328869f, 0.248107f, 
	0.120722f, 0.127291f, 0.109808f, 0.257240f, 0.116291f, 0.101694f, 0.051292f, -0.122016f, 
	-0.130049f, 0.291934f, -0.196577f, 0.194062f, 0.077901f, 0.345835f, -0.142107f, -0.013537f, 
	-0.021106f, -0.130963f, -0.175285f, 0.076455f, 0.235336f, -0.131628f, -0.089810f, 0.088538f, 
	0.189731f, -0.097082f, -0.086896f, -0.061239f, -0.120271f, 0.053832f, 0.298289f, 0.297501f, 
	-0.063255f, 0.097713f, 0.206341f, 0.394240f, 0.215980f, -0.004680f, -0.141103f, -0.164910f, 
	-0.200313f, 0.124551f, 0.279254f, 0.220824f, 0.219194f, -0.001647f, -0.067274f, -0.031471f, 
	0.115121f, 0.256036f, -0.302807f, 0.398103f, 0.022474f, 0.172517f, -0.341476f, 0.208475f, 
	-0.010483f, 0.023740f, 0.018174f, -0.132557f, -0.149199f, -0.318061f, -0.185916f, -0.136395f, 
	-0.302258f, 0.287022f, -0.010483f, 0.000283f, -0.002572f, -0.188906f, -0.178043f, 0.040737f, 
	0.474956f, -0.138775f, 0.361772f, 0.081141f, -0.036370f, 0.295343f, 0.098085f, -0.105978f, 
	0.051869f, -0.104346f, 0.217436f, -0.298379f, -0.013436f, 0.317589f, 0.236343f, -0.045092f, 
	-0.154582f, 0.166206f, 0.105818f, 0.101166f, 0.458427f, -0.265592f, -0.193653f, 0.181775f, 
	0.065782f, -0.088466f, 0.008227f, -0.096900f, -0.339452f, 0.368647f, 0.243243f, -0.171255f, 
	0.337522f, -0.232496f, 0.006942f, -0.215125f, 0.084235f, -0.089075f, 0.094332f, -0.001839f, 
	-0.146497f, 0.074679f, 0.013049f, -0.261846f, -0.238044f, -0.126881f, -0.020592f, -0.025621f, 
	-0.091072f, -0.295993f, 0.037306f, 0.275184f, 0.103094f, 0.158276f, 0.126380f, -0.108599f, 
	0.156046f, -0.271588f, -0.135493f, 0.063442f, 0.185237f, 0.357240f, 0.053575f, -0.181339f, 
	-0.384899f, 0.113462f, 0.049728f, 0.004473f, 0.064889f, -0.138887f, 0.009509f, 0.154052f, 
	-0.101239f, -0.270950f, -0.158357f, -0.070029f, 0.153062f, -0.330503f, -0.204809f, 0.154937f, 
	0.049162f, -0.042036f, -0.271020f, 0.026670f, -0.304547f, -0.000315f, -0.000625f, -0.032571f, 
	0.023285f, 0.241707f, 0.210208f, 0.130852f, -0.366656f, -0.151493f, 0.148676f, -0.086259f, 
	-0.086820f, 0.279104f, -0.435963f, 0.185443f, 0.193935f, 0.027912f, -0.091703f, 0.069398f, 
	-0.208169f, -0.259875f, -0.180020f, -0.045830f, -0.290688f, 0.206199f, -0.086271f, -0.133382f, 
	-0.052800f, 0.188912f, -0.021652f, 0.166546f, 0.028769f, -0.266866f, -0.191763f, -0.025610f, 
	-0.093259f, 0.339969f, 0.312106f, -0.052617f, -0.182086f, -0.206141f, -0.025071f, -0.211340f, 
	0.224565f, 0.071840f, 0.372181f, -0.115723f, 0.206026f, 0.095206f, 0.323895f, -0.109169f, 
	-0.150954f, -0.467578f, -0.179148f, -0.279767f, -0.100895f, 0.241938f, 0.087119f, -0.062854f, 
	-0.243940f, 0.006394f, 0.048943f, 0.000302f, -0.022561f, 0.048358f, 0.222546f, 0.380869f, 
	-0.116655f, -0.081844f, -0.016024f, 0.073008f, -0.169358f, -0.453983f, 0.186297f, -0.052189f, 
	0.115778f, 0.090100f, 0.208762f, 0.179031f, -0.142617f, 0.068106f, -0.445413f, -0.079228f, 
	-0.105126f, 0.049536f, -0.478548f, -0.197096f, 0.100303f, 0.260913f, -0.261554f, -0.361873f, 
	0.064696f, -0.041451f, 0.020958f, -0.005962f, 0.119604f, -0.392964f, 0.173002f, 0.235716f, 
	0.406954f, 0.073734f, -0.030270f, -0.157950f, 0.325630f, 0.026601f, -0.415816f, 0.226364f, 
	0.153422f, 0.294706f, 0.274475f, 0.021250f, 0.113815f, 0.047839f, 0.293488f, -0.138665f, 
	0.084992f, -0.097907f, 0.188925f, 0.207538f, -0.114593f, -0.010295f, 0.086434f, -0.089171f, 
	-0.020928f, -0.095215f, -0.202178f, -0.113682f, 0.055603f, -0.093638f, 0.087568f, -0.052045f, 
	-0.289941f, 0.289088f, 0.317862f, 0.254016f, -0.145965f, 0.037355f, -0.032108f, 0.193714f, 
	-0.090835f, -0.124000f, -0.062575f, 0.079992f, 0.111760f, -0.001161f, -0.128454f, -0.206798f, 
	-0.280934f, 0.378055f, -0.266417f, 0.159802f, -0.098379f, -0.026149f, 0.130941f, 0.635909f, 
	-0.337610f, -0.025434f, 0.312776f, 0.260690f, 0.057555f, 0.141036f, 0.037205f, 0.113636f, 
	0.178485f, -0.042378f, 0.187375f, -0.312023f, 0.102611f, 0.162984f, -0.151458f, -0.166161f, 
	-0.075546f, -0.034583f, 0.226004f, 0.620102f, -0.196422f, 0.473995f, 0.292749f, -0.141394f, 
	0.087347f, -0.261464f, -0.145155f, -0.225900f, -0.190880f, 0.080867f, 0.020450f, -0.512707f, 
	0.311781f, 0.141688f, -0.038005f, -0.146856f, 0.015112f, -0.325367f, -0.050850f, 0.003511f, 
	-0.199144f, -0.115925f, -0.157910f, 0.264472f, 0.215358f, -0.035093f, 0.173587f, -0.023963f, 
	-0.132162f, 0.088015f, -0.172937f, -0.115980f, -0.363333f, -0.319068f, 0.052231f, -0.195819f, 
	0.233483f, 0.333929f, 0.280304f, 0.118962f, 0.003100f, -0.037790f, -0.398428f, 0.380756f, 
	-0.118331f, -0.108935f, 0.342800f, -0.206978f, -0.147209f, -0.001762f, 0.036418f, 0.022450f, 
	0.134935f, 0.128040f, -0.107288f, 0.209936f, 0.306818f, -0.420512f, -0.054828f, 0.206155f, 
	0.204527f, 0.203678f, 0.362669f, 0.328594f, -0.117537f, 0.208076f, -0.288552f, 0.064306f, 
	0.208501f, 0.014860f, 0.244788f, 0.319297f, -0.316606f, 0.064954f, -0.118302f, 0.024282f, 
	-0.250369f, 0.173873f, 0.156186f, -0.029202f, 0.334293f, 0.149096f, 0.081851f, -0.018614f, 
	-0.018328f, -0.154477f, -0.388090f, -0.096658f, -0.371983f, -0.100467f, 0.066553f, -0.155823f, 
	-0.215010f, 0.149614f, -0.226573f, 0.175226f, 0.286132f, -0.322348f, -0.319983f, -0.276641f, 
	0.013908f, 0.067809f, -0.225082f, 0.106164f, -0.042535f, 0.053244f, -0.161406f, -0.151480f, 
	-0.009574f, -0.233135f, 0.007075f, -0.012973f, 0.094429f, 0.141274f, -0.150446f, -0.411613f, 
	-0.107899f, 0.080944f, 0.384085f, -0.055193f, 0.306879f, 0.433532f, 0.261867f, 0.134748f, 
	0.176888f, -0.102839f, 0.108659f, -0.116582f, 0.320968f, -0.060911f, -0.156823f, 0.064883f, 
	0.109543f, 0.307573f, 0.129505f, -0.087136f, 0.166176f, -0.006512f, -0.109670f, -0.245222f, 
	-0.331851f, 0.054193f, 0.325726f, -0.149164f, -0.103360f, -0.157208f, -0.051279f, -0.366407f, 
	-0.194701f, 0.006183f, -0.003721f, 0.228488f, 0.071560f, 0.011429f, -0.184953f, 0.247662f, 
	-0.024609f, -0.147817f, 0.404371f, 0.270784f, 0.103602f, 0.285192f, -0.315413f, -0.064169f, 
	0.063935f, -0.264677f, -0.056002f, -0.009055f, 0.018367f, 0.257710f, 0.197088f, 0.094043f, 
	0.108146f, -0.285259f, 0.225326f, -0.065326f, -0.069314f, -0.408628f, 0.042787f, 0.137260f, 
	-0.147984f, -0.329997f, -0.172974f, -0.025564f, -0.029221f, -0.011075f, 0.358537f, -0.003720f, 
	-0.091125f, -0.145080f, -0.081153f, 0.268012f, 0.038043f, 0.023855f, -0.113421f, -0.110719f, 
	0.053121f, 0.121564f, -0.074841f, 0.100531f, -0.023683f, -0.133018f, -0.079243f, 0.319227f, 
	-0.049063f, 0.266148f, -0.365819f, 0.239907f, 0.067506f, -0.248735f, -0.039676f, -0.482245f, 
	0.225205f, 0.259170f, 0.208050f, 0.072498f, -0.065686f, -0.102862f, 0.156152f, -0.299086f, 
	0.194588f, 0.009247f, -0.098471f, 0.247422f, -0.188074f, 0.146494f, -0.085165f, 0.017660f, 
	0.201864f, 0.033012f, -0.196654f, 0.011833f, 0.069886f, 0.127869f, 0.131730f, 0.059171f, 
	0.117781f, 0.262600f, 0.211932f, 0.232550f, 0.046552f, -0.436204f, 0.029062f, -0.131717f, 
	0.006746f, -0.229560f, 0.083826f, -0.024185f, 0.015931f, -0.043100f, -0.022116f, 0.020661f, 
	0.058454f, -0.090646f, -0.155984f, 0.168757f, 0.122147f, 0.309394f, 0.220635f, -0.210554f, 
	-0.120376f, 0.431350f, -0.230493f, -0.142709f, -0.319023f, -0.059372f, 0.001025f, -0.060976f, 
	0.194824f, -0.124157f, -0.347337f, 0.093637f, -0.348619f, -0.295307f, -0.148971f, -0.194718f, 
	-0.365663f, 0.055375f, -0.142912f, -0.064291f, -0.082352f, -0.088748f, 0.246428f, 0.318380f, 
	0.015135f, -0.060410f, 0.020873f, 0.077213f, 0.071004f, -0.129117f, -0.176350f, -0.021111f, 
	0.140549f, -0.226853f, -0.032563f, -0.168159f, 0.164633f, -0.140228f, 0.378983f, -0.016120f, 
	0.090517f, 0.188326f, -0.052800f, -0.097641f, -0.403416f, -0.030150f, 0.131554f, -0.069237f, 
	-0.135033f, 0.028705f, 0.069433f, -0.340699f, 0.245828f, 0.025682f, 0.133815f, 0.350421f, 
	-0.109403f, 0.122722f, -0.111272f, 0.227989f, 0.069975f, -0.205760f, 0.046558f, 0.020111f, 
	0.400499f, 0.002657f, 0.173756f, -0.360024f, -0.086418f, 0.282664f, 0.035793f, 0.042631f, 
	-0.401996f, -0.063443f, 0.550409f, -0.021146f, 0.229275f, -0.030399f, -0.098353f, 0.069506f, 
	0.144133f, -0.168026f, 0.065821f, -0.136579f, -0.165692f, 0.285868f, -0.224915f, -0.440010f, 
	-0.062183f, -0.024530f, 0.203639f, -0.262046f, -0.202608f, 0.289129f, 0.241458f, -0.095340f, 
	-0.040853f, 0.031073f, 0.075087f, 0.340840f, -0.019306f, -0.078760f, 0.186090f, 0.053246f, 
	0.037817f, -0.473341f, -0.124762f, 0.028250f, 0.080996f, -0.180024f, 0.222007f, 0.154921f, 
	0.255766f, 0.203127f, -0.012182f, 0.171327f, 0.414958f, 0.291193f, 0.024460f, 0.001980f, 
	-0.431787f, -0.095612f, 0.157138f, -0.120378f, -0.052741f, -0.007811f, -0.124001f, 0.105659f, 
	-0.023693f, 0.047631f, 0.048556f, -0.181678f, 0.042812f, -0.072307f, -0.452454f, 0.176095f, 
	0.064379f, -0.097527f, -0.088569f, 0.041060f, -0.186015f, 0.127262f, -0.155460f, -0.022820f, 
	0.189838f, -0.028996f, -0.125291f, 0.008011f, -0.093125f, -0.210236f, -0.215767f, -0.156986f, 
	-0.103034f, -0.265329f, -0.043749f, -0.127834f, -0.235181f, -0.139711f, 0.112419f, -0.106133f, 
	0.180925f, -0.113446f, -0.083634f, 0.120469f, 0.106097f, -0.014495f, -0.113227f, -0.161231f, 
	-0.035937f, -0.025369f, -0.138856f, 0.017788f, -0.053873f, -0.129306f, 0.093124f, 0.150002f, 
	-0.052157f, 0.429415f, 0.124599f, -0.200807f, -0.264093f, -0.062531f, 0.058506f, 0.146616f, 
	0.137996f, 0.142151f, 0.011295f, -0.181539f, 0.139228f, -0.127656f, -0.114227f, -0.214131f, 
};

const static dl_matrix3d_t onet_l3_compress={
	.w=1,
	.h=1,
	.c=64,
	.n=64,
	.stride=64,
	.item=(fptp_t *)(&onet_l3_compress_item_array[0])
};

const static fptp_t onet_l3_depth_item_array[]={
	-0.270990f, 0.133799f, 0.036890f, -0.024508f, -0.273490f, 0.109221f, -0.035318f, -0.113480f, 
	-0.068342f, -0.069736f, 0.034500f, 0.092148f, 0.063609f, -0.006881f, -0.111883f, -0.078482f, 
	-0.103280f, 0.159210f, 0.167198f, 0.217071f, -0.182697f, 0.083363f, -0.302212f, -0.025320f, 
	-0.058721f, -0.107209f, 0.159540f, -0.106768f, -0.177706f, -0.303444f, 0.205937f, -0.182507f, 
	0.133799f, -0.034738f, 0.089703f, 0.118366f, -0.211031f, -0.016315f, -0.080947f, 0.157810f, 
	-0.287173f, 0.056254f, -0.091471f, -0.089286f, 0.122494f, -0.141341f, -0.272830f, 0.164751f, 
	0.208260f, 0.034211f, -0.089285f, -0.092566f, -0.084433f, 0.125343f, -0.116599f, 0.130602f, 
	-0.490562f, -0.111300f, -0.095613f, 0.131886f, -0.164436f, -0.014646f, -0.153213f, 0.119704f, 
	-0.245608f, 0.180315f, 0.199284f, 0.074525f, -0.094602f, 0.176848f, -0.178553f, 0.011403f, 
	-0.229850f, -0.421223f, 0.131733f, -0.190507f, 0.067258f, -0.330920f, 0.166762f, 0.206411f, 
	-0.042368f, 0.363745f, 0.187604f, -0.136887f, -0.033807f, 0.146168f, -0.184516f, -0.120091f, 
	-0.236112f, -0.231313f, 0.234600f, 0.056920f, 0.172102f, -0.316644f, 0.409612f, -0.163499f, 
	-0.191323f, 0.186721f, 0.139654f, -0.045468f, 0.039792f, 0.172255f, -0.134822f, 0.082210f, 
	-0.078323f, -0.103864f, -0.176814f, -0.178158f, 0.145250f, -0.171300f, -0.024518f, -0.262523f, 
	0.160816f, -0.162279f, 0.207660f, 0.176000f, 0.105910f, 0.174366f, 0.146499f, -0.144632f, 
	-0.210886f, -0.252478f, -0.228384f, -0.048395f, -0.235621f, 0.155401f, 0.174651f, 0.231692f, 
	-0.084148f, -0.281406f, 0.220636f, 0.143826f, 0.104331f, 0.131001f, 0.121317f, 0.145952f, 
	-0.035792f, -0.119463f, 0.039133f, -0.094249f, -0.036614f, -0.177597f, 0.276040f, -0.116713f, 
	0.200431f, 0.032698f, 0.073251f, 0.021684f, -0.086245f, 0.060801f, -0.048560f, -0.148330f, 
	0.135434f, -0.201067f, 0.096704f, -0.027800f, -0.253420f, -0.221163f, 0.111903f, -0.151244f, 
	0.048840f, -0.026139f, 0.113400f, -0.117597f, 0.207324f, 0.001189f, -0.081775f, -0.319692f, 
	-0.155600f, -0.131436f, -0.185468f, -0.201934f, 0.095657f, -0.131977f, 0.110315f, -0.193102f, 
	-0.066605f, -0.161363f, 0.225208f, -0.098675f, 0.294410f, 0.266555f, -0.141036f, -0.077338f, 
	-0.001667f, -0.043145f, -0.084741f, -0.013431f, -0.314928f, -0.020294f, -0.007526f, 0.049336f, 
	-0.033817f, 0.040847f, 0.073375f, -0.158386f, -0.232217f, -0.033148f, -0.248106f, 0.123569f, 
	0.071706f, 0.029585f, 0.202986f, 0.205190f, -0.202885f, -0.048267f, -0.216337f, -0.228254f, 
	0.116148f, -0.183724f, 0.205302f, 0.382955f, 0.066598f, 0.168134f, 0.133558f, -0.098447f, 
	-0.233499f, -0.154047f, 0.151182f, -0.145467f, -0.342680f, 0.065030f, -0.011828f, -0.092476f, 
	-0.291271f, 0.109449f, -0.052083f, 0.318102f, -0.107020f, 0.136793f, -0.144431f, 0.169593f, 
	0.051820f, 0.022201f, 0.089805f, -0.062436f, -0.180201f, 0.024157f, 0.019233f, 0.259418f, 
	0.161363f, 0.004257f, -0.153053f, -0.054174f, -0.040575f, -0.021224f, 0.003351f, 0.288011f, 
	-0.143044f, 0.112654f, -0.208806f, -0.103455f, 0.097873f, -0.276412f, -0.287762f, -0.053023f, 
	0.047501f, 0.199065f, 0.121777f, -0.238865f, -0.063614f, 0.074967f, 0.013952f, 0.233152f, 
	-0.099466f, -0.009285f, 0.250798f, 0.135025f, -0.379438f, 0.034429f, -0.262395f, 0.023664f, 
	0.294738f, -0.317634f, 0.219734f, -0.412832f, -0.156218f, 0.038165f, 0.275416f, -0.193625f, 
	-0.211726f, 0.064049f, 0.291697f, 0.041850f, -0.025373f, 0.051596f, -0.090060f, 0.115563f, 
	0.362519f, 0.074498f, -0.009893f, 0.063447f, 0.008422f, 0.288026f, -0.007559f, 0.079907f, 
	0.192321f, -0.271884f, -0.146638f, 0.158222f, -0.264144f, 0.191400f, 0.106221f, -0.135005f, 
	0.011997f, -0.090421f, 0.081401f, 0.042434f, 0.313299f, -0.209233f, -0.040089f, 0.033518f, 
	-0.235304f, -0.027071f, -0.210289f, 0.129203f, 0.113000f, 0.347353f, -0.130583f, 0.317066f, 
	0.098086f, -0.093852f, 0.105313f, -0.305844f, 0.068251f, -0.012074f, 0.204783f, 0.059087f, 
	-0.043873f, 0.136602f, 0.192740f, -0.191662f, -0.113737f, 0.139161f, 0.111127f, -0.040671f, 
	0.102673f, -0.173231f, 0.041412f, 0.066581f, -0.100751f, -0.191749f, 0.079168f, -0.207192f, 
	0.139762f, 0.239831f, 0.202574f, 0.203092f, -0.080322f, 0.118564f, -0.018628f, 0.001364f, 
	-0.045337f, -0.156318f, 0.010801f, -0.243586f, 0.258918f, 0.156920f, 0.168752f, -0.232700f, 
	-0.144023f, -0.236004f, -0.082271f, 0.057960f, -0.252019f, 0.070703f, 0.178005f, -0.195405f, 
	-0.232944f, 0.101491f, 0.016453f, -0.293074f, 0.122467f, -0.044258f, 0.074679f, -0.254534f, 
	-0.003744f, 0.115131f, 0.020287f, -0.138673f, 0.096363f, -0.180468f, -0.069060f, 0.220342f, 
	0.109864f, -0.027320f, -0.051473f, 0.081459f, -0.193099f, -0.080245f, -0.138548f, 0.033193f, 
	0.348290f, 0.167769f, 0.116773f, 0.105952f, 0.002627f, -0.093299f, 0.077548f, -0.608383f, 
	0.129138f, 0.082154f, -0.247975f, 0.112341f, 0.474180f, 0.284782f, 0.110530f, -0.148412f, 
	0.079776f, -0.008651f, 0.072293f, -0.084582f, -0.229465f, 0.099998f, -0.172311f, 0.043154f, 
	0.097073f, 0.436071f, -0.181301f, 0.223846f, -0.118203f, -0.004011f, -0.202735f, 0.030437f, 
	0.120308f, 0.020934f, 0.049437f, -0.096934f, 0.063963f, 0.054080f, 0.062735f, 0.120394f, 
	-0.159331f, -0.005924f, -0.186616f, 0.363656f, 0.027477f, -0.098541f, -0.178047f, -0.047296f, 
	-0.257808f, 0.181435f, -0.022343f, -0.190924f, 0.121952f, -0.192395f, 0.004194f, -0.009470f, 
	0.149369f, 0.036512f, -0.233274f, 0.221946f, -0.275890f, -0.319749f, 0.150941f, -0.242143f, 
	0.205122f, 0.104585f, 0.142803f, 0.194129f, 0.027012f, 0.232874f, -0.176203f, 0.120185f, 
	-0.139234f, 0.067177f, -0.305188f, -0.155632f, -0.065123f, 0.042785f, -0.072654f, -0.124153f, 
	0.137502f, 0.191162f, 0.158746f, -0.069814f, -0.210160f, 0.188824f, -0.340120f, 0.192726f, 
	-0.168733f, -0.233825f, -0.286190f, 0.001562f, -0.087205f, 0.093581f, 0.127743f, 0.155354f, 
	0.166955f, -0.175227f, 0.137871f, -0.041868f, 0.139074f, 0.206543f, 0.032780f, 0.080615f, 
	-0.084587f, 0.159985f, 0.094959f, 0.110751f, 0.061555f, -0.239151f, -0.359356f, 0.368832f, 
	-0.048003f, 0.223530f, 0.014791f, 0.435031f, 0.115561f, 0.277741f, 0.028954f, -0.044946f, 
	0.144002f, -0.227294f, -0.245250f, 0.187971f, 0.122078f, -0.133509f, 0.168347f, -0.194602f, 
	0.002958f, 0.081404f, 0.102032f, 0.002415f, 0.122556f, 0.194231f, -0.176891f, 0.073684f, 
	-0.141075f, -0.040929f, -0.185386f, 0.002669f, -0.006271f, 0.070684f, -0.023354f, -0.060722f, 
	0.177548f, 0.209029f, 0.218122f, -0.314295f, -0.058120f, 0.141792f, -0.134025f, 0.199130f, 
	0.079789f, 0.061050f, -0.250075f, -0.192147f, 0.172916f, 0.006284f, 0.157331f, -0.062611f, 
	0.087899f, -0.090673f, 0.111733f, -0.095757f, 0.068295f, 0.233072f, 0.045742f, 0.004346f, 
	-0.146823f, 0.324409f, 0.039852f, -0.054124f, -0.049134f, -0.157999f, 0.130380f, -0.027283f, 
	-0.066682f, 0.236859f, 0.038798f, -0.288946f, 0.038795f, -0.155182f, 0.328282f, 0.129168f, 
};

const static dl_matrix3d_t onet_l3_depth={
	.w=3,
	.h=3,
	.c=64,
	.n=1,
	.stride=192,
	.item=(fptp_t *)(&onet_l3_depth_item_array[0])
};

const static fptp_t onet_l3_prelu_alpha_item_array[]={
	-0.529388f, -0.322279f, 0.052235f, -0.751732f, -0.041661f, -0.545736f, -0.435451f, -0.312524f, 
	-0.296905f, -0.132791f, 0.108936f, -0.347357f, -0.388901f, -0.076770f, -0.017037f, -0.193051f, 
	-0.708869f, -0.316323f, -0.150363f, -0.645106f, -0.355344f, -0.172131f, -0.700880f, 0.367077f, 
	-0.186343f, -0.471037f, 0.231250f, -0.530973f, -0.274313f, -0.265006f, 0.025914f, -0.163679f, 
	-0.991935f, -0.276511f, -0.430897f, -0.118619f, -0.271870f, 0.199314f, -0.317382f, -0.301220f, 
	-0.479071f, 0.242537f, 0.803093f, 0.085685f, -0.417716f, 0.570350f, -0.184357f, -0.363309f, 
	-0.034814f, -0.048600f, -0.030172f, 0.121035f, -0.233677f, -0.596148f, -0.194483f, -0.309487f, 
	-0.180858f, 0.553790f, -0.043751f, -0.975925f, -0.508755f, -0.753528f, -0.130996f, -0.192434f, 
};

const static dl_matrix3d_t onet_l3_prelu_alpha={
	.w=1,
	.h=1,
	.c=64,
	.n=1,
	.stride=64,
	.item=(fptp_t *)(&onet_l3_prelu_alpha_item_array[0])
};

const static fptp_t onet_l4_bias_item_array[]={
	-0.000060f, 0.145091f, 0.112149f, -0.004502f, -0.027332f, 0.066945f, 0.090622f, 0.008932f, 
	0.058344f, 0.067653f, 0.149418f, 0.057329f, 0.097844f, 0.092258f, 0.134789f, -0.032036f, 
	-0.083043f, 0.081064f, 0.228412f, 0.159439f, -0.027671f, -0.092402f, 0.108156f, 0.012674f, 
	0.008289f, -0.023968f, 0.000565f, 0.167449f, 0.003028f, 0.090618f, 0.118907f, 0.063226f, 
	0.054359f, 0.194670f, -0.101080f, 0.029127f, 0.144252f, -0.032759f, 0.009698f, -0.023604f, 
	0.108349f, 0.064210f, -0.057060f, 0.163028f, 0.099687f, 0.002355f, -0.075512f, -0.020843f, 
	-0.022254f, 0.106638f, 0.135595f, -0.031828f, 0.095780f, 0.078610f, 0.136102f, -0.019155f, 
	0.180523f, 0.079827f, 0.010717f, -0.046456f, 0.061465f, -0.068991f, 0.108921f, 0.132302f, 
	0.043410f, -0.115352f, 0.053771f, 0.124314f, -0.030734f, 0.055792f, -0.057394f, 0.104699f, 
	0.001601f, 0.153910f, 0.142353f, 0.032305f, 0.077550f, -0.089015f, 0.116893f, 0.189997f, 
	0.002219f, 0.086303f, 0.073979f, -0.017088f, 0.098568f, -0.056295f, 0.034825f, 0.050004f, 
	0.043426f, 0.082203f, 0.019579f, 0.178434f, 0.128191f, 0.075931f, 0.060231f, -0.027492f, 
	-0.044478f, -0.002348f, -0.076936f, -0.040418f, 0.301720f, -0.079767f, 0.115808f, 0.219228f, 
	-0.013078f, 0.139715f, 0.071268f, 0.140553f, -0.076077f, 0.000559f, -0.016423f, -0.021120f, 
	-0.067244f, 0.231696f, 0.005982f, 0.112512f, 0.171800f, -0.093354f, -0.025237f, 0.031593f, 
	0.132227f, 0.107304f, -0.059372f, 0.125181f, 0.138446f, 0.244306f, -0.024123f, 0.072254f, 
};

const static dl_matrix3d_t onet_l4_bias={
	.w=1,
	.h=1,
	.c=128,
	.n=1,
	.stride=128,
	.item=(fptp_t *)(&onet_l4_bias_item_array[0])
};

const static fptp_t onet_l4_compress_item_array[]={
	-0.157535f, -0.146682f, 0.392404f, 0.061276f, 0.335150f, 0.433699f, -0.209859f, -0.138913f, 
	0.403287f, -0.162437f, 0.056382f, 0.170945f, 0.019466f, -0.029430f, -0.296910f, -0.133504f, 
	0.015835f, -0.106548f, 0.046952f, -0.033092f, -0.078597f, 0.176938f, -0.173333f, 0.027902f, 
	0.048515f, 0.013331f, 0.026878f, 0.091954f, 0.122132f, 0.351997f, 0.166304f, 0.353454f, 
	-0.075018f, -0.038303f, 0.578597f, 0.265652f, 0.095548f, -0.217029f, 0.193732f, 0.071630f, 
	-0.160004f, 0.436767f, 0.249305f, 0.358365f, 0.165058f, -0.065427f, -0.227745f, 0.279263f, 
	-0.117550f, -0.269005f, 0.206765f, 0.150267f, 0.077194f, -0.049201f, -0.110348f, -0.170265f, 
	-0.041424f, -0.257676f, -0.198088f, 0.173966f, -0.300469f, 0.126522f, -0.121230f, -0.164375f, 
	-0.273524f, 0.302508f, 0.088935f, 0.150324f, -0.010977f, -0.057976f, 0.001958f, 0.154966f, 
	-0.199881f, -0.058013f, 0.075908f, 0.260267f, 0.088420f, 0.101390f, -0.026352f, -0.109288f, 
	-0.321478f, -0.084655f, -0.079528f, -0.017373f, 0.049046f, -0.154594f, -0.073704f, 0.192681f, 
	-0.027951f, -0.114383f, -0.020397f, -0.110109f, -0.119592f, -0.091120f, 0.174583f, 0.294404f, 
	0.086571f, -0.126775f, 0.152509f, -0.088862f, -0.040917f, 0.061824f, -0.037188f, 0.183803f, 
	-0.179841f, -0.336007f, -0.010084f, 0.148769f, -0.134940f, -0.079301f, -0.080666f, 0.044581f, 
	-0.616686f, 0.094813f, 0.120140f, -0.044258f, 0.126179f, -0.177916f, -0.093369f, -0.196859f, 
	0.068417f, -0.182695f, -0.211752f, -0.034269f, -0.153847f, 0.009410f, -0.252945f, -0.336819f, 
	0.006063f, -0.183338f, -0.083738f, -0.105325f, 0.058922f, -0.034999f, -0.127014f, 0.099725f, 
	0.527266f, -0.078201f, 0.125361f, -0.068326f, 0.170856f, 0.218161f, -0.048441f, -0.329739f, 
	0.164091f, -0.031313f, -0.032625f, -0.100302f, 0.143363f, 0.012894f, 0.054851f, 0.295782f, 
	-0.090106f, 0.190742f, -0.155881f, 0.050298f, -0.192353f, 0.190290f, 0.174368f, 0.397762f, 
	-0.405020f, -0.239964f, 0.023222f, 0.247525f, 0.225459f, 0.036256f, -0.240246f, -0.196521f, 
	0.205165f, -0.147303f, -0.378669f, 0.277655f, -0.038051f, -0.109960f, 0.056959f, -0.018897f, 
	-0.106414f, -0.083933f, -0.418832f, 0.102925f, 0.012051f, -0.283676f, -0.174494f, 0.002385f, 
	0.012082f, -0.416505f, -0.125853f, 0.358253f, -0.185620f, -0.170377f, 0.028054f, -0.061196f, 
	0.220096f, -0.362875f, 0.024192f, -0.004887f, 0.207405f, 0.004119f, -0.089617f, 0.426837f, 
	-0.111376f, 0.030947f, -0.216117f, 0.154247f, -0.182672f, 0.050747f, 0.166385f, 0.088784f, 
	-0.129219f, 0.452697f, -0.091728f, -0.106107f, -0.136856f, -0.247108f, -0.032259f, -0.029923f, 
	0.168401f, 0.008643f, 0.142040f, -0.025082f, 0.072264f, 0.401161f, -0.039833f, -0.277914f, 
	0.046688f, -0.162704f, 0.262189f, 0.024383f, -0.015559f, 0.153141f, -0.029021f, -0.200598f, 
	0.062571f, 0.106552f, -0.191012f, -0.157287f, -0.024888f, -0.103457f, -0.216480f, 0.138270f, 
	0.148803f, -0.130698f, -0.089867f, -0.065023f, -0.082346f, -0.012146f, -0.079976f, 0.012866f, 
	0.195832f, 0.347607f, 0.263789f, -0.297215f, 0.070687f, -0.088149f, -0.091804f, -0.266070f, 
	-0.097708f, -0.030822f, -0.305737f, -0.084496f, -0.356335f, 0.157432f, 0.264158f, 0.294550f, 
	0.429902f, 0.107559f, 0.303573f, -0.076228f, -0.246752f, 0.234382f, 0.057239f, 0.059637f, 
	0.170332f, -0.049447f, 0.079864f, -0.202816f, 0.504963f, 0.083264f, -0.001920f, -0.163437f, 
	-0.100568f, -0.009615f, -0.231328f, 0.042532f, 0.028575f, 0.429684f, 0.282205f, 0.070423f, 
	0.069344f, 0.009833f, -0.066246f, 0.124209f, 0.249305f, -0.021770f, 0.063079f, -0.402586f, 
	-0.398328f, -0.245736f, -0.025753f, -0.088934f, -0.081294f, -0.244439f, -0.006498f, -0.388528f, 
	0.331308f, 0.070350f, -0.007401f, 0.217892f, 0.029626f, 0.054917f, 0.110644f, -0.469013f, 
	-0.115043f, -0.336774f, 0.095372f, 0.149821f, 0.002900f, -0.415207f, 0.238088f, -0.244004f, 
	-0.144426f, -0.112425f, -0.032506f, 0.168295f, 0.032369f, -0.244348f, 0.119707f, -0.032304f, 
	-0.302703f, -0.004586f, -0.110887f, -0.168064f, 0.306899f, -0.095901f, 0.055193f, -0.287544f, 
	0.172870f, 0.124701f, -0.124950f, 0.033516f, 0.202016f, -0.087347f, 0.184052f, 0.088741f, 
	-0.172681f, -0.059950f, 0.109166f, 0.053053f, 0.233315f, 0.085814f, -0.009760f, 0.223809f, 
	-0.089312f, -0.039373f, 0.175631f, -0.033596f, 0.155926f, -0.327367f, -0.097936f, -0.119734f, 
	-0.088108f, 0.190510f, -0.295314f, 0.064249f, 0.088965f, 0.278144f, 0.058325f, -0.387906f, 
	-0.297552f, -0.165786f, -0.044275f, -0.163566f, -0.099608f, 0.007441f, -0.064220f, 0.037412f, 
	0.185177f, -0.195152f, -0.035951f, -0.297613f, -0.187033f, -0.369885f, 0.197246f, 0.127810f, 
	-0.073661f, 0.258048f, 0.300733f, -0.390209f, -0.368157f, 0.020748f, 0.274545f, 0.375038f, 
	-0.092626f, -0.387724f, -0.125274f, 0.222809f, -0.208986f, -0.189452f, 0.058152f, 0.288145f, 
	-0.047489f, 0.093862f, -0.041325f, 0.068968f, -0.220205f, 0.438633f, -0.133805f, 0.354396f, 
	-0.245098f, -0.022759f, -0.118525f, 0.208697f, 0.239668f, -0.082299f, 0.071669f, -0.274050f, 
	-0.081866f, -0.314643f, 0.045133f, -0.005870f, -0.253270f, -0.232168f, 0.264566f, 0.205513f, 
	0.081241f, -0.107642f, 0.285920f, 0.413236f, -0.145529f, -0.121214f, 0.075523f, -0.276980f, 
	-0.279504f, 0.073446f, -0.008572f, 0.351982f, 0.150687f, -0.190735f, 0.108041f, -0.045377f, 
	-0.205115f, -0.329593f, 0.206958f, -0.241370f, -0.006789f, -0.106524f, -0.192907f, -0.409829f, 
	-0.215811f, -0.362798f, 0.285361f, 0.049487f, -0.448473f, -0.006171f, 0.323000f, -0.078622f, 
	-0.232964f, 0.046853f, 0.320240f, -0.325644f, -0.083981f, -0.053298f, -0.137877f, 0.042306f, 
	-0.094824f, -0.229973f, -0.057560f, 0.038746f, 0.088630f, 0.049912f, 0.035151f, -0.154267f, 
	0.001675f, 0.119485f, 0.206447f, -0.367890f, -0.060119f, -0.270841f, -0.144647f, 0.006768f, 
	0.083064f, -0.122017f, -0.044095f, 0.075580f, -0.133965f, 0.108259f, 0.211573f, 0.317702f, 
	0.052208f, -0.404134f, 0.243252f, -0.078513f, 0.234868f, -0.055765f, 0.061436f, -0.091226f, 
	0.304595f, 0.182022f, -0.260895f, -0.060231f, 0.065771f, 0.079095f, -0.596795f, -0.046770f, 
	-0.121290f, 0.169717f, 0.117890f, -0.592672f, 0.110549f, -0.201739f, 0.070999f, 0.044257f, 
	-0.033220f, -0.151446f, -0.235362f, 0.245570f, 0.132322f, 0.020944f, -0.155233f, 0.119067f, 
	-0.384348f, 0.163898f, -0.016035f, 0.280420f, 0.186342f, 0.119413f, 0.097226f, -0.236415f, 
	-0.109899f, 0.142394f, -0.091815f, -0.074336f, -0.065863f, -0.182428f, 0.252292f, -0.100702f, 
	-0.027976f, -0.311669f, 0.103570f, -0.006402f, 0.246512f, -0.098574f, -0.011659f, -0.266207f, 
	0.081853f, -0.379410f, 0.178987f, 0.247147f, -0.045281f, -0.124099f, -0.084449f, 0.055758f, 
	0.069062f, -0.113515f, 0.189472f, -0.356344f, 0.065993f, 0.135131f, 0.052222f, -0.009640f, 
	-0.189569f, 0.348391f, 0.032171f, 0.083915f, 0.222896f, -0.063657f, -0.292261f, 0.077868f, 
	-0.310023f, 0.036911f, 0.100868f, -0.098841f, -0.144590f, -0.089027f, -0.441781f, 0.009758f, 
	0.001031f, 0.051173f, 0.344534f, -0.242071f, -0.220271f, 0.150607f, 0.117853f, -0.021677f, 
	-0.002882f, 0.057167f, 0.178545f, 0.172488f, 0.140345f, -0.217752f, -0.275993f, 0.062589f, 
	0.215981f, 0.002579f, 0.008018f, -0.094568f, -0.380513f, 0.234431f, -0.179016f, -0.157184f, 
	-0.353628f, 0.037763f, -0.155335f, 0.198203f, 0.174337f, -0.190538f, -0.187970f, -0.181460f, 
	0.282916f, 0.566979f, -0.153603f, -0.237099f, -0.229925f, -0.120003f, -0.013513f, -0.119445f, 
	0.018628f, -0.087028f, -0.006511f, -0.110165f, -0.245299f, 0.063834f, 0.194063f, 0.000559f, 
	0.043330f, 0.249709f, -0.004753f, -0.069928f, -0.006388f, -0.237656f, 0.243991f, 0.068645f, 
	-0.158494f, -0.037352f, -0.046053f, 0.096127f, -0.092369f, 0.229998f, -0.163313f, -0.126415f, 
	-0.070531f, 0.400406f, -0.355334f, 0.122017f, -0.017325f, 0.129820f, 0.102307f, 0.079253f, 
	-0.050425f, -0.099429f, 0.330995f, 0.164114f, -0.365394f, 0.043783f, -0.049243f, 0.001065f, 
	-0.070927f, 0.518013f, 0.323157f, -0.153774f, 0.169971f, 0.123331f, 0.165395f, -0.328717f, 
	-0.000834f, -0.029666f, -0.166843f, -0.115045f, -0.107681f, 0.008053f, 0.368196f, -0.319623f, 
	-0.083714f, 0.121215f, -0.048198f, 0.106696f, -0.288269f, -0.107866f, -0.035513f, -0.118459f, 
	0.128475f, 0.032405f, -0.022619f, 0.323383f, -0.263649f, -0.202051f, -0.082849f, 0.245371f, 
	-0.214283f, 0.016752f, -0.054589f, 0.405497f, -0.261577f, 0.077273f, -0.005463f, -0.216180f, 
	0.080788f, 0.540671f, 0.123323f, 0.197878f, -0.061248f, -0.235173f, 0.026237f, -0.006986f, 
	0.145966f, -0.072233f, -0.197646f, -0.159078f, -0.385522f, -0.077588f, -0.037014f, -0.079163f, 
	0.052915f, -0.224965f, 0.036922f, -0.023236f, 0.089393f, 0.063822f, 0.226683f, -0.145862f, 
