#pragma once
#include "dl_lib_matrix3d.h"
#include "dl_lib_matrix3dq.h"

const static fptp_t conv2d_1_bias_item_array[] = {
	-0.106282f, 0.017848f, -0.055087f, -0.003358f, -0.062165f, -0.082169f, -0.067196f, -0.053542f, 
	0.006028f, 0.016228f, -0.036742f, -0.079243f, -0.006435f, -0.080034f, -0.016123f, -0.054034f, 
	-0.040526f, 0.124078f, -0.061881f, -0.016224f, -0.025389f, -0.014927f, -0.051838f, -0.056639f, 
	-0.083404f, -0.037119f, -0.027343f, -0.004531f, -0.031003f, -0.019457f, -0.030387f, -0.049661f, 
	-0.014232f, 0.001694f, -0.024914f, -0.061850f, -0.031289f, 0.000253f, 0.017498f, -0.055960f, 
	-0.034043f, -0.007064f, 0.024765f, -0.056035f, -0.014708f, -0.054015f, -0.020284f, -0.048435f, 
	-0.037680f, -0.012232f, -0.058418f, -0.055662f, -0.082048f, -0.074698f, -0.069416f, -0.076913f, 
	0.008880f, -0.063239f, -0.045413f, -0.033924f, -0.028103f, 0.036446f, -0.072420f, -0.020747f, 
	
};

const static dl_matrix3d_t conv2d_1_bias = {
	.w = 1,
	.h = 1,
	.c = 64,
	.n = 1,
	.stride = 64,
	.item = (fptp_t *)(&conv2d_1_bias_item_array[0])
};

const static fptp_t conv2d_1_kernel_item_array[] = {
	0.076626f, -0.025182f, 0.022564f, -0.045542f, -0.033622f, 0.031455f, 0.091580f, 0.017518f, 
	0.096799f, 0.053578f, 0.035113f, 0.004838f, -0.063939f, 0.071320f, 0.000267f, 0.001637f, 
	0.011748f, -0.014707f, 0.042541f, -0.020281f, 0.046876f, -0.037298f, 0.043663f, 0.035007f, 
	0.124644f, 0.016440f, 0.022676f, -0.093782f, 0.015311f, -0.005618f, -0.001032f, 0.083695f, 
	0.082814f, 0.011457f, 0.038937f, 0.002189f, 0.005066f, 0.021334f, -0.006371f, -0.132002f, 
	0.126475f, -0.019354f, 0.048774f, 0.106572f, -0.062089f, -0.016984f, -0.042640f, -0.012884f, 
	-0.058997f, 0.000246f, 0.051582f, -0.002556f, 0.062568f, -0.006366f, 0.150549f, -0.034681f, 
	0.110262f, -0.025628f, -0.142242f, 0.031249f, 0.047314f, 0.014421f, -0.065998f, 0.046744f, 
	0.057426f, -0.062637f, 0.059902f, -0.070701f, 0.050331f, 0.062002f, -0.178661f, -0.087086f, 
	-0.026643f, -0.090562f, -0.027504f, -0.075402f, -0.038215f, 0.032954f, 0.085729f, 0.001801f, 
	-0.047652f, 0.056377f, -0.065728f, -0.009048f, -0.043372f, 0.080012f, 0.023492f, 0.008057f, 
	0.073225f, -0.113704f, -0.113163f, 0.067653f, 0.008211f, 0.040363f, -0.020784f, -0.033586f, 
	-0.006481f, -0.040793f, 0.070491f, -0.058979f, -0.004135f, -0.056246f, -0.201015f, -0.136817f, 
	0.025769f, 0.028355f, -0.057432f, -0.028947f, -0.038760f, 0.033125f, 0.095994f, -0.068131f, 
	-0.096354f, 0.038956f, -0.059760f, -0.013702f, -0.042628f, 0.046677f, 0.000210f, -0.023641f, 
	-0.076090f, -0.084075f, 0.032165f, 0.066332f, -0.011604f, 0.079469f, -0.002477f, -0.036667f, 
	-0.024703f, -0.029299f, 0.037811f, 0.024148f, -0.012610f, -0.056352f, -0.064158f, -0.075951f, 
	-0.097182f, 0.050503f, -0.062384f, -0.072277f, 0.053112f, 0.002355f, 0.086505f, -0.049556f, 
	-0.029175f, 0.051643f, -0.128764f, -0.114404f, 0.001514f, 0.040617f, -0.003728f, 0.017843f, 
	-0.128294f, -0.081844f, -0.018898f, 0.088438f, -0.020936f, 0.098753f, -0.129556f, -0.053130f, 
	0.007653f, -0.034278f, -0.006087f, -0.125520f, -0.004229f, 0.089814f, 0.055012f, -0.035118f, 
	0.060763f, -0.135898f, 0.040171f, 0.042465f, -0.186585f, -0.082885f, -0.037998f, 0.080744f, 
	-0.035212f, 0.066979f, 0.076927f, -0.172272f, -0.012625f, -0.048422f, 0.147893f, 0.003342f, 
	0.168792f, -0.079316f, -0.039537f, -0.043916f, -0.044363f, 0.081164f, -0.076758f, 0.043370f, 
	0.057139f, -0.022431f, 0.047178f, 0.012441f, -0.061487f, 0.029527f, -0.026527f, -0.076981f, 
	-0.053423f, -0.155875f, 0.039683f, -0.059561f, -0.073494f, -0.054289f, 0.001185f, 0.041336f, 
	-0.123031f, -0.032127f, 0.073922f, -0.124774f, -0.125085f, -0.006131f, 0.070786f, -0.011730f, 
	0.097370f, -0.140383f, -0.142235f, -0.032382f, 0.003139f, 0.152437f, -0.022045f, -0.052572f, 
	-0.001307f, -0.051332f, -0.019320f, 0.044399f, -0.049191f, -0.079185f, -0.077676f, -0.044551f, 
	-0.070265f, -0.100011f, -0.042127f, -0.151983f, 0.030733f, -0.003202f, 0.015646f, -0.048044f, 
	-0.141923f, 0.012556f, -0.106895f, 0.089629f, -0.062311f, 0.005927f, -0.125330f, -0.001593f, 
	-0.073058f, -0.134123f, -0.056838f, 0.013096f, -0.037107f, 0.090234f, -0.007437f, -0.139441f, 
	-0.017569f, -0.040233f, 0.007322f, -0.069379f, -0.093868f, -0.064123f, -0.113419f, -0.030940f, 
	-0.090358f, -0.099668f, -0.047072f, -0.200789f, 0.005064f, 0.008173f, 0.041285f, -0.091379f, 
	-0.128427f, -0.039398f, -0.110384f, 0.064064f, -0.061324f, -0.014207f, -0.052424f, -0.020792f, 
	0.030122f, -0.126196f, -0.057307f, 0.000443f, -0.000825f, -0.009003f, -0.023065f, -0.073372f, 
	-0.094359f, -0.008576f, -0.017778f, -0.037051f, -0.025905f, -0.094141f, -0.115669f, -0.047037f, 
	-0.102037f, -0.083466f, -0.138549f, -0.084110f, -0.075935f, -0.013309f, -0.012733f, -0.120374f, 
	-0.008489f, -0.061739f, -0.112703f, 0.004974f, -0.077193f, 0.014130f, -0.080558f, -0.015196f, 
	-0.125221f, -0.035250f, 0.075172f, -0.055000f, -0.044478f, 0.017983f, 0.006024f, -0.083833f, 
	0.026187f, -0.031966f, 0.003938f, -0.068167f, 0.027076f, 0.076831f, -0.037166f, -0.008508f, 
	0.053900f, -0.122959f, -0.013074f, 0.019507f, -0.090856f, -0.026402f, -0.051985f, 0.061945f, 
	-0.099063f, 0.085894f, 0.109462f, -0.141177f, -0.011713f, 0.010582f, 0.046233f, 0.005500f, 
	-0.035688f, -0.073786f, 0.045828f, -0.012489f, -0.019702f, 0.015371f, -0.050369f, -0.135249f, 
	-0.017362f, 0.068646f, -0.031064f, 0.083148f, -0.064828f, 0.004481f, -0.052966f, -0.030751f, 
	-0.082215f, -0.064667f, 0.011024f, -0.072479f, -0.189987f, -0.045378f, -0.087432f, -0.005173f, 
	-0.094161f, -0.016859f, -0.046864f, -0.105602f, -0.050152f, -0.067776f, -0.060133f, 0.090002f, 
	-0.053125f, -0.059298f, 0.064574f, -0.116704f, -0.053946f, -0.010300f, -0.083613f, -0.037824f, 
	-0.026786f, -0.071522f, -0.001052f, 0.100905f, -0.051499f, -0.047089f, -0.036582f, -0.129511f, 
	-0.123220f, -0.044319f, 0.062111f, -0.147320f, -0.002089f, -0.023145f, -0.088241f, -0.068298f, 
	-0.030373f, -0.043653f, -0.085650f, -0.037104f, -0.160919f, -0.083145f, -0.075875f, 0.025714f, 
	-0.089080f, -0.098047f, -0.103256f, -0.088571f, -0.060277f, -0.016968f, 0.020146f, -0.033719f, 
	-0.082954f, -0.078130f, 0.013709f, -0.128410f, -0.074709f, -0.043593f, -0.127355f, -0.162526f, 
	-0.135666f, -0.110911f, -0.053019f, -0.102821f, 0.015227f, 0.059759f, -0.025673f, -0.032914f, 
	-0.110528f, -0.096723f, -0.126018f, 0.014200f, -0.183298f, -0.087462f, -0.010327f, -0.039494f, 
	-0.029913f, -0.244282f, -0.202280f, -0.031357f, -0.031711f, -0.143533f, -0.003975f, -0.090623f, 
	-0.069244f, -0.120021f, -0.047528f, -0.193682f, -0.062718f, -0.137845f, -0.057362f, -0.105116f, 
	-0.147384f, -0.089849f, -0.052868f, -0.075153f, -0.072568f, 0.003268f, 0.016918f, -0.104927f, 
	-0.099046f, -0.107073f, -0.061970f, -0.009891f, -0.125044f, -0.101519f, -0.133953f, -0.075211f, 
	-0.071745f, -0.100500f, -0.106581f, -0.030686f, -0.074478f, -0.009623f, 0.084687f, -0.111175f, 
	0.033626f, -0.000531f, 0.067535f, -0.029723f, 0.007817f, 0.043126f, -0.107980f, -0.023629f, 
	-0.032978f, -0.037895f, -0.072619f, -0.031380f, 0.065737f, 0.035681f, -0.009409f, 0.048367f, 
	0.063785f, -0.011276f, -0.009957f, 0.105685f, 0.034550f, 0.006580f, -0.026835f, -0.022254f, 
	-0.007713f, -0.032298f, 0.087331f, 0.004619f, 0.037985f, -0.040490f, 0.057738f, -0.087281f, 
	-0.003589f, 0.008685f, -0.029918f, 0.018091f, -0.024625f, -0.101291f, -0.001505f, 0.057690f, 
	-0.006666f, -0.015254f, -0.007313f, 0.078444f, -0.160488f, 0.017029f, -0.007064f, -0.015848f, 
	-0.014393f, 0.054137f, -0.106433f, -0.012217f, 0.015670f, 0.056365f, -0.149435f, 0.063101f, 
	-0.045012f, 0.015821f, 0.160683f, -0.042673f, -0.045380f, -0.057772f, 0.058340f, -0.017835f, 
	-0.049097f, -0.023269f, -0.037790f, 0.160115f, -0.030045f, -0.079672f, -0.068100f, 0.009695f, 
	-0.012700f, 0.039831f, -0.066796f, 0.014693f, -0.083234f, -0.159251f, 0.004226f, -0.042923f, 
	0.074120f, 0.036207f, -0.134934f, -0.101456f, 0.076603f, -0.025758f, -0.090314f, 0.087160f, 
	-0.046059f, 0.029743f, -0.021192f, -0.088842f, -0.045315f, 0.055402f, -0.057155f, -0.020675f, 
	-0.106296f, -0.090871f, -0.070155f, -0.058375f, -0.049737f, -0.077790f, -0.031825f, -0.011800f, 
	0.002735f, 0.071082f, -0.017048f, 0.029684f, -0.013503f, -0.154563f, 0.015688f, -0.034712f, 
	-0.034700f, -0.052850f, -0.070664f, -0.060662f, 0.072399f, -0.053175f, -0.018580f, 0.030926f, 
	0.000918f, 0.011164f, -0.084315f, -0.092007f, -0.028988f, -0.099424f, -0.078465f, -0.075046f, 
	-0.013798f, -0.012796f, -0.084623f, -0.072884f, -0.062199f, -0.023149f, 0.049312f, -0.104116f, 
	0.027104f, 0.101600f, -0.011404f, 0.018663f, 0.031252f, -0.058052f, 0.043654f, -0.013666f, 
	-0.016056f, -0.083541f, -0.047536f, 0.033442f, 0.032331f, -0.125773f, -0.012267f, -0.023699f, 
	0.032500f, 0.003333f, -0.139489f, -0.038237f, -0.026219f, -0.194696f, -0.016553f, -0.105328f, 
	0.004847f, 0.043074f, 0.042855f, -0.059015f, -0.033712f, 0.036144f, -0.029265f, 0.067686f, 
	-0.044065f, 0.120958f, -0.072589f, 0.025597f, 0.074610f, -0.015479f, 0.061384f, -0.066466f, 
	0.024092f, 0.029891f, 0.028642f, 0.122514f, -0.002212f, 0.007007f, 0.020579f, -0.012438f, 
	-0.092783f, 0.033731f, 0.013337f, 0.106525f, 0.063189f, -0.014856f, 0.025475f, 0.048679f, 
	-0.026169f, 0.035709f, -0.031398f, 0.062058f, 0.009588f, -0.065062f, 0.028692f, 0.056562f, 
	0.071348f, -0.000696f, 0.061263f, -0.042511f, 0.086901f, 0.116498f, 0.021510f, 0.064735f, 
	0.066526f, 0.000179f, -0.053465f, 0.164906f, 0.062058f, 0.107812f, 0.065906f, -0.037962f, 
	0.109381f, 0.064558f, 0.097911f, -0.008455f, 0.070429f, 0.134272f, 0.132615f, 0.044176f, 
	0.024119f, 0.039226f, -0.035498f, 0.092836f, 0.013793f, -0.021819f, -0.116744f, 0.066619f, 
	0.039063f, 0.114386f, -0.014326f, -0.009414f, -0.087692f, 0.069637f, -0.036454f, 0.023833f, 
	0.119506f, 0.035211f, 0.050801f, -0.042513f, 0.084875f, -0.000799f, -0.007677f, 0.054074f, 
	0.025211f, 0.094430f, 0.049957f, -0.002741f, -0.040092f, 0.043191f, 0.048351f, 0.090262f, 
	-0.020363f, -0.044830f, 0.025803f, 0.010350f, 0.042336f, 0.008624f, -0.079586f, 0.082879f, 
	0.013993f, 0.148465f, -0.098794f, 0.036441f, -0.129581f, -0.187949f, -0.065782f, -0.022507f, 
	0.100098f, 0.000103f, -0.058193f, -0.096119f, 0.048716f, -0.149057f, 0.091144f, 0.021115f, 
	0.002253f, 0.060306f, -0.001704f, -0.140012f, -0.014523f, -0.106582f, 0.021037f, 0.120525f, 
	-0.093368f, -0.022677f, 0.076441f, -0.032375f, -0.012700f, -0.001509f, 0.052913f, 0.016818f, 
	0.029485f, 0.109515f, -0.007119f, 0.058411f, -0.095075f, -0.031267f, 0.025296f, -0.010110f, 
	0.066439f, 0.067637f, 0.019482f, -0.114045f, 0.005644f, -0.029871f, 0.026335f, -0.026542f, 
	-0.029915f, 0.083351f, -0.023094f, -0.091210f, 0.035563f, -0.093049f, -0.002852f, 0.095663f, 
	0.031537f, 0.010495f, -0.090092f, 0.085652f, -0.044180f, -0.057845f, -0.105295f, 0.071832f, 
	-0.084241f, -0.100271f, -0.016431f, -0.069062f, 0.000647f, 0.012436f, -0.168355f, 0.006741f, 
	-0.079708f, -0.049840f, 0.007192f, 0.064258f, -0.002086f, -0.039669f, -0.072780f, 0.042221f, 
	0.009868f, -0.014777f, 0.133054f, -0.077612f, 0.021721f, -0.034296f, 0.058145f, -0.042248f, 
	-0.067890f, -0.060718f, -0.044311f, 0.042251f, -0.059585f, -0.066994f, -0.067727f, 0.049744f, 
	-0.122400f, -0.125665f, -0.094607f, -0.105469f, 0.000827f, -0.078245f, -0.082049f, -0.098726f, 
	-0.037095f, -0.088818f, -0.070205f, -0.020158f, -0.090000f, -0.008892f, -0.124745f, -0.050776f, 
	-0.125044f, 0.031266f, -0.035314f, -0.087891f, -0.010738f, 0.094982f, 0.082154f, -0.002434f, 
	-0.054277f, -0.077652f, 0.024270f, -0.098532f, 0.010131f, -0.037974f, -0.042237f, -0.035978f, 
	0.016167f, 0.012015f, 0.019974f, -0.034763f, 0.037553f, -0.058013f, 0.015135f, -0.029103f, 
	0.009094f, 0.045757f, -0.031767f, -0.060843f, 0.071740f, 0.027144f, -0.065812f, -0.013671f, 
	-0.016768f, -0.041901f, -0.056430f, 0.033647f, -0.004873f, -0.053382f, -0.074830f, 0.007623f, 
	-0.003659f, -0.053125f, -0.032409f, -0.062094f, -0.007971f, 0.016630f, 0.032631f, -0.025512f, 
	0.013762f, 0.063612f, 0.045242f, 0.037054f, 0.010411f, -0.002596f, 0.057397f, -0.005996f, 
	0.092404f, 0.048198f, 0.059614f, -0.056882f, 0.032558f, 0.026868f, -0.015924f, -0.070106f, 
	-0.051377f, 0.037269f, -0.033835f, -0.056492f, -0.011143f, -0.075925f, 0.054600f, 0.039756f, 
	0.003078f, -0.019541f, -0.027823f, 0.006236f, 0.075170f, 0.019423f, 0.104103f, 0.096623f, 
	0.063017f, 0.036336f, 0.064737f, 0.029255f, -0.114217f, 0.009892f, -0.104361f, 0.024286f, 
	0.070946f, -0.011489f, 0.010656f, -0.076835f, 0.092500f, -0.154629f, 0.038293f, -0.038050f, 
	-0.039040f, 0.038935f, 0.010609f, -0.104261f, -0.009626f, 0.000886f, 0.003360f, 0.009946f, 
	0.049988f, 0.046083f, -0.046881f, 0.130635f, -0.013521f, 0.022122f, -0.154805f, 0.052661f, 
	-0.065512f, -0.136347f, -0.032850f, 0.026213f, 0.059937f, 0.058217f, 0.042281f, -0.006030f, 
	-0.017903f, -0.032954f, -0.077627f, 0.052406f, 0.011962f, 0.056269f, -0.086512f, -0.051746f, 
	0.010100f, 0.088203f, 0.080673f, -0.033715f, -0.019739f, 0.060545f, -0.110724f, -0.042161f, 
	-0.004148f, 0.000637f, -0.046935f, -0.018507f, -0.099540f, -0.047094f, 0.013227f, -0.064952f, 
	-0.058316f, -0.163621f, -0.054385f, -0.097807f, 0.065950f, -0.002686f, -0.062150f, -0.117823f, 
	-0.144847f, -0.130876f, -0.084122f, 0.014179f, -0.119556f, 0.000181f, -0.050253f, -0.124736f, 
	-0.131483f, -0.094899f, -0.119709f, -0.084045f, -0.087544f, 0.007311f, 0.018025f, -0.053789f, 
	0.002749f, -0.066343f, -0.029633f, -0.231315f, 0.013947f, 0.029075f, 0.011513f, -0.076369f, 
	-0.005401f, -0.078342f, -0.089893f, -0.095169f, -0.075831f, 0.039737f, -0.007266f, -0.059082f, 
	0.016404f, -0.009142f, 0.047841f, -0.074890f, -0.004605f, -0.064062f, -0.027485f, -0.056188f, 
	-0.074280f, -0.032722f, -0.281821f, -0.077324f, -0.053234f, -0.022526f, 0.090541f, -0.093517f, 
	0.107927f, -0.055193f, -0.001465f, -0.129693f, 0.033928f, 0.035242f, 0.116933f, 0.003992f, 
	0.108615f, 0.007095f, 0.063448f, 0.039482f, -0.096143f, 0.003417f, -0.045726f, -0.020146f, 
	0.031509f, -0.017464f, 0.088326f, -0.176853f, 0.057654f, -0.068846f, -0.027455f, 0.024433f, 
	-0.050297f, -0.035154f, -0.045586f, -0.016798f, -0.024561f, -0.057695f, 0.011011f, 0.073851f, 
	0.082199f, 0.035865f, 0.061634f, -0.011718f, 0.014813f, 0.024191f, 0.068917f, 0.000573f, 
	0.086746f, 0.000895f, -0.000577f, 0.012684f, 0.066314f, -0.082673f, 0.024198f, 0.016975f, 
	0.036972f, 0.019468f, 0.052618f, 0.041344f, 0.079185f, 0.086400f, 0.081419f, 0.005474f, 
	0.040487f, 0.032880f, -0.031084f, 0.125166f, 0.063181f, 0.038282f, 0.021174f, 0.086351f, 
	0.020201f, -0.019620f, -0.013464f, 0.076152f, -0.123706f, -0.049395f, -0.052311f, 0.066684f, 
	-0.015803f, -0.068481f, -0.144429f, 0.000911f, 0.097721f, -0.013427f, 0.017979f, -0.069592f, 
	-0.022421f, -0.074435f, -0.070527f, -0.012490f, 0.013388f, 0.026826f, 0.004854f, -0.050403f, 
	-0.008134f, 0.072252f, 0.018377f, 0.029246f, -0.091279f, 0.098231f, -0.002367f, -0.079550f, 
	-0.076728f, -0.066453f, -0.044200f, -0.032877f, -0.053486f, -0.098458f, -0.035908f, -0.136428f, 
	-0.137557f, 0.025105f, -0.031562f, -0.086724f, 0.049758f, -0.085849f, 0.021683f, -0.094355f, 
	-0.019860f, -0.057821f, -0.105996f, -0.038756f, -0.056563f, 0.003431f, -0.101320f, 0.002079f, 
	-0.119830f, -0.033322f, -0.097432f, -0.002799f, -0.092573f, -0.041980f, -0.125219f, -0.115800f, 
	0.049539f, -0.040773f, -0.022520f, -0.146376f, 0.030889f, -0.038858f, 0.047586f, -0.099454f, 
	0.075359f, 0.099498f, 0.012219f, 0.036968f, -0.013336f, 0.027770f, -0.018971f, -0.062203f, 
	0.058535f, 0.019947f, 0.075061f, -0.047304f, 0.018525f, -0.105999f, -0.003583f, -0.036009f, 
	-0.033034f, -0.054268f, -0.220176f, -0.089162f, -0.008626f, 0.026073f, -0.072881f, -0.044565f, 
	0.039250f, -0.009484f, 0.003118f, -0.207544f, 0.053121f, 0.046209f, 0.116604f, -0.010037f, 
	0.060016f, -0.104192f, 0.079009f, -0.018940f, -0.143523f, 0.036097f, -0.225131f, -0.011495f, 
	0.030202f, 0.000042f, 0.017291f, -0.079943f, 0.003782f, -0.098103f, -0.003411f, 0.029434f, 
	0.110278f, -0.076896f, -0.048811f, -0.090342f, 0.062683f, -0.043001f, -0.049720f, 0.035735f, 
	-0.036206f, 0.005984f, 0.014051f, 0.029636f, -0.015479f, -0.026890f, -0.061793f, 0.020907f, 
	-0.060310f, 0.003168f, -0.111234f, -0.053093f, 0.034160f, -0.215458f, 0.057184f, 0.027578f, 
	-0.008510f, -0.006053f, -0.002325f, -0.158305f, -0.003671f, 0.088917f, 0.017187f, -0.000847f, 
	0.052938f, 0.015910f, 0.062457f, 0.046718f, -0.032282f, 0.091501f, 0.021946f, -0.068737f, 
	-0.117572f, -0.046769f, -0.054865f, 0.035528f, -0.052478f, -0.089514f, -0.026542f, 0.027622f, 
	-0.043040f, -0.024891f, -0.192480f, 0.018118f, -0.059938f, -0.140116f, 0.059029f, 0.009922f, 
	0.025062f, -0.003475f, -0.074966f, -0.069524f, 0.025893f, 0.069882f, -0.003508f, -0.039694f, 
	-0.048849f, 0.061512f, 0.028311f, -0.019341f, -0.036496f, 0.073434f, -0.016644f, 0.004391f, 
	-0.057621f, -0.009297f, -0.049437f, -0.031108f, -0.038832f, -0.040793f, -0.010349f, -0.029860f, 
	0.018073f, 0.052606f, -0.128530f, -0.013803f, -0.059547f, -0.084880f, -0.021552f, -0.039285f, 
	0.014825f, -0.049693f, -0.063759f, -0.193769f, 0.069139f, -0.139183f, -0.051668f, -0.007208f, 
	-0.129559f, 0.011494f, 0.011320f, -0.139376f, -0.071392f, -0.085165f, 0.044296f, -0.028392f, 
	-0.057097f, -0.027910f, 0.009164f, -0.122587f, 0.049700f, 0.018418f, 0.162954f, -0.125732f, 
	0.058311f, -0.006559f, 0.049419f, 0.076469f, -0.024818f, 0.024079f, -0.213183f, 0.042118f, 
	0.067613f, -0.047685f, 0.057848f, -0.105984f, -0.012630f, -0.148728f, 0.051292f, -0.018991f, 
	-0.032835f, 0.059361f, -0.072306f, -0.138971f, -0.000332f, -0.169324f, 0.032368f, -0.029587f, 
	0.002595f, 0.020001f, 0.040104f, -0.142586f, 0.047122f, 0.070445f, 0.032909f, 0.012351f, 
	0.115968f, -0.092957f, 0.030180f, 0.037215f, -0.064468f, -0.045834f, -0.123669f, 0.017508f, 
	-0.016693f, 0.000840f, 0.043444f, -0.158311f, 0.077311f, -0.080189f, 0.058147f, 0.012311f, 
	0.120274f, -0.086893f, -0.018906f, -0.023274f, 0.057134f, -0.073868f, -0.129758f, -0.048511f, 
	-0.094105f, 0.016414f, -0.080910f, 0.114953f, -0.074221f, -0.038727f, -0.023438f, 0.091915f, 
	-0.226625f, -0.043141f, -0.155215f, -0.036142f, -0.157926f, -0.121071f, 0.000074f, -0.082469f, 
	-0.052071f, -0.064715f, -0.081415f, -0.128503f, -0.133379f, 0.035108f, -0.136389f, 0.061839f, 
	-0.067219f, 0.061182f, -0.007330f, -0.047642f, 0.024976f, 0.067039f, 0.020363f, -0.005538f, 
	-0.018379f, -0.026768f, 0.031244f, 0.035901f, -0.031806f, 0.019247f, -0.006979f, -0.067581f, 
	0.074117f, 0.081397f, -0.112171f, 0.069173f, -0.063621f, -0.118109f, 0.080975f, -0.045527f, 
	0.013635f, 0.042952f, -0.066839f, -0.169701f, 0.102631f, 0.143618f, 0.092432f, -0.048211f, 
	-0.021204f, 0.026513f, -0.039693f, 0.086223f, -0.040005f, 0.105908f, 0.035567f, 0.051644f, 
	-0.072739f, -0.072680f, -0.051628f, -0.073310f, -0.008111f, -0.008919f, 0.039894f, -0.007352f, 
	0.017741f, 0.027279f, -0.058860f, -0.036124f, 0.034042f, -0.062064f, -0.001066f, -0.031545f, 
	0.019992f, 0.011191f, -0.014108f, -0.094262f, 0.062531f, -0.022146f, -0.007962f, 0.021413f, 
	-0.100660f, -0.081334f, -0.081319f, -0.060056f, -0.018035f, -0.092036f, 0.042178f, 0.029180f, 
	0.038820f, -0.053379f, 0.048547f, -0.089033f, 0.016584f, 0.058781f, 0.137672f, -0.137409f, 
	0.073819f, -0.249385f, 0.083696f, 0.059358f, 0.019526f, 0.004761f, -0.139846f, -0.051583f, 
	0.005842f, 0.005422f, 0.094615f, -0.009139f, 0.015713f, 0.000760f, 0.059941f, 0.057061f, 
	-0.034654f, -0.103902f, -0.123013f, -0.049000f, 0.038260f, -0.017033f, 0.002389f, 0.020624f, 
	0.030053f, 0.033496f, -0.010715f, -0.056838f, 0.063462f, 0.058886f, 0.040699f, 0.066319f, 
	-0.052050f, -0.205327f, 0.007189f, -0.055697f, -0.099015f, -0.051224f, -0.111534f, 0.045134f, 
	0.015313f, -0.042108f, 0.059709f, -0.053603f, -0.068789f, 0.009004f, -0.072836f, 0.002195f, 
	-0.009083f, -0.051937f, 0.026073f, -0.012490f, 0.016306f, 0.036409f, 0.025980f, -0.046251f, 
	-0.078384f, 0.062512f, 0.017702f, 0.029951f, -0.083735f, -0.123624f, -0.009827f, 0.018191f, 
	-0.060927f, 0.069456f, -0.098430f, 0.031633f, -0.038063f, -0.075881f, -0.013736f, -0.097233f, 
	0.004346f, -0.063956f, -0.142359f, -0.109122f, -0.044720f, 0.060453f, -0.120319f, 0.016892f, 
	-0.106631f, 0.083278f, 0.060053f, 0.058085f, -0.018960f, 0.117734f, 0.032665f, 0.035815f, 
	-0.061675f, -0.118206f, -0.052407f, 0.093133f, -0.137908f, -0.054595f, -0.019826f, -0.046292f, 
	-0.164106f, -0.048504f, 0.000710f, 0.024839f, 0.086475f, -0.003966f, 0.057327f, -0.040422f, 
	-0.100446f, 0.021801f, -0.056425f, 0.020520f, -0.126460f, -0.049637f, -0.031202f, -0.010948f, 
	-0.092000f, 0.027182f, -0.025997f, 0.072714f, -0.028342f, 0.013157f, -0.082217f, -0.064313f, 
	-0.014206f, -0.002528f, 0.025977f, 0.009751f, 0.025163f, -0.045902f, 0.052991f, -0.032418f, 
	-0.050094f, -0.079127f, 0.129574f, -0.024759f, -0.004199f, 0.105941f, -0.027222f, 0.000973f, 
	-0.031165f, -0.032608f, 0.063577f, 0.024080f, -0.125386f, -0.053773f, -0.035768f, -0.113547f, 
	0.042638f, -0.127338f, -0.098641f, -0.005237f, -0.054893f, 0.057843f, -0.037977f, -0.066330f, 
	0.025819f, 0.020845f, 0.024832f, 0.019052f, -0.044759f, 0.057538f, 0.031285f, -0.027103f, 
	0.096387f, 0.018400f, 0.091847f, 0.056009f, -0.080746f, -0.019486f, -0.044085f, 0.010840f, 
	-0.031361f, -0.042062f, 0.032929f, -0.173702f, 0.082890f, -0.185440f, 0.022834f, -0.009044f, 
	0.058165f, -0.043835f, 0.026696f, -0.051509f, -0.070810f, 0.095730f, 0.011396f, -0.029925f, 
	0.043715f, 0.082943f, -0.008547f, 0.007664f, 0.050050f, 0.014385f, 0.055584f, -0.037142f, 
	0.010851f, 0.030969f, -0.034701f, 0.065658f, -0.076876f, -0.071064f, 0.017088f, 0.063575f, 
	0.045895f, 0.020830f, -0.007397f, -0.266321f, 0.086142f, -0.074823f, 0.079170f, 0.034843f, 
	0.077844f, -0.042724f, -0.022110f, -0.037176f, 0.040284f, -0.015945f, -0.127417f, 0.007500f, 
	0.079713f, 0.068678f, 0.055707f, -0.056930f, 0.046498f, -0.001125f, 0.032553f, 0.050483f, 
	0.086874f, 0.064592f, -0.086484f, 0.045139f, -0.140509f, -0.129907f, 0.044181f, 0.002936f, 
	-0.002044f, 0.026187f, 0.017957f, -0.248891f, 0.109298f, 0.023536f, 0.088139f, -0.020660f, 
	0.058901f, -0.029513f, -0.013222f, 0.058558f, 0.112724f, -0.080973f, 0.048327f, 0.002287f, 
	-0.071610f, -0.089091f, -0.144018f, 0.023371f, -0.085059f, -0.167648f, -0.010148f, 0.069504f, 
	-0.305923f, -0.275295f, -0.045801f, -0.051179f, -0.018471f, 0.021757f, -0.139141f, -0.218454f, 
	-0.142961f, -0.090015f, -0.172456f, -0.070483f, -0.171955f, 0.046569f, -0.164092f, -0.080095f, 
	-0.259225f, -0.085586f, 0.199834f, -0.014419f, -0.058841f, 0.027476f, 0.070825f, -0.029353f, 
	0.034287f, -0.044672f, -0.011870f, 0.020958f, -0.020574f, -0.015572f, 0.040497f, -0.046673f, 
	-0.070096f, -0.233055f, 0.115649f, -0.080345f, 0.050501f, 0.081321f, -0.224800f, -0.060131f, 
	-0.102826f, 0.037535f, 0.037650f, 0.061463f, -0.178933f, -0.091471f, -0.064296f, -0.077904f, 
	-0.008192f, -0.069798f, 0.073483f, -0.154491f, 0.052394f, -0.147628f, 0.023539f, -0.088157f, 
	-0.012128f, -0.066953f, 0.043200f, 0.086541f, 0.048716f, 0.024117f, 0.027810f, 0.123709f, 
	-0.008448f, -0.130039f, 0.065048f, -0.043743f, -0.078714f, 0.045544f, -0.197355f, 0.090914f, 
	0.010444f, 0.037634f, 0.111569f, 0.073440f, -0.071694f, -0.037643f, -0.013302f, -0.006146f, 
	0.026482f, -0.047941f, 0.046143f, -0.108193f, 0.000547f, -0.281599f, 0.089896f, -0.046136f, 
	0.098080f, -0.002219f, 0.080376f, 0.069493f, 0.035675f, 0.003315f, 0.019294f, 0.003022f, 
	0.013622f, 0.034648f, 0.058533f, 0.023659f, -0.062567f, 0.007666f, -0.097068f, -0.013137f, 
	-0.046845f, 0.103627f, -0.001565f, -0.037888f, -0.010536f, 0.022722f, -0.004118f, 0.106235f, 
	0.091257f, -0.035829f, -0.041434f, -0.065929f, 0.045489f, -0.113456f, 0.036707f, 0.154640f, 
	0.071357f, 0.007332f, 0.077407f, -0.134529f, 0.064368f, 0.093825f, 0.107069f, 0.028791f, 
	0.102421f, 0.058160f, 0.045914f, 0.017260f, -0.107030f, -0.018370f, -0.025726f, -0.000838f, 
	0.024934f, 0.118129f, 0.032537f, -0.078612f, -0.030962f, 0.057415f, 0.116508f, -0.070985f, 
	0.121868f, -0.119357f, -0.107011f, 0.096932f, 0.109313f, 0.100429f, 0.014768f, 0.132544f, 
	-0.088785f, -0.118281f, -0.161368f, 0.069950f, -0.120337f, -0.187313f, -0.069091f, -0.124136f, 
	-0.153326f, 0.051441f, -0.096137f, -0.108622f, 0.057901f, -0.043813f, 0.046827f, -0.137807f, 
	-0.066661f, -0.114294f, -0.224634f, 0.085687f, -0.112416f, 0.021053f, -0.202259f, -0.063668f, 
	-0.241669f, -0.025875f, 0.058564f, -0.022584f, -0.056247f, 0.046585f, -0.030149f, -0.105362f, 
	0.019093f, -0.081681f, -0.049596f, -0.079328f, -0.072887f, -0.025307f, 0.011002f, -0.223327f, 
	-0.132267f, -0.094062f, 0.041554f, -0.197566f, 0.106029f, 0.057283f, 0.011784f, -0.029984f, 
	-0.186598f, -0.146311f, -0.123885f, 0.131097f, -0.139237f, -0.005137f, -0.075908f, -0.098607f, 
	-0.100218f, -0.072904f, 0.061647f, -0.013305f, 0.044963f, -0.239952f, -0.099122f, -0.184317f, 
	0.075554f, 0.007762f, 0.024420f, -0.140317f, -0.071756f, 0.012481f, -0.026039f, -0.206074f, 
	-0.218262f, -0.021184f, 0.090997f, -0.205445f, 0.080440f, 0.154106f, 0.076939f, 0.068344f, 
	-0.140316f, 0.018784f, -0.040576f, 0.201824f, -0.176498f, 0.050785f, -0.000801f, -0.026815f, 
	-0.017974f, -0.223944f, -0.080238f, 0.072968f, 0.102613f, -0.217337f, 0.066784f, -0.192685f, 
	0.040397f, -0.015968f, 0.067725f, -0.230211f, -0.056607f, 0.014170f, 0.019158f, -0.252922f, 
	-0.146814f, 0.058901f, 0.046036f, -0.226278f, 0.134409f, 0.131008f, 0.079328f, -0.014098f, 
	-0.243408f, -0.013923f, -0.083427f, 0.205349f, -0.287608f, 0.124992f, -0.072814f, -0.102012f, 
	-0.006588f, -0.300543f, -0.211858f, 0.162603f, 0.086718f, -0.102554f, -0.029006f, 0.020886f, 
	-0.002692f, 0.044734f, 0.099899f, -0.100302f, -0.081424f, -0.006752f, 0.025080f, -0.236515f, 
	-0.129184f, -0.068989f, 0.055750f, -0.215251f, 0.044140f, 0.044336f, 0.101016f, 0.050442f, 
	-0.213786f, 0.034953f, -0.001870f, 0.051516f, -0.218287f, 0.181255f, 0.048505f, -0.086676f, 
	-0.022194f, -0.394028f, -0.294248f, 0.134366f, 0.016913f, 0.060667f, -0.121680f, -0.041331f, 
	-0.151786f, -0.130425f, -0.064712f, 0.002768f, -0.050212f, -0.161985f, -0.087811f, 0.008938f, 
	-0.052480f, -0.015106f, -0.072658f, -0.004387f, -0.070977f, -0.116358f, -0.069429f, -0.062174f, 
	0.081141f, -0.049305f, -0.084123f, -0.102263f, -0.011106f, -0.133219f, -0.054280f, -0.056428f, 
	-0.088633f, 0.077591f, -0.004916f, -0.180526f, -0.108331f, -0.109215f, 0.000827f, 0.019360f, 
	-0.132533f, -0.160264f, -0.078286f, -0.017211f, -0.043468f, -0.101494f, -0.080268f, 0.067203f, 
	-0.066539f, 0.004324f, -0.138016f, -0.002800f, 0.006498f, -0.167414f, -0.004726f, -0.027261f, 
	0.058274f, -0.049070f, -0.078287f, -0.148806f, -0.032418f, -0.068192f, -0.108537f, 0.048561f, 
	-0.119006f, 0.105440f, -0.008907f, 0.006020f, -0.142115f, -0.132727f, -0.062096f, -0.017570f, 
	-0.163142f, -0.110967f, -0.035145f, -0.087104f, -0.029308f, -0.070138f, -0.121691f, -0.014109f, 
	-0.003342f, 0.183570f, -0.061942f, -0.079143f, 0.120916f, -0.113678f, 0.148849f, -0.002086f, 
	0.047389f, 0.042245f, -0.122224f, 0.066833f, 0.064209f, 0.044917f, -0.103658f, 0.082636f, 
	-0.174092f, 0.181047f, -0.003575f, 0.177886f, -0.040180f, -0.128075f, -0.122354f, 0.079730f, 
	-0.044592f, -0.128430f, -0.122351f, -0.126653f, 0.013102f, -0.034212f, -0.124989f, -0.024501f, 
	-0.003855f, 0.173808f, -0.044592f, -0.028437f, 0.054269f, -0.014537f, 0.196129f, 0.005312f, 
	0.074942f, -0.023678f, -0.066251f, 0.127024f, 0.002603f, -0.006409f, -0.070314f, 0.026580f, 
	-0.110897f, 0.097724f, -0.120561f, 0.138406f, -0.098127f, -0.091173f, -0.031784f, 0.024705f, 
	-0.022431f, -0.060746f, -0.123513f, -0.056770f, -0.061168f, -0.027141f, -0.062098f, -0.057293f, 
	-0.029161f, 0.084121f, -0.057791f, 0.012793f, -0.084190f, -0.032826f, 0.095375f, 0.039120f, 
	-0.013843f, -0.042836f, -0.114677f, -0.060125f, 0.017241f, -0.004976f, 0.004764f, 0.040958f, 
	-0.011995f, 0.037149f, -0.046507f, 0.017532f, -0.133096f, -0.020056f, -0.125339f, -0.020611f, 
	-0.064155f, -0.035747f, 0.012189f, 0.031488f, 0.001218f, -0.028227f, -0.043344f, 0.024625f, 
	0.015199f, -0.070198f, 0.058954f, 0.054637f, -0.149436f, -0.083844f, -0.108304f, 0.037134f, 
	0.071082f, -0.047403f, -0.041889f, -0.057848f, -0.011745f, -0.082247f, -0.066603f, -0.034498f, 
	-0.064446f, 0.078649f, -0.029398f, -0.218134f, 0.007270f, -0.091052f, 0.053816f, -0.025146f, 
	0.002881f, 0.026469f, -0.015430f, 0.052517f, 0.061278f, -0.032925f, -0.008410f, 0.065423f, 
	0.055268f, 0.051077f, -0.033855f, 0.055328f, -0.099692f, -0.216469f, 0.009913f, 0.019240f, 
	0.024874f, -0.040061f, -0.045810f, -0.171045f, 0.068541f, -0.080548f, -0.021827f, 0.053336f, 
	-0.114654f, 0.075254f, 0.048729f, -0.191755f, -0.076482f, -0.100814f, -0.035693f, 0.116409f, 
	0.007119f, 0.009291f, -0.013876f, -0.055017f, 0.066825f, 0.044456f, -0.032793f, -0.016729f, 
	0.088149f, 0.111036f, -0.040938f, 0.096695f, -0.128386f, -0.088833f, 0.022741f, -0.063339f, 
	0.093517f, -0.015110f, -0.080155f, -0.158117f, 0.088623f, -0.043946f, 0.048390f, 0.027073f, 
	0.062731f, 0.040191f, -0.024579f, -0.002877f, 0.068849f, -0.069279f, 0.083207f, 0.150460f, 
	0.010389f, -0.012440f, -0.005079f, -0.072287f, 0.095661f, 0.041427f, -0.019778f, 0.102170f, 
	0.076189f, 0.053745f, -0.065504f, 0.100381f, -0.135284f, -0.066175f, 0.116162f, 0.010311f, 
	0.125710f, 0.061982f, 0.000598f, -0.027092f, 0.069858f, 0.117210f, 0.036269f, 0.025240f, 
	0.048152f, 0.127561f, -0.000382f, 0.073547f, 0.030232f, -0.027625f, 0.145220f, 0.109262f, 
	0.011949f, -0.027940f, 0.007791f, -0.027548f, 0.006703f, 0.003590f, 0.044565f, 0.090818f, 
	0.084078f, 0.029759f, -0.005012f, 0.023123f, -0.136910f, -0.034150f, 0.058807f, 0.013621f, 
	0.080383f, 0.064155f, -0.003091f, -0.106316f, 0.128742f, 0.037218f, 0.014789f, 0.026012f, 
	0.059932f, 0.092066f, 0.074678f, -0.002832f, 0.020510f, 0.059522f, 0.068790f, 0.079420f, 
	0.013008f, -0.003035f, 0.030648f, 0.069873f, 0.005150f, -0.032536f, 0.012836f, -0.092262f, 
	0.074872f, 0.023159f, -0.020064f, -0.015150f, 0.090863f, 0.092577f, 0.111255f, 0.025372f, 
	-0.014506f, 0.013789f, -0.033255f, 0.084380f, 0.018431f, 0.107897f, -0.038533f, -0.034114f, 
	-0.021753f, -0.017668f, -0.030131f, 0.078197f, -0.026867f, 0.175090f, -0.017313f, -0.067139f, 
	-0.040827f, 0.038078f, 0.032396f, 0.046208f, -0.069014f, 0.020623f, 0.002435f, -0.017165f, 
	-0.054722f, -0.103855f, 0.030501f, -0.053514f, 0.097365f, 0.068426f, 0.058595f, -0.049809f, 
	-0.155841f, -0.029589f, -0.051552f, 0.051760f, -0.042824f, 0.015737f, -0.062856f, -0.018796f, 
	0.048376f, -0.104670f, 0.048248f, 0.049826f, -0.036395f, 0.088155f, 0.085612f, -0.115264f, 
	0.039619f, -0.032956f, -0.029964f, 0.074788f, -0.002307f, -0.017517f, 0.035631f, 0.026090f, 
	0.000711f, -0.047862f, 0.056926f, -0.097618f, 0.090411f, 0.075292f, 0.069458f, -0.044702f, 
	-0.069418f, -0.017713f, -0.041536f, 0.068158f, -0.098306f, -0.027728f, 0.058548f, -0.028623f, 
	0.005391f, -0.050389f, 0.071707f, 0.048415f, 0.053999f, 0.118024f, -0.031615f, -0.049061f, 
	0.045279f, -0.041320f, 0.015117f, -0.068780f, -0.061050f, -0.001939f, 0.022831f, -0.003173f, 
	-0.111625f, -0.002304f, 0.034919f, -0.161066f, 0.079172f, 0.041871f, 0.078722f, -0.057871f, 
	-0.097827f, 0.041391f, 0.003573f, 0.114537f, -0.149587f, 0.077454f, -0.000168f, 0.003612f, 
	-0.021742f, -0.074380f, -0.012509f, 0.082715f, 0.043663f, 0.113568f, -0.081455f, -0.015391f, 
	-0.011029f, 0.000215f, 0.029656f, -0.066580f, -0.090914f, -0.039823f, -0.066024f, -0.058566f, 
	-0.099886f, -0.099106f, 0.067596f, -0.133934f, 0.013217f, 0.066409f, 0.055469f, 0.011004f, 
	-0.156036f, -0.062314f, -0.063237f, 0.050092f, -0.184854f, -0.003090f, -0.015164f, -0.063770f, 
	0.036089f, -0.143324f, -0.015157f, 0.066596f, 0.020075f, 0.093742f, -0.067786f, -0.148431f, 
	0.005770f, 0.009554f, -0.035332f, 0.056427f, 0.035731f, -0.043614f, -0.070032f, -0.091347f, 
	0.023278f, -0.044795f, -0.040500f, 0.022011f, 0.012858f, 0.001977f, -0.083461f, 0.031309f, 
	-0.019985f, -0.043848f, -0.057190f, 0.032748f, 0.022439f, -0.046539f, 0.071407f, 0.000239f, 
	0.044131f, -0.041904f, -0.029281f, -0.013536f, 0.023599f, 0.080971f, -0.065835f, -0.000618f, 
	-0.044615f, -0.082691f, -0.108815f, -0.050685f, -0.083655f, -0.031534f, -0.064184f, -0.033019f, 
	-0.140396f, -0.168981f, -0.043453f, -0.220392f, 0.033984f, -0.115359f, -0.013257f, -0.034462f, 
	-0.148915f, -0.032121f, -0.064572f, 0.002622f, -0.123017f, -0.052473f, -0.053234f, 0.027781f, 
	-0.095318f, -0.159748f, -0.044996f, 0.036506f, -0.056710f, 0.060070f, -0.085360f, -0.239712f, 
	-0.070443f, -0.085315f, -0.082965f, -0.044768f, -0.066139f, -0.091985f, -0.135285f, -0.198596f, 
	-0.124159f, -0.024280f, -0.119649f, -0.158812f, -0.046512f, -0.083481f, 0.041011f, -0.031180f, 
	-0.096953f, -0.000353f, -0.142663f, 0.053961f, -0.108920f, 0.030206f, -0.031842f, -0.103962f, 
	-0.017780f, -0.086240f, -0.143211f, 0.023655f, -0.018633f, -0.031092f, -0.139802f, -0.041818f, 
	-0.084183f, -0.140475f, -0.045911f, -0.164485f, -0.070744f, -0.114396f, -0.072942f, -0.171297f, 
	-0.062383f, 0.070130f, -0.099831f, -0.066543f, -0.041007f, -0.107553f, 0.126008f, -0.026302f, 
	-0.025601f, -0.045457f, -0.135207f, 0.009176f, -0.006332f, 0.001447f, 0.016831f, 0.005922f, 
	-0.151697f, 0.031181f, -0.161529f, 0.066006f, -0.047293f, 0.065346f, -0.074709f, -0.102128f, 
	-0.114318f, -0.135706f, -0.112830f, -0.131221f, -0.005346f, -0.050669f, 0.012786f, 0.052984f, 
	0.059858f, 0.196572f, -0.058143f, -0.064755f, -0.101461f, -0.065031f, 0.130694f, -0.006713f, 
	0.104866f, 0.004040f, -0.031403f, 0.007685f, 0.081746f, -0.099481f, -0.143101f, 0.014732f, 
	-0.183489f, 0.084985f, -0.066086f, -0.026363f, -0.072890f, 0.013883f, -0.037383f, -0.014272f, 
	-0.058596f, -0.025805f, -0.025692f, -0.042411f, -0.061778f, 0.011550f, -0.097671f, -0.035451f, 
	-0.118502f, -0.123431f, -0.156850f, 0.002151f, -0.032127f, -0.086382f, -0.031285f, -0.034651f, 
	0.037132f, -0.030598f, -0.118901f, -0.087820f, -0.067144f, -0.088295f, 0.024496f, -0.004925f, 
	0.004564f, -0.000964f, -0.074992f, -0.046895f, -0.038836f, 0.022500f, -0.099592f, -0.024204f, 
	-0.116232f, -0.065510f, -0.099777f, -0.110540f, -0.058257f, -0.066725f, -0.103659f, -0.090459f, 
	-0.111528f, -0.133901f, -0.162110f, -0.133837f, -0.049878f, -0.216525f, -0.028150f, -0.124405f, 
	-0.137556f, -0.098639f, -0.206981f, -0.184233f, -0.029479f, -0.030485f, -0.075570f, -0.068700f, 
	-0.118202f, -0.076416f, -0.116106f, -0.073160f, -0.072874f, 0.055100f, -0.113916f, -0.084464f, 
	-0.077046f, -0.121565f, -0.107138f, -0.118610f, -0.026484f, -0.058660f, -0.051071f, -0.030620f, 
	-0.014541f, 0.065108f, -0.112720f, -0.065204f, -0.169744f, -0.128081f, 0.089287f, -0.135783f, 
	-0.051387f, -0.002343f, -0.044554f, -0.196079f, -0.044421f, -0.051171f, -0.025571f, -0.052873f, 
	-0.115630f, -0.000384f, -0.091738f, -0.042672f, -0.061159f, 0.057115f, -0.004089f, -0.047923f, 
	0.006799f, -0.013702f, -0.045471f, -0.102989f, 0.057368f, -0.035078f, 0.027446f, 0.004272f, 
	0.115734f, 0.173468f, -0.007248f, -0.068031f, -0.132807f, -0.104488f, 0.105496f, -0.057472f, 
	0.012547f, -0.002848f, -0.015219f, -0.087952f, 0.097284f, -0.149218f, 0.057195f, -0.022407f, 
	-0.044936f, 0.009207f, -0.138210f, -0.179108f, 0.038694f, 0.079234f, 0.007641f, 0.089326f, 
	0.045697f, 0.049351f, 0.098840f, -0.153344f, 0.040643f, 0.074857f, 0.057054f, 0.083415f, 
	0.182372f, 0.081002f, 0.072905f, 0.007545f, -0.109724f, -0.039079f, -0.154564f, -0.059961f, 
	0.066487f, -0.027596f, 0.035572f, 0.008243f, 0.031777f, -0.014909f, 0.087431f, 0.024594f, 
	-0.015215f, 0.051989f, -0.049154f, -0.064578f, 0.067320f, -0.182270f, 0.156556f, 0.124012f, 
	-0.106540f, -0.020849f, -0.042487f, 0.078728f, 0.006438f, -0.046112f, -0.017043f, -0.059746f, 
	-0.017171f, 0.040899f, -0.064729f, 0.034062f, -0.188830f, -0.226931f, 0.047304f, 0.007967f, 
	0.001326f, -0.017644f, -0.122385f, -0.231420f, 0.023319f, -0.079807f, -0.083663f, 0.043449f, 
	-0.064896f, 0.012422f, -0.016786f, -0.110489f, -0.080927f, 0.115954f, -0.055788f, -0.054360f, 
	-0.100562f, -0.097249f, -0.117775f, -0.018499f, -0.004810f, -0.089814f, 0.071586f, -0.038222f, 
	0.050989f, 0.155286f, -0.035577f, -0.055838f, -0.053453f, -0.240777f, 0.006086f, 0.012094f, 
	0.035845f, 0.015536f, -0.020860f, -0.201331f, -0.009375f, -0.148037f, -0.059390f, 0.008790f, 
	0.009562f, 0.053778f, -0.057284f, -0.113438f, -0.115385f, 0.003909f, -0.119534f, -0.008987f, 
	0.040517f, 0.011337f, -0.023522f, -0.012038f, 0.009616f, 0.052760f, 0.053387f, -0.002537f, 
	0.073291f, 0.170573f, 0.035501f, -0.018212f, -0.023137f, -0.076190f, -0.011171f, 0.054446f, 
	0.031638f, -0.097149f, 0.057031f, -0.047980f, 0.056281f, -0.088224f, 0.114229f, -0.006959f, 
	0.059695f, 0.050192f, -0.107601f, -0.095120f, -0.017705f, -0.075966f, -0.024716f, 0.036059f, 
	0.063935f, -0.007428f, 0.084972f, -0.015205f, -0.040553f, 0.075176f, -0.060558f, 0.012101f, 
	0.105388f, 0.060086f, 0.018846f, 0.102786f, 0.079930f, 0.043459f, 0.131560f, -0.020007f, 
	0.031614f, 0.029151f, 0.026927f, 0.009081f, 0.047348f, 0.068018f, 0.078081f, -0.051875f, 
	0.077223f, -0.065873f, -0.079336f, 0.181852f, 0.057136f, -0.085636f, 0.051781f, 0.028438f, 
	0.078003f, -0.010879f, 0.099191f, -0.059006f, 0.031321f, 0.050119f, -0.158608f, -0.073633f, 
	-0.085922f, 0.125708f, 0.026467f, 0.056177f, 0.144869f, 0.013321f, 0.141822f, 0.035683f, 
	-0.064449f, 0.112528f, 0.046988f, 0.075910f, -0.085682f, 0.048614f, 0.059260f, -0.000035f, 
	-0.073490f, 0.002099f, 0.000300f, 0.174942f, 0.064482f, -0.166595f, 0.051371f, 0.013002f, 
	-0.057049f, 0.042826f, 0.014026f, 0.232430f, -0.013787f, 0.020382f, -0.020971f, -0.001903f, 
	-0.034022f, 0.049999f, -0.096063f, 0.175193f, -0.137274f, -0.142689f, -0.172148f, -0.034956f, 
	0.109586f, 0.021002f, -0.030657f, -0.159198f, 0.073543f, -0.052566f, 0.024896f, 0.040558f, 
	-0.019402f, 0.132236f, 0.140908f, -0.116427f, -0.044053f, 0.086164f, 0.067282f, 0.103673f, 
	-0.041577f, 0.032997f, -0.008412f, 0.097286f, -0.018741f, 0.013960f, 0.062771f, 0.017379f, 
	0.132566f, 0.015394f, 0.034661f, 0.062417f, -0.109429f, 0.022568f, -0.129545f, -0.011265f, 
	0.097033f, -0.048526f, 0.031080f, -0.013794f, 0.079267f, -0.106054f, 0.020133f, -0.017275f, 
	-0.078026f, 0.124932f, -0.019997f, -0.078735f, -0.054147f, -0.139139f, 0.114725f, 0.074235f, 
	0.053179f, 0.014557f, 0.062213f, -0.044206f, 0.039857f, 0.035343f, 0.054573f, 0.041526f, 
	0.115266f, -0.189649f, 0.072011f, 0.109098f, 0.003107f, 0.051101f, -0.074192f, 0.049938f, 
	-0.003342f, -0.074280f, 0.048909f, -0.014007f, 0.104047f, -0.082444f, 0.057911f, 0.026722f, 
	-0.000975f, 0.019851f, 0.000916f, 0.000795f, 0.047762f, -0.093012f, -0.004086f, 0.064900f, 
	0.040304f, 0.055547f, -0.059220f, 0.122783f, -0.027688f, -0.063426f, -0.071982f, 0.086361f, 
	-0.174061f, 0.060816f, 0.016913f, 0.019131f, 0.034229f, 0.011620f, 0.021955f, 0.029005f, 
	-0.084857f, 0.026173f, -0.062549f, 0.066414f, -0.093433f, -0.037227f, -0.074755f, 0.089331f, 
	-0.013048f, 0.092586f, -0.003319f, 0.062060f, 0.025999f, -0.106467f, 0.054366f, 0.027222f, 
	0.016674f, 0.042075f, 0.006831f, 0.026987f, -0.028849f, -0.096623f, -0.142414f, -0.015802f, 
	-0.101228f, 0.105046f, -0.082403f, 0.009622f, 0.018406f, -0.003215f, -0.028239f, 0.026001f, 
	0.000350f, -0.051735f, -0.115029f, 0.087165f, -0.131213f, 0.046844f, -0.123850f, -0.007966f, 
	-0.000267f, 0.080713f, 0.017675f, 0.011042f, -0.010948f, -0.133928f, 0.070780f, 0.057042f, 
	0.043910f, -0.052205f, -0.059118f, 0.037486f, -0.006016f, -0.022478f, 0.065707f, -0.029540f, 
	0.052908f, 0.023181f, 0.034395f, 0.019126f, 0.072602f, 0.050765f, 0.057579f, 0.060581f, 
	0.004791f, -0.037973f, 0.025058f, 0.006497f, 0.022137f, -0.009163f, 0.010555f, -0.060610f, 
	0.011570f, -0.008618f, -0.062003f, 0.049025f, -0.060278f, 0.146317f, 0.025320f, -0.041494f, 
	0.015036f, -0.009360f, -0.004080f, 0.009932f, -0.016457f, -0.034004f, -0.021979f, 0.014688f, 
	0.049474f, -0.044813f, -0.008260f, -0.009784f, -0.053540f, -0.001347f, -0.038450f, 0.055083f, 
	-0.071990f, -0.082563f, -0.046371f, -0.012042f, 0.030638f, -0.049008f, -0.017718f, 0.015221f, 
	0.076912f, 0.006239f, -0.008078f, -0.090688f, 0.033297f, 0.039397f, 0.033820f, -0.061937f, 
	-0.031781f, -0.084773f, 0.018271f, 0.084147f, -0.050637f, -0.064734f, -0.136149f, -0.061338f, 
	-0.069358f, -0.136353f, -0.127113f, 0.018860f, -0.077122f, -0.120445f, -0.121802f, -0.018376f, 
	-0.073691f, -0.055367f, -0.158835f, -0.165153f, -0.097170f, -0.118786f, -0.001733f, 0.010089f, 
	0.027238f, -0.054885f, -0.003198f, -0.038826f, -0.063493f, 0.061603f, -0.090334f, -0.079210f, 
	-0.094654f, -0.145054f, -0.010336f, -0.025244f, -0.031576f, -0.083479f, 0.141727f, -0.186124f, 
	-0.038507f, -0.171173f, 0.094022f, -0.108345f, -0.010776f, 0.056046f, -0.103610f, -0.058568f, 
	-0.141249f, -0.025782f, -0.017964f, 0.029875f, -0.153691f, -0.076802f, -0.109249f, -0.106085f, 
	-0.088672f, -0.117997f, -0.154261f, -0.025196f, -0.077913f, -0.053060f, -0.098798f, -0.153230f, 
	0.093811f, -0.050750f, 0.047943f, -0.142657f, -0.043609f, 0.014742f, 0.066656f, 0.099377f, 
	0.034222f, -0.206610f, 0.191436f, -0.037708f, 0.027991f, 0.096249f, -0.056647f, 0.138936f, 
	-0.093685f, 0.012628f, 0.051034f, -0.006845f, -0.130690f, -0.071925f, -0.008728f, -0.076940f, 
	0.124669f, -0.255433f, 0.038582f, -0.033373f, 0.016883f, -0.211970f, 0.014521f, -0.141090f, 
	-0.061551f, -0.053145f, 0.008784f, 0.007364f, -0.003131f, 0.071837f, 0.092872f, 0.023923f, 
	0.056721f, -0.017345f, 0.071194f, 0.047531f, 0.033275f, 0.038108f, -0.083423f, 0.068380f, 
	-0.055579f, -0.052038f, 0.065281f, 0.022209f, 0.052996f, -0.137794f, 0.015652f, -0.035827f, 
	-0.061343f, -0.002107f, 0.027757f, -0.149461f, -0.039424f, -0.086738f, -0.025488f, 0.051965f, 
	-0.060916f, -0.038014f, 0.024308f, -0.060033f, 0.035116f, 0.066365f, -0.055557f, 0.025314f, 
	0.001199f, 0.025540f, 0.024280f, -0.052833f, 0.022266f, -0.041634f, -0.011843f, 0.082058f, 
	-0.030299f, 0.013039f, -0.030979f, -0.026360f, 0.054202f, -0.134422f, 0.140607f, -0.046398f, 
	0.091859f, -0.006162f, 0.062777f, -0.158929f, -0.011580f, -0.118795f, -0.027212f, 0.057562f, 
	-0.057581f, -0.008234f, -0.042970f, 0.018725f, 0.008961f, -0.114197f, -0.139941f, 0.008684f, 
	-0.062417f, -0.080096f, -0.199460f, -0.029649f, -0.173012f, -0.096042f, -0.033828f, -0.017487f, 
	-0.004198f, 0.007635f, -0.125046f, -0.157208f, 0.057107f, -0.088229f, -0.074152f, -0.005421f, 
	-0.086530f, 0.065212f, 0.074212f, -0.170225f, -0.088259f, 0.023009f, 0.060089f, 0.011446f, 
	-0.066216f, -0.049269f, -0.109406f, -0.042507f, -0.051637f, -0.042810f, 0.041676f, -0.091003f, 
	0.020092f, -0.129363f, 0.044389f, -0.050822f, 0.007899f, 0.016170f, -0.188979f, -0.044793f, 
	-0.103200f, -0.086438f, -0.047697f, 0.001969f, -0.064852f, -0.085871f, -0.156227f, -0.040332f, 
	-0.068311f, 0.010991f, 0.019625f, -0.052643f, -0.118193f, -0.094778f, -0.142404f, -0.120631f, 
	-0.025286f, -0.097861f, -0.029833f, -0.023101f, 0.015851f, -0.018680f, 0.016807f, -0.018054f, 
	-0.031560f, -0.143032f, 0.077315f, -0.082770f, -0.057201f, 0.012101f, -0.121973f, 0.009754f, 
	-0.140316f, -0.085493f, 0.055449f, 0.059770f, -0.182292f, -0.102884f, -0.076989f, -0.042882f, 
	0.078427f, -0.187093f, -0.077972f, -0.100609f, 0.012997f, -0.205413f, -0.079507f, -0.228243f, 
	-0.036294f, -0.024443f, 0.066423f, -0.098922f, -0.040959f, 0.052990f, 0.083723f, -0.072712f, 
	-0.057610f, -0.055092f, -0.003126f, -0.020628f, 0.067344f, 0.025757f, 0.048937f, 0.014550f, 
	0.015907f, 0.060662f, -0.018750f, 0.050566f, -0.084530f, 0.087620f, 0.013657f, -0.018886f, 
	-0.046847f, -0.076437f, -0.144336f, 0.077504f, -0.013578f, -0.073752f, 0.051644f, 0.034815f, 
	-0.014927f, 0.019054f, 0.077370f, -0.033702f, 0.010406f, -0.017573f, -0.044646f, -0.032110f, 
	-0.141377f, -0.070720f, -0.061834f, -0.067505f, -0.037919f, 0.022541f, 0.027712f, 0.102154f, 
	-0.029588f, 0.090247f, -0.057143f, 0.079038f, -0.008597f, 0.018902f, -0.061510f, -0.023173f, 
	0.078626f, -0.023532f, 0.037555f, -0.016780f, 0.034455f, -0.038461f, 0.077483f, -0.072394f, 
	-0.024234f, -0.020141f, -0.058451f, -0.000215f, -0.030701f, -0.082437f, -0.055252f, -0.036563f, 
	0.001322f, -0.077466f, 0.007876f, 0.030488f, -0.113659f, -0.044612f, 0.059988f, -0.010765f, 
	-0.005737f, 0.020692f, -0.067923f, 0.016235f, 0.032721f, -0.035282f, -0.054274f, 0.009492f, 
	0.015824f, 0.028720f, 0.116924f, -0.107886f, -0.050802f, 0.026627f, 0.166754f, 0.005759f, 
	0.016273f, -0.009229f, -0.010719f, 0.023026f, 0.001263f, -0.039629f, 0.030195f, -0.019518f, 
	0.036964f, -0.005552f, 0.039427f, 0.001548f, -0.088220f, -0.128575f, -0.011838f, 0.056237f, 
	0.007818f, -0.002419f, -0.048198f, -0.068754f, 0.027398f, -0.147470f, -0.066773f, 0.024612f, 
	-0.027029f, 0.004613f, 0.072780f, -0.109849f, -0.085472f, -0.127132f, 0.058536f, -0.058995f, 
	-0.015726f, -0.051661f, -0.018243f, 0.034158f, 0.024185f, -0.006195f, 0.001658f, 0.090626f, 
	0.042882f, 0.094334f, 0.039267f, -0.035045f, -0.074515f, -0.064361f, 0.005233f, 0.006856f, 
	0.024703f, 0.018858f, 0.056975f, -0.006036f, -0.038706f, -0.173093f, 0.011598f, 0.056356f, 
	0.102365f, 0.062373f, 0.063447f, -0.075689f, 0.005409f, -0.164741f, 0.069355f, 0.023843f, 
	-0.050102f, -0.039567f, -0.050378f, 0.051821f, 0.015707f, 0.002716f, -0.003409f, -0.050713f, 
	-0.050381f, 0.114072f, -0.027528f, 0.001241f, 0.014330f, -0.004087f, 0.034778f, 0.000125f, 
	0.044941f, 0.072577f, -0.079756f, 0.007923f, 0.039385f, -0.035922f, -0.047235f, 0.056899f, 
	-0.127364f, 0.060119f, -0.004416f, -0.011063f, -0.057198f, 0.016704f, -0.116995f, 0.011433f, 
	-0.055697f, -0.042390f, -0.063916f, -0.068833f, -0.024555f, 0.006684f, 0.008230f, -0.004698f, 
	0.000371f, 0.096542f, -0.014697f, -0.017596f, 0.028656f, 0.000376f, 0.033601f, 0.031625f, 
	0.002181f, 0.032728f, 0.007189f, 0.031914f, 0.031430f, -0.021033f, -0.072668f, 0.008786f, 
	-0.080783f, -0.043471f, 0.025722f, -0.003107f, -0.102802f, 0.002377f, -0.132435f, -0.000786f, 
	-0.035015f, 0.026455f, -0.042106f, 0.039758f, 0.029067f, 0.034005f, 0.142757f, 0.031996f, 
	0.105684f, 0.146846f, 0.077733f, -0.029383f, 0.097112f, 0.051503f, 0.059182f, 0.031532f, 
	0.099332f, 0.063793f, 0.052980f, -0.035218f, 0.041225f, -0.024772f, 0.024305f, -0.062448f, 
	0.040022f, 0.020470f, 0.004099f, -0.048544f, -0.086236f, 0.088575f, -0.070839f, 0.063231f, 
	0.031169f, -0.003668f, 0.018956f, 0.056944f, 0.032858f, -0.054139f, 0.053554f, 0.040608f, 
	0.007068f, 0.061249f, 0.076727f, 0.022819f, -0.082988f, 0.001336f, -0.087709f, 0.004142f, 
	-0.015558f, 0.023643f, 0.024232f, -0.073002f, 0.102520f, -0.126555f, 0.016008f, -0.050541f, 
	0.166331f, -0.032770f, -0.055076f, -0.087025f, -0.015683f, 0.005631f, -0.047797f, 0.053470f, 
	0.015430f, 0.038261f, -0.052840f, 0.018258f, -0.003907f, 0.006021f, 0.040700f, 0.051423f, 
	0.039770f, 0.066053f, -0.026005f, 0.030623f, -0.155851f, -0.076864f, -0.077318f, -0.006212f, 
	0.056870f, 0.020831f, 0.027754f, -0.118564f, 0.041994f, -0.139968f, -0.002142f, 0.009374f, 
	0.034804f, 0.059436f, -0.015328f, -0.112044f, -0.022533f, 0.037829f, 0.008838f, 0.107903f, 
	-0.041227f, 0.026625f, -0.082689f, 0.069291f, -0.015770f, -0.067317f, -0.060756f, 0.045635f, 
	-0.081983f, -0.091576f, 0.018644f, -0.033068f, -0.017909f, 0.080306f, -0.133338f, 0.006790f, 
	0.027830f, -0.034672f, -0.045782f, 0.100660f, 0.051941f, -0.072441f, -0.109029f, -0.035915f, 
	-0.183117f, 0.069225f, 0.082712f, -0.137377f, 0.007606f, -0.096776f, 0.040613f, 0.026742f, 
	0.035138f, -0.064662f, 0.014390f, -0.099287f, 0.030659f, 0.030439f, -0.035693f, 0.019813f, 
	-0.036528f, -0.009946f, -0.036150f, 0.051342f, -0.171986f, -0.053735f, -0.215306f, -0.058558f, 
	0.047380f, -0.058385f, 0.010686f, -0.109481f, 0.051322f, -0.121086f, -0.074243f, 0.018231f, 
	-0.075883f, 0.039253f, 0.006146f, -0.230497f, -0.076068f, -0.201582f, -0.011645f, 0.074381f, 
	0.003780f, -0.080622f, -0.016134f, 0.009100f, 0.021611f, 0.016728f, 0.075878f, -0.006357f, 
	0.070215f, -0.028164f, 0.072932f, 0.105438f, -0.017060f, -0.010571f, -0.227270f, -0.033638f, 
	0.079746f, -0.002305f, 0.094925f, -0.083313f, -0.003770f, -0.146962f, 0.043177f, 0.059379f, 
	-0.033920f, 0.040888f, -0.050528f, -0.171512f, -0.024692f, -0.061217f, -0.025828f, 0.057021f, 
	0.002750f, 0.036349f, -0.015669f, 0.032042f, 0.025465f, 0.029420f, -0.012797f, 0.026042f, 
	0.037167f, 0.016669f, 0.038611f, 0.035236f, -0.097264f, -0.037912f, -0.091623f, 0.014067f, 
	0.003954f, 0.036813f, -0.009409f, -0.076701f, 0.056763f, -0.119736f, 0.038607f, 0.053322f, 
	0.161469f, -0.042765f, 0.048003f, -0.074440f, -0.029905f, -0.079222f, 0.006197f, -0.022275f, 
	-0.028961f, 0.030161f, -0.010671f, 0.079499f, 0.043544f, 0.039572f, -0.017501f, 0.015162f, 
	0.056864f, 0.045695f, -0.007650f, 0.117880f, -0.177815f, -0.145868f, -0.055170f, 0.043506f, 
	-0.019112f, -0.003679f, -0.010136f, -0.131747f, -0.071392f, -0.070667f, -0.053696f, 0.088696f, 
	0.040992f, 0.008826f, -0.017923f, -0.049114f, -0.071141f, -0.038416f, -0.004902f, 0.007051f, 
	-0.008202f, 0.031725f, -0.043311f, 0.087732f, -0.022910f, -0.025808f, 0.087905f, 0.020406f, 
	0.056270f, -0.059442f, 0.085716f, -0.046301f, 0.104243f, 0.118966f, 0.026176f, -0.003991f, 
	-0.007748f, -0.041209f, 0.016811f, 0.055418f, 0.010251f, -0.014486f, -0.046746f, 0.041499f, 
	-0.024127f, 0.054442f, 0.036573f, 0.003100f, -0.017535f, 0.019092f, 0.143501f, 0.052170f, 
	-0.040772f, 0.069437f, -0.024385f, 0.120737f, -0.082627f, -0.007844f, -0.074802f, 0.052078f, 
	-0.094160f, -0.099563f, -0.096873f, -0.078669f, -0.051402f, -0.031440f, -0.012406f, -0.071454f, 
	-0.037055f, -0.006548f, -0.087724f, 0.038507f, 0.019101f, 0.015247f, 0.002614f, -0.025940f, 
	-0.069783f, 0.029466f, 0.054645f, 0.011074f, -0.025329f, 0.144690f, 0.099248f, -0.020245f, 
	-0.037102f, -0.078200f, -0.047120f, 0.060471f, -0.000662f, 0.002526f, 0.090144f, -0.055356f, 
	-0.063665f, -0.110169f, 0.091621f, 0.024472f, 0.029056f, 0.026039f, 0.013733f, -0.010577f, 
	-0.093586f, 0.076403f, -0.006808f, -0.009246f, -0.173630f, 0.021170f, -0.022113f, -0.037814f, 
	-0.067617f, -0.048553f, -0.062057f, -0.070716f, -0.075816f, 0.103710f, -0.019998f, -0.062386f, 
	0.036731f, -0.063210f, 0.072020f, -0.124265f, 0.084836f, 0.037683f, 0.128420f, -0.010646f, 
	0.031708f, -0.180896f, 0.099696f, -0.098107f, -0.028896f, 0.083906f, -0.073173f, 0.034523f, 
	-0.039124f, 0.106144f, 0.104276f, 0.006157f, -0.052044f, 0.004884f, 0.025022f, -0.025043f, 
	0.059847f, -0.115640f, -0.107565f, 0.005301f, 0.047569f, 0.111959f, 0.015613f, -0.057584f, 
	0.099390f, 0.097820f, 0.025489f, -0.080035f, 0.000613f, 0.001147f, 0.095244f, -0.003111f, 
	0.166880f, 0.060650f, 0.100575f, -0.017149f, -0.009758f, 0.109632f, 0.035222f, 0.044530f, 
	0.032701f, 0.038290f, 0.133516f, 0.068138f, 0.086529f, 0.031215f, 0.045688f, -0.065318f, 
	0.011894f, -0.025581f, -0.058119f, 0.060299f, 0.062078f, 0.017234f, 0.073308f, 0.048612f, 
	0.040537f, -0.004392f, -0.023777f, -0.004106f, -0.003337f, 0.009587f, 0.016394f, 0.019797f, 
	0.075423f, -0.116965f, -0.011187f, -0.043588f, 0.005219f, -0.074136f, 0.067110f, 0.013710f, 
	-0.080189f, -0.080150f, -0.033935f, -0.016630f, 0.019877f, 0.061616f, 0.070593f, -0.088139f, 
	0.019044f, -0.117732f, -0.104564f, 0.065484f, 0.019460f, 0.178559f, -0.039969f, -0.083589f, 
	-0.087345f, -0.008900f, -0.052877f, 0.038904f, -0.054161f, -0.093507f, -0.162497f, 0.018497f, 
	-0.077044f, -0.121915f, -0.103395f, -0.158002f, -0.055586f, -0.023241f, 0.079320f, -0.093699f, 
	-0.164367f, -0.026929f, -0.107230f, -0.013008f, -0.066729f, 0.060764f, -0.090170f, -0.119570f, 
	-0.059186f, -0.062637f, -0.043400f, 0.052363f, -0.019429f, 0.099784f, -0.025869f, -0.124915f, 
	-0.092039f, -0.131491f, -0.091454f, -0.055561f, -0.108585f, -0.110465f, -0.051258f, -0.193047f, 
	-0.187471f, -0.115605f, -0.058508f, -0.076436f, 0.065131f, -0.033316f, -0.093314f, -0.080207f, 
	-0.221556f, -0.117153f, -0.113296f, 0.077383f, -0.107847f, 0.008142f, -0.107982f, -0.112334f, 
	-0.127480f, -0.144143f, -0.110715f, -0.004981f, -0.057814f, 0.070884f, -0.110142f, -0.162492f, 
	0.016476f, -0.033644f, 0.011341f, -0.177504f, -0.086547f, -0.029685f, -0.028191f, -0.250618f, 
	-0.205633f, -0.157715f, 0.098925f, -0.222807f, 0.079227f, 0.070561f, 0.011262f, 0.049736f, 
	-0.239496f, -0.039445f, 0.020552f, 0.055818f, -0.218394f, -0.017644f, -0.033564f, -0.041513f, 
	-0.078480f, -0.248323f, -0.205862f, -0.028502f, -0.021800f, -0.129445f, -0.017142f, -0.222921f, 
	-0.002533f, -0.019681f, 0.038233f, -0.248155f, 0.004843f, -0.053539f, 0.065741f, -0.141472f, 
	-0.057110f, -0.244430f, 0.120248f, -0.158911f, 0.102314f, 0.111749f, -0.055722f, 0.039198f, 
	-0.203609f, 0.025035f, 0.026576f, 0.101115f, -0.205735f, 0.019104f, -0.156291f, -0.064885f, 
	-0.100783f, -0.247941f, -0.105640f, 0.070542f, -0.006116f, -0.074846f, 0.038395f, -0.179129f, 
	-0.034200f, 0.034802f, -0.039601f, 0.004035f, -0.045724f, -0.005985f, -0.095972f, -0.046086f, 
	-0.001197f, 0.021241f, -0.103827f, -0.087549f, -0.068260f, -0.233615f, 0.057986f, 0.016447f, 
	0.028767f, -0.078139f, -0.088983f, -0.285319f, 0.063924f, -0.136708f, 0.045981f, -0.013139f, 
	-0.066477f, 0.012677f, -0.029504f, -0.108801f, -0.052819f, 0.055650f, -0.070390f, -0.056477f, 
	-0.158657f, -0.022439f, -0.115076f, -0.017022f, 0.006368f, -0.036365f, -0.039639f, -0.037268f, 
	0.022056f, 0.126563f, -0.073266f, -0.055819f, -0.194582f, -0.247621f, 0.090611f, -0.087243f, 
	0.064205f, 0.022447f, -0.153598f, -0.257393f, 0.109762f, -0.146886f, -0.061271f, 0.045569f, 
	-0.207592f, 0.079963f, -0.046791f, -0.005441f, -0.068070f, 0.057142f, -0.069069f, -0.052422f, 
	-0.150710f, -0.100553f, -0.106523f, -0.029061f, -0.025667f, -0.042121f, -0.156436f, 0.052371f, 
	-0.002571f, 0.064943f, -0.125110f, 0.096967f, -0.055459f, -0.200222f, 0.125700f, -0.038345f, 
	0.041135f, -0.026794f, -0.083016f, -0.028606f, 0.105885f, -0.122203f, -0.078286f, 0.033718f, 
	-0.176450f, 0.104454f, 0.060468f, -0.078294f, -0.099107f, -0.113003f, 0.058924f, -0.081870f, 
	-0.061667f, -0.056481f, -0.116222f, 0.032587f, -0.021903f, -0.049918f, -0.055645f, -0.106035f, 
	-0.019708f, 0.083672f, -0.105075f, -0.051090f, -0.066090f, -0.035018f, 0.101350f, 0.060748f, 
	-0.005337f, -0.046691f, -0.096528f, 0.197119f, 0.011324f, -0.151443f, -0.064484f, 0.012334f, 
	-0.159842f, 0.025873f, 0.064529f, -0.047224f, -0.061260f, -0.266674f, -0.098431f, -0.087342f, 
	-0.026610f, -0.012906f, -0.087519f, -0.136534f, 0.009563f, 0.055045f, 0.006631f, -0.129865f, 
	-0.003735f, 0.094457f, 0.053027f, -0.047216f, -0.010928f, 0.006102f, -0.001429f, 0.035602f, 
	-0.004606f, -0.074895f, -0.034157f, 0.225906f, -0.082134f, -0.155551f, -0.042671f, 0.062995f, 
	-0.015169f, -0.078219f, -0.214382f, -0.044518f, -0.057648f, -0.286981f, 0.010512f, -0.101063f, 
	-0.053306f, 0.040735f, -0.024448f, 0.014708f, 0.055645f, 0.015674f, 0.002537f, 0.063254f, 
	0.023422f, 0.048052f, -0.068959f, -0.021710f, -0.073309f, -0.115345f, 0.069533f, -0.005957f, 
	0.099389f, 0.049745f, 0.011792f, -0.111062f, 0.005348f, -0.030817f, -0.038804f, 0.094897f, 
	-0.100821f, 0.084769f, 0.046154f, 0.013005f, -0.021232f, -0.052746f, -0.066747f, 0.113248f, 
	-0.037422f, -0.010442f, 0.010003f, 0.023555f, 0.041724f, -0.043008f, -0.036672f, 0.037550f, 
	0.043422f, 0.121905f, -0.007927f, 0.059483f, -0.088672f, -0.069730f, 0.062184f, -0.029934f, 
	0.034332f, 0.039652f, -0.038595f, 0.044634f, 0.001534f, 0.059927f, 0.003431f, 0.026648f, 
	-0.052035f, 0.100130f, -0.080160f, 0.054498f, 0.035963f, -0.152916f, 0.036526f, 0.169648f, 
	-0.045300f, -0.041123f, 0.069724f, -0.113371f, 0.091049f, 0.028956f, -0.033535f, 0.060863f, 
	0.019658f, 0.105450f, -0.019482f, 0.029497f, -0.097124f, 0.022081f, -0.045347f, -0.048252f, 
	0.092566f, -0.059736f, 0.010945f, 0.120721f, 0.085322f, 0.056913f, 0.040169f, 0.017286f, 
	0.048858f, 0.092037f, 0.042650f, 0.076544f, 0.089373f, -0.109196f, 0.084012f, 0.060896f, 
	-0.061565f, -0.061279f, 0.024339f, -0.016053f, -0.002108f, 0.005853f, -0.104356f, 0.112781f, 
	0.010459f, 0.091087f, -0.007356f, 0.047410f, -0.272312f, 0.006372f, -0.118691f, -0.060343f, 
	0.094120f, 0.036972f, -0.053927f, -0.005922f, 0.031714f, 0.039739f, -0.060182f, 0.049916f, 
	-0.000278f, 0.150439f, 0.141757f, -0.100237f, -0.008269f, -0.142046f, 0.169523f, 0.129952f, 
	0.028269f, -0.039641f, 0.009760f, -0.049919f, 0.004211f, 0.011751f, -0.026331f, 0.030752f, 
	0.088170f, 0.026973f, 0.008342f, 0.112732f, -0.205276f, -0.127865f, -0.081071f, -0.004839f, 
	0.072993f, 0.012225f, 0.012750f, -0.107111f, 0.014403f, -0.141955f, 0.020033f, 0.105906f, 
	0.085688f, 0.130390f, 0.020426f, -0.077861f, -0.022380f, -0.024396f, -0.006312f, 0.020122f, 
	0.044828f, 0.079277f, -0.026333f, -0.030807f, 0.024730f, -0.019349f, -0.054893f, -0.036263f, 
	-0.061618f, -0.112802f, -0.033572f, 0.040970f, -0.040006f, -0.047856f, 0.051937f, -0.019348f, 
	-0.014929f, 0.012993f, -0.018599f, -0.002741f, -0.076360f, 0.000219f, 0.004167f, -0.005142f, 
	-0.088427f, -0.085012f, -0.007745f, 0.080021f, 0.030634f, 0.006650f, -0.052042f, 0.112370f, 
	-0.017257f, 0.032639f, 0.076669f, -0.114313f, 0.019004f, 0.039828f, -0.160699f, -0.000766f, 
	-0.068965f, -0.060635f, 0.003553f, 0.062718f, 0.038082f, -0.038367f, 0.181283f, 0.044571f, 
	-0.016620f, 0.056120f, -0.049124f, 0.059892f, -0.046749f, 0.114744f, 0.055995f, -0.049227f, 
	-0.029581f, -0.107407f, 0.006138f, 0.162812f, 0.064307f, -0.027217f, -0.016449f, 0.052780f, 
	0.032352f, 0.003751f, 0.110773f, -0.045240f, 0.032957f, 0.032313f, -0.093321f, -0.047179f, 
	-0.147408f, -0.014597f, 0.047246f, 0.046711f, 0.186336f, 0.085866f, 0.132329f, -0.079051f, 
	-0.023346f, 0.008834f, 0.000148f, 0.198296f, -0.148042f, 0.066891f, -0.065999f, 0.022509f, 
	-0.124370f, -0.066579f, -0.005871f, 0.079845f, 0.014803f, -0.035717f, -0.008244f, 0.025465f, 
	0.099918f, 0.017472f, 0.085643f, -0.097057f, 0.048607f, -0.040277f, -0.113417f, 0.019349f, 
	-0.076583f, -0.054203f, 0.011598f, -0.036006f, 0.068098f, 0.150816f, 0.090481f, 0.036069f, 
	-0.066922f, 0.037542f, -0.048891f, 0.134179f, -0.157686f, 0.057007f, -0.021708f, -0.082163f, 
	-0.044888f, -0.043446f, 0.032466f, 0.052003f, 0.032878f, -0.042923f, 0.092257f, -0.037048f, 
	0.082882f, 0.113682f, -0.016441f, -0.046082f, 0.028447f, -0.016455f, -0.176879f, -0.015659f, 
	-0.074938f, 0.023427f, -0.075095f, 0.011463f, -0.051157f, 0.069183f, -0.040618f, 0.025619f, 
	-0.046641f, -0.013154f, 0.053359f, 0.051060f, -0.044159f, 0.086786f, 0.036160f, 0.062630f, 
	0.003938f, 0.091395f, 0.067235f, 0.047080f, 0.064764f, -0.065308f, 0.144600f, 0.044339f, 
	-0.052857f, 0.019267f, 0.052668f, -0.056368f, -0.003251f, 0.057427f, -0.003511f, 0.031090f, 
	-0.007554f, -0.043846f, -0.061756f, -0.126895f, -0.085768f, -0.004197f, 0.017669f, 0.018058f, 
	-0.014696f, -0.014892f, -0.036290f, -0.064566f, -0.017109f, 0.012967f, 0.061393f, 0.070226f, 
	-0.016756f, 0.003933f, 0.056944f, 0.000983f, -0.021893f, 0.060237f, 0.045891f, -0.006769f, 
	-0.021697f, -0.003947f, -0.010370f, -0.014591f, -0.033841f, 0.022076f, 0.052607f, -0.000428f, 
	0.025081f, 0.017794f, 0.049282f, 0.014855f, -0.054724f, -0.081316f, -0.020613f, 0.013371f, 
	0.000147f, -0.059642f, 0.024276f, -0.191178f, -0.034475f, 0.037662f, 0.066150f, -0.051879f, 
	0.024313f, -0.072524f, 0.036908f, -0.062742f, -0.000036f, 0.106352f, -0.039609f, 0.042431f, 
	-0.006303f, -0.033573f, -0.000724f, -0.025542f, -0.011620f, 0.051820f, 0.125237f, 0.084862f, 
	0.101565f, 0.012629f, 0.080770f, -0.010404f, -0.017821f, -0.029516f, -0.029589f, 0.032488f, 
	-0.047070f, -0.041784f, 0.092897f, -0.116398f, 0.026748f, 0.004606f, 0.043035f, -0.052021f, 
	0.096815f, -0.018864f, -0.029708f, -0.064111f, 0.059213f, 0.214666f, -0.057266f, 0.026753f, 
	-0.007553f, -0.062708f, 0.064495f, 0.040453f, -0.034453f, 0.028210f, 0.110520f, 0.101868f, 
	0.135806f, -0.066158f, 0.194494f, -0.022300f, -0.078827f, 0.022687f, 0.048333f, 0.077682f, 
	0.031534f, 0.015880f, 0.120616f, -0.090416f, 0.094772f, 0.010992f, 0.054340f, -0.086005f, 
	0.112187f, 0.043439f, 0.021029f, -0.043704f, -0.001218f, 0.141678f, -0.013648f, -0.014713f, 
	0.087660f, 0.014851f, 0.045368f, 0.095747f, -0.013609f, 0.032323f, 0.084846f, 0.070300f, 
	0.100686f, -0.008641f, 0.095750f, 0.040681f, -0.098247f, -0.053228f, -0.034143f, 0.035998f, 
	0.002211f, -0.044176f, 0.058933f, -0.070295f, 0.064391f, 0.004378f, 0.023856f, 0.022305f, 
	0.151038f, 0.041586f, 0.130290f, -0.003600f, -0.020885f, 0.116830f, -0.076108f, 0.108459f, 
	-0.010612f, -0.002335f, 0.039215f, 0.067870f, -0.017556f, 0.066685f, -0.038454f, -0.025712f, 
	0.072427f, 0.123323f, -0.007590f, 0.036922f, -0.184638f, -0.180870f, 0.108917f, 0.018965f, 
	0.038676f, 0.016331f, 0.037919f, -0.104033f, 0.069383f, -0.016553f, 0.053240f, 0.059232f, 
	-0.056251f, 0.049786f, 0.018547f, -0.024796f, -0.094049f, 0.051508f, 0.021080f, 0.033628f, 
	-0.025237f, -0.045635f, 0.004553f, 0.076518f, 0.023674f, 0.048352f, 0.033234f, -0.020545f, 
	0.038774f, 0.043835f, 0.031032f, 0.082308f, -0.044486f, -0.132346f, 0.019429f, 0.006295f, 
	0.044573f, -0.093193f, -0.057766f, -0.088199f, 0.003774f, -0.079860f, 0.147714f, -0.020187f, 
	0.047344f, 0.033805f, -0.108943f, -0.057033f, -0.029851f, 0.095231f, -0.044138f, 0.018577f, 
	0.010944f, 0.023911f, 0.045084f, 0.011663f, -0.040968f, -0.021412f, 0.011593f, -0.081570f, 
	0.002455f, 0.033684f, -0.006065f, 0.023294f, -0.031528f, -0.046733f, 0.013220f, 0.053032f, 
	-0.075159f, -0.060513f, 0.014690f, 0.014597f, -0.053479f, 0.089592f, 0.130990f, -0.066674f, 
	0.103751f, -0.160916f, -0.169802f, 0.077520f, 0.020682f, 0.052335f, 0.059419f, -0.048384f, 
	0.018212f, -0.066229f, 0.054858f, -0.028369f, -0.036321f, 0.062630f, 0.061835f, -0.049892f, 
	-0.092322f, -0.006795f, 0.145757f, -0.102286f, -0.058042f, 0.031048f, -0.023102f, -0.044408f, 
	-0.120921f, 0.062273f, 0.011787f, 0.072062f, -0.106996f, 0.144197f, -0.035388f, -0.028730f, 
	-0.027614f, -0.250546f, -0.030964f, 0.071412f, -0.034899f, 0.007484f, -0.007320f, -0.093746f, 
	0.053795f, -0.060836f, 0.008032f, -0.008575f, -0.033172f, -0.039339f, 0.033284f, 0.039291f, 
	-0.015766f, -0.120267f, 0.060266f, -0.061594f, -0.055354f, 0.031581f, 0.005927f, -0.046717f, 
	-0.129299f, -0.065025f, 0.027045f, -0.035382f, -0.062927f, 0.033404f, -0.066124f, 0.017315f, 
	0.112504f, 0.003361f, 0.101325f, -0.039096f, -0.027924f, -0.027858f, 0.003714f, -0.000724f, 
	0.039536f, 0.096920f, 0.032039f, -0.126168f, 0.020682f, 0.060701f, -0.119193f, 0.059521f, 
	0.038845f, -0.086438f, -0.065464f, -0.030189f, -0.146815f, 0.025626f, -0.174415f, 0.003136f, 
	0.012875f, 0.052504f, 0.015047f, 0.000784f, -0.003981f, 0.068940f, -0.018400f, 0.007660f, 
	-0.046752f, 0.062082f, 0.027530f, -0.113164f, 0.067553f, -0.116325f, 0.161756f, 0.067046f, 
	-0.016367f, -0.052503f, -0.061914f, -0.001589f, 0.048837f, -0.047162f, -0.044759f, 0.074359f, 
	-0.012748f, 0.027111f, -0.092815f, 0.105911f, -0.240656f, -0.047557f, -0.324481f, 0.093173f, 
	0.021137f, 0.000956f, -0.015240f, -0.055009f, -0.034077f, -0.046678f, -0.006503f, 0.052588f, 
	-0.057257f, 0.127117f, 0.081782f, -0.242171f, 0.028159f, -0.237850f, 0.192162f, 0.067182f, 
	-0.084226f, -0.044311f, 0.005621f, 0.049445f, 0.030300f, -0.014713f, -0.142375f, 0.094560f, 
	-0.069158f, 0.186609f, -0.097040f, -0.028249f, -0.413977f, -0.219109f, -0.118140f, 0.004722f, 
	0.062833f, 0.054579f, -0.047005f, -0.236652f, -0.004144f, -0.164998f, -0.020736f, 0.147044f, 
	-0.074705f, 0.189123f, 0.130468f, -0.217408f, -0.093495f, -0.284278f, -0.015394f, 0.138215f, 
	-0.052862f, -0.088409f, -0.048280f, 0.079570f, 0.012569f, 0.027014f, -0.086367f, -0.061391f, 
	-0.097481f, 0.176554f, 0.067617f, -0.020491f, -0.160688f, -0.231269f, -0.034583f, 0.062925f, 
	0.080283f, -0.029853f, 0.034891f, 0.092131f, 0.027266f, -0.063779f, 0.053248f, 0.100948f, 
	0.068384f, 0.054704f, -0.086203f, -0.165172f, 0.000359f, -0.192198f, -0.060027f, 0.115023f, 
	-0.035839f, 0.045393f, -0.023911f, -0.025055f, 0.002564f, 0.006961f, 0.098436f, 0.114434f, 
	0.047418f, 0.069343f, 0.040812f, -0.072875f, -0.037216f, -0.069938f, 0.001297f, 0.082526f, 
	-0.008303f, -0.010887f, 0.004153f, 0.015100f, 0.041926f, -0.056480f, 0.040844f, 0.007385f, 
	0.097309f, 0.001842f, -0.014660f, -0.058425f, 0.051597f, -0.078849f, 0.012868f, 0.037275f, 
	0.035179f, 0.085144f, 0.005485f, -0.129030f, -0.012239f, -0.051197f, -0.148434f, -0.144732f, 
	-0.052023f, -0.006626f, 0.010018f, -0.099522f, 0.133925f, 0.020485f, 0.182835f, -0.039966f, 
	-0.140906f, -0.125192f, -0.002365f, 0.167757f, -0.051896f, 0.158478f, -0.087866f, 0.026198f, 
	0.030075f, -0.195280f, -0.080163f, 0.225516f, 0.087648f, -0.018402f, 0.013448f, -0.125532f, 
	-0.065269f, 0.078382f, 0.061185f, -0.290577f, 0.030333f, -0.055123f, -0.139384f, -0.033473f, 
	-0.143755f, -0.084709f, -0.021416f, -0.081001f, 0.221126f, 0.170027f, 0.075499f, 0.028287f, 
	-0.027352f, -0.062576f, -0.061809f, 0.277785f, -0.059120f, 0.172842f, -0.163099f, 0.001160f, 
	-0.048056f, -0.165966f, 0.027751f, 0.133994f, 0.039826f, -0.233823f, 0.113416f, -0.102246f, 
	0.021256f, 0.013655f, -0.001814f, -0.075015f, 0.026705f, -0.122760f, -0.202760f, 0.073816f, 
	-0.143519f, -0.162224f, -0.100063f, -0.041023f, 0.058808f, 0.028763f, -0.087871f, -0.078344f, 
	0.007704f, -0.025655f, -0.065211f, 0.204284f, -0.043991f, -0.030291f, -0.178746f, -0.027734f, 
	-0.070065f, 0.069078f, 0.156343f, -0.075688f, -0.051221f, -0.167979f, 0.176510f, -0.003761f, 
	-0.004333f, -0.031449f, 0.039172f, -0.006194f, 0.022379f, 0.018091f, -0.224357f, -0.066080f, 
	-0.136260f, -0.082179f, -0.111824f, 0.055575f, -0.017221f, -0.026984f, -0.046935f, -0.010465f, 
	0.078509f, 0.008454f, -0.026675f, 0.015512f, -0.107898f, -0.045886f, -0.104643f, 0.072973f, 
	-0.115745f, 0.062938f, 0.083674f, 0.002835f, -0.077610f, -0.145635f, 0.025264f, 0.084967f, 
	0.015906f, 0.017568f, 0.027554f, -0.004893f, 0.060462f, 0.057503f, -0.081818f, 0.017124f, 
	-0.015374f, -0.017504f, 0.012982f, -0.023287f, 0.025914f, -0.121183f, -0.018338f, 0.035256f, 
	-0.017336f, 0.029837f, 0.098194f, -0.055549f, -0.031929f, -0.040241f, 0.057682f, 0.016555f, 
	-0.098449f, 0.018125f, 0.002229f, -0.018981f, -0.068100f, -0.088651f, -0.076602f, 0.089569f, 
	-0.000636f, 0.031463f, -0.048239f, 0.058647f, -0.022629f, -0.054128f, 0.006246f, 0.108482f, 
	-0.002305f, 0.056506f, -0.032611f, -0.058572f, -0.080847f, -0.057943f, 0.082952f, 0.033051f, 
	-0.050091f, -0.036528f, -0.095834f, -0.150485f, -0.046567f, -0.062907f, -0.079884f, -0.009594f, 
	0.081406f, 0.030208f, 0.084629f, -0.002506f, -0.033338f, 0.002786f, -0.081850f, -0.119540f, 
	0.043204f, -0.027872f, -0.046144f, -0.073021f, -0.023427f, -0.019307f, 0.043331f, -0.056606f, 
	0.103215f, 0.221041f, -0.006801f, 0.017920f, -0.013273f, 0.049835f, 0.013483f, -0.004591f, 
	0.014819f, -0.049298f, 0.002134f, -0.045391f, 0.002603f, -0.059160f, -0.012333f, 0.037564f, 
	0.077551f, -0.027610f, -0.088301f, 0.022889f, 0.019806f, -0.224448f, -0.081907f, -0.002503f, 
	0.100026f, 0.037361f, -0.050965f, -0.128570f, 0.003512f, 0.087288f, 0.052704f, -0.021444f, 
	-0.070180f, 0.153595f, 0.041775f, -0.140670f, -0.050103f, 0.030155f, -0.010415f, 0.035181f, 
	-0.070539f, -0.057557f, -0.024410f, 0.116398f, 0.083720f, -0.007051f, 0.098081f, 0.046591f, 
	0.141481f, -0.106695f, -0.115104f, -0.071507f, 0.142244f, -0.091990f, 0.002987f, -0.111456f, 
	0.013076f, 0.048857f, -0.049940f, -0.102574f, -0.024571f, 0.050337f, -0.113214f, -0.119604f, 
	-0.138928f, -0.143758f, 0.022231f, -0.085004f, -0.080931f, -0.006416f, -0.030425f, 0.051960f, 
	-0.044351f, -0.030081f, 0.006029f, -0.008952f, -0.038426f, 0.041674f, -0.046164f, -0.053091f, 
	0.030706f, -0.120974f, -0.029775f, 0.011199f, 0.083113f, 0.059589f, 0.015587f, -0.038188f, 
	-0.018788f, 0.070710f, -0.027328f, -0.114221f, -0.001879f, 0.044526f, -0.220272f, -0.124529f, 
	-0.236703f, -0.248920f, -0.159192f, -0.044478f, -0.050488f, -0.104739f, -0.042252f, -0.137217f, 
	-0.136705f, -0.009863f, -0.029553f, -0.086947f, -0.183688f, 0.101148f, -0.110866f, 0.020936f, 
	-0.074904f, -0.133362f, -0.048989f, -0.024946f, 0.025460f, 0.062562f, -0.060071f, -0.043389f, 
	-0.080295f, -0.028357f, -0.005946f, -0.031323f, -0.007341f, -0.004715f, -0.000853f, -0.066280f, 
	0.036211f, 0.091184f, 0.032797f, -0.069753f, -0.024400f, -0.137622f, 0.006479f, 0.016896f, 
	0.055957f, 0.002170f, -0.052736f, -0.108959f, 0.037600f, -0.070019f, 0.079541f, 0.011963f, 
	0.044189f, 0.016489f, -0.133877f, -0.018618f, 0.015688f, 0.068647f, -0.082043f, 0.056681f, 
	0.038844f, -0.069747f, -0.002026f, -0.020343f, -0.056238f, 0.059983f, 0.046833f, -0.033459f, 
	0.064057f, 0.034006f, -0.021214f, 0.020616f, -0.092098f, -0.096684f, -0.018121f, 0.010184f, 
	0.046749f, -0.079639f, -0.017188f, -0.099332f, -0.007907f, -0.066383f, 0.101690f, -0.071948f, 
	0.086758f, -0.055295f, -0.155044f, -0.030626f, 0.042489f, 0.112734f, -0.103344f, 0.052449f, 
	0.005769f, -0.047556f, -0.009848f, -0.061728f, -0.004472f, 0.026220f, 0.065221f, 0.053279f, 
	0.058589f, -0.029605f, -0.017597f, -0.099194f, 0.015379f, -0.038529f, 0.094602f, 0.001006f, 
	-0.056028f, -0.019511f, -0.063902f, -0.042961f, 0.050973f, 0.089872f, 0.062213f, -0.044947f, 
	0.135946f, -0.067006f, -0.043695f, 0.076821f, 0.015418f, 0.109477f, -0.011898f, -0.041670f, 
	0.029453f, -0.086792f, -0.003565f, -0.030889f, 0.018813f, 0.077173f, 0.056960f, -0.002338f, 
	0.041391f, -0.135441f, 0.115247f, -0.039335f, -0.051976f, 0.093147f, 0.062356f, -0.024984f, 
	-0.106455f, 0.037768f, 0.025214f, -0.020265f, -0.049674f, 0.045567f, 0.033256f, -0.076663f, 
	0.020367f, -0.113502f, -0.111481f, 0.018005f, 0.036110f, 0.057907f, -0.026391f, -0.051666f, 
	0.100396f, -0.033981f, -0.039455f, -0.030126f, -0.005352f, 0.019443f, 0.092107f, -0.059715f, 
	-0.041399f, -0.122396f, 0.036437f, -0.032172f, -0.034208f, -0.008243f, -0.010462f, 0.058391f, 
	-0.035915f, -0.041767f, 0.057884f, -0.088103f, -0.001337f, 0.038118f, 0.065813f, -0.092726f, 
	0.084592f, -0.098710f, -0.029663f, 0.030842f, -0.056305f, -0.010333f, -0.035351f, -0.065172f, 
	-0.020901f, 0.086242f, -0.055079f, 0.023101f, 0.107695f, 0.046302f, -0.062177f, -0.000104f, 
	-0.014922f, 0.074475f, 0.002710f, 0.062224f, -0.195566f, -0.142331f, -0.117541f, 0.069929f, 
	0.116898f, -0.014476f, -0.008068f, -0.225292f, 0.049118f, -0.169248f, -0.008574f, -0.031163f, 
	-0.042411f, 0.090115f, 0.027855f, -0.192052f, -0.037973f, 0.009625f, -0.021239f, -0.000221f, 
	0.011450f, -0.061617f, 0.046928f, 0.013349f, 0.023544f, 0.021823f, -0.088902f, -0.010152f, 
	0.040034f, 0.049770f, -0.080714f, 0.078973f, -0.201984f, -0.151926f, 0.069851f, 0.027476f, 
	0.063038f, 0.040344f, -0.065968f, -0.309069f, 0.071361f, -0.206210f, 0.121865f, 0.063329f, 
	-0.026825f, 0.098845f, 0.027583f, -0.055589f, -0.071731f, -0.104706f, -0.000731f, -0.009437f, 
	-0.024693f, -0.111409f, 0.036810f, 0.141335f, -0.043082f, 0.039187f, -0.062531f, -0.002846f, 
	0.069935f, 0.134355f, -0.064905f, 0.051377f, -0.025672f, -0.220600f, 0.174697f, -0.039521f, 
	0.047465f, -0.038297f, -0.056970f, -0.064631f, 0.063868f, -0.093831f, 0.090652f, 0.026491f, 
	-0.019488f, 0.053775f, -0.003578f, 0.027224f, -0.008407f, 0.017087f, -0.012450f, -0.014401f, 
	-0.008449f, -0.103986f, -0.021584f, 0.023653f, -0.032598f, 0.027274f, 0.099168f, -0.112790f, 
	0.109109f, 0.064171f, 0.113196f, -0.014159f, 0.020353f, 0.041236f, 0.058107f, 0.051230f, 
	-0.041427f, 0.010177f, 0.063745f, 0.016228f, -0.044078f, 0.033303f, 0.111837f, -0.064898f, 
	0.010036f, -0.031781f, -0.109301f, 0.048302f, 0.058868f, -0.066359f, -0.007600f, -0.024576f, 
	0.041719f, -0.034011f, -0.061384f, -0.038409f, -0.051980f, 0.028126f, 0.092567f, -0.066570f, 
	0.050556f, -0.011879f, 0.066070f, -0.086541f, -0.055194f, 0.011438f, -0.004520f, 0.002005f, 
	-0.047407f, 0.022482f, 0.011524f, 0.000050f, -0.035892f, 0.030414f, -0.030901f, -0.017985f, 
	0.002397f, -0.138279f, -0.095163f, -0.015692f, -0.005017f, 0.049496f, -0.008663f, -0.093185f, 
	-0.035093f, 0.127728f, -0.013346f, -0.038262f, 0.026246f, 0.058274f, -0.021236f, 0.046627f, 
	0.024288f, -0.029676f, -0.001593f, -0.060847f, -0.035270f, 0.006412f, -0.083092f, -0.001783f, 
	0.060678f, 0.041026f, 0.044929f, 0.026982f, -0.044389f, 0.054630f, -0.013482f, 0.059628f, 
	0.019740f, 0.017972f, 0.050904f, -0.017465f, 0.057032f, -0.130555f, 0.005096f, 0.038858f, 
	-0.049239f, 0.087489f, -0.049630f, -0.056721f, -0.000395f, 0.004478f, -0.158297f, 0.052205f, 
	-0.050529f, 0.013636f, -0.066902f, -0.002770f, -0.213344f, -0.054951f, -0.211129f, 0.015645f, 
	-0.026182f, 0.040272f, -0.012307f, 0.056751f, -0.072579f, -0.037123f, -0.077935f, -0.003558f, 
	0.001422f, 0.095786f, 0.106511f, -0.131734f, -0.084611f, -0.228598f, 0.078935f, 0.060333f, 
	-0.013626f, -0.076679f, -0.068690f, 0.088816f, 0.028984f, -0.009351f, -0.217839f, 0.014697f, 
	-0.160215f, 0.058931f, -0.091618f, 0.054830f, -0.204116f, -0.115948f, -0.164695f, -0.040067f, 
	0.091840f, -0.016546f, -0.043284f, -0.085987f, -0.057452f, -0.120001f, -0.023926f, 0.051827f, 
	-0.063854f, 0.194584f, 0.130229f, -0.218899f, -0.021974f, -0.259329f, 0.071423f, 0.148836f, 
	-0.040750f, -0.037948f, 0.027485f, 0.073931f, -0.012539f, -0.018936f, -0.010959f, -0.022120f, 
	0.034746f, 0.104200f, 0.033225f, -0.029078f, -0.173465f, -0.154385f, -0.026201f, -0.024198f, 
	0.027961f, -0.002888f, 0.042387f, -0.123832f, 0.012308f, -0.125339f, 0.061114f, -0.012412f, 
	0.071085f, 0.100699f, 0.040267f, -0.014385f, -0.065103f, -0.046758f, -0.052107f, 0.067202f, 
	-0.012293f, -0.038803f, -0.010743f, 0.046311f, -0.033335f, -0.000319f, 0.044290f, -0.057178f, 
	0.043328f, 0.054693f, 0.071663f, 0.006781f, -0.090115f, -0.166475f, 0.024023f, 0.058103f, 
	-0.053718f, 0.019393f, 0.023875f, -0.161567f, 0.065007f, -0.099693f, 0.017315f, 0.009219f, 
	0.014836f, 0.040247f, -0.099856f, -0.046763f, -0.018808f, 0.056703f, -0.093925f, 0.006509f, 
	0.033935f, 0.043240f, -0.011493f, -0.157950f, -0.021720f, 0.008204f, -0.048204f, 0.013094f, 
	-0.041956f, -0.104859f, -0.040498f, 0.000217f, 0.002933f, 0.045683f, 0.092019f, 0.010600f, 
	-0.121733f, 0.010325f, -0.030906f, 0.051142f, -0.006787f, 0.052492f, 0.055777f, 0.002121f, 
	0.001474f, -0.193993f, 0.046979f, 0.133038f, 0.026777f, -0.006745f, -0.027624f, -0.050245f, 
	0.029741f, 0.051544f, 0.019466f, -0.124581f, -0.012204f, -0.038557f, -0.071647f, -0.012203f, 
	-0.056352f, -0.023622f, -0.038377f, -0.088144f, -0.028753f, 0.051108f, 0.027940f, 0.063183f, 
	-0.105782f, 0.000071f, 0.023330f, 0.064332f, -0.031321f, 0.062684f, -0.019957f, 0.013377f, 
	0.096414f, -0.100126f, 0.038002f, 0.012423f, -0.030602f, -0.071239f, 0.050572f, -0.082584f, 
	0.008743f, 0.092288f, -0.019280f, -0.034416f, -0.020704f, 0.001893f, -0.173824f, -0.081426f, 
	-0.232114f, -0.011988f, -0.037261f, -0.058651f, -0.026988f, -0.002779f, -0.027740f, -0.043153f, 
	-0.066482f, -0.041573f, -0.095626f, 0.017849f, -0.034174f, -0.042424f, -0.048897f, -0.020084f, 
	0.050807f, -0.043483f, 0.041266f, -0.013552f, 0.036890f, -0.062578f, -0.008263f, -0.080784f, 
	0.016356f, 0.023859f, 0.011313f, 0.039258f, 0.008033f, 0.068757f, -0.108697f, -0.030809f, 
	-0.113126f, -0.066982f, -0.093020f, -0.061376f, 0.000816f, -0.049315f, 0.000038f, -0.040968f, 
	-0.038910f, 0.030664f, -0.064702f, 0.042216f, -0.064804f, 0.015715f, -0.044456f, -0.090880f, 
	-0.099192f, 0.020345f, -0.032501f, 0.021259f, 0.023606f, 0.053497f, 0.031544f, 0.008276f, 
	0.034352f, 0.025291f, 0.062273f, 0.007227f, 0.048982f, -0.032746f, -0.136256f, -0.130894f, 
	-0.080000f, -0.159704f, -0.099276f, 0.018488f, -0.015486f, 0.054181f, 0.084794f, -0.058792f, 
	-0.108319f, 0.061368f, -0.062668f, 0.079824f, -0.007530f, 0.101147f, -0.001157f, -0.018465f, 
	-0.033287f, -0.071734f, -0.085149f, 0.090926f, 0.020110f, 0.024739f, 0.073326f, -0.067354f, 
	-0.022308f, 0.054102f, 0.045518f, -0.002130f, 0.043514f, -0.034867f, 0.060930f, -0.015366f, 
	-0.029677f, -0.018590f, -0.044275f, -0.116217f, 0.008245f, -0.008343f, 0.011829f, -0.053924f, 
	-0.125982f, 0.037954f, -0.041665f, -0.065195f, -0.050831f, 0.142102f, 0.053632f, -0.006790f, 
	0.101814f, -0.126843f, -0.047362f, 0.030895f, 0.003937f, 0.060325f, 0.070541f, 0.005984f, 
	0.021078f, 0.085552f, 0.029587f, -0.097481f, 0.061726f, 0.077607f, -0.049530f, -0.071363f, 
	0.038702f, 0.043771f, -0.055018f, -0.041151f, -0.090570f, 0.045219f, -0.030123f, -0.009649f, 
	-0.050050f, 0.084496f, 0.014649f, -0.122450f, -0.006642f, 0.007476f, 0.083004f, 0.030624f, 
	0.078462f, -0.249934f, -0.147127f, -0.019771f, 0.079992f, -0.039394f, 0.047687f, 0.008228f, 
	0.017801f, 0.056969f, 0.044425f, -0.073835f, 0.029950f, 0.001122f, -0.050594f, 0.018314f, 
	-0.120673f, -0.114697f, -0.096628f, -0.121994f, -0.085278f, -0.048116f, -0.043387f, -0.016972f, 
	-0.122613f, 0.017411f, -0.040443f, -0.098216f, 0.026897f, -0.012987f, 0.081521f, -0.030096f, 
	0.117768f, -0.155476f, -0.005591f, 0.051172f, 0.043757f, -0.083504f, -0.016324f, -0.135870f, 
	-0.014674f, -0.005927f, -0.030871f, 0.093372f, -0.059780f, -0.032678f, -0.088687f, -0.054903f, 
	-0.092733f, -0.039918f, -0.086263f, 0.001101f, 0.024888f, -0.029445f, 0.102269f, -0.001846f, 
	-0.091804f, 0.028395f, -0.092768f, -0.073579f, -0.013730f, 0.094884f, 0.005149f, -0.042414f, 
	-0.048018f, -0.028883f, 0.034316f, 0.080082f, 0.003754f, 0.120345f, -0.031887f, -0.099680f, 
	-0.049339f, 0.007813f, -0.035735f, -0.003733f, -0.010644f, -0.103221f, 0.005683f, -0.159205f, 
	-0.138709f, 0.028847f, -0.000309f, -0.066073f, 0.098271f, 0.019234f, 0.088531f, -0.038139f, 
	-0.108586f, -0.035497f, -0.054199f, 0.050495f, -0.164558f, 0.051277f, -0.150629f, -0.042709f, 
	-0.056620f, -0.065132f, -0.045772f, 0.056807f, -0.057134f, 0.019649f, -0.079358f, -0.153663f, 
	0.012872f, 0.024882f, 0.017376f, -0.135467f, -0.003800f, 0.064091f, 0.082729f, 0.035823f, 
	0.064216f, 0.093217f, -0.055495f, -0.039168f, -0.210820f, -0.124301f, -0.005877f, 0.034035f, 
	0.018532f, 0.038451f, 0.099907f, -0.202913f, 0.137144f, -0.078586f, 0.096730f, 0.086375f, 
	0.078869f, 0.010167f, -0.092356f, -0.167295f, 0.006565f, -0.044055f, 0.057822f, 0.024828f, 
	0.002575f, 0.035699f, 0.050597f, 0.008591f, -0.011826f, 0.006754f, 0.049714f, 0.017570f, 
	0.100733f, -0.086605f, 0.033161f, 0.044633f, -0.043190f, -0.069836f, -0.137086f, 0.024373f, 
	0.070143f, -0.050425f, 0.063385f, -0.082538f, 0.083312f, 0.020820f, 0.044638f, 0.001725f, 
	0.097986f, 0.007753f, -0.029484f, 0.015418f, 0.077227f, 0.026423f, 0.020166f, 0.103933f, 
	-0.034813f, 0.004288f, -0.027703f, 0.033969f, -0.042096f, 0.007634f, -0.077094f, 0.046098f, 
	-0.038918f, -0.277117f, -0.018322f, 0.038497f, -0.022021f, -0.084492f, -0.088579f, 0.002651f, 
	0.019971f, -0.010499f, 0.016691f, -0.016807f, 0.012186f, 0.070065f, -0.065406f, -0.059915f, 
	0.020689f, 0.027658f, 0.002122f, 0.029348f, -0.013734f, 0.042335f, -0.025421f, 0.011477f, 
	0.018949f, 0.050569f, -0.017420f, 0.051026f, -0.066303f, -0.029658f, -0.183218f, -0.014149f, 
	-0.092862f, -0.184383f, -0.143088f, 0.031344f, -0.092967f, -0.031150f, -0.085421f, 0.014337f, 
	-0.084079f, -0.078073f, -0.084576f, 0.014944f, -0.061612f, -0.042016f, -0.084609f, -0.022642f, 
	-0.207942f, 0.031702f, 0.026845f, 0.002102f, -0.060901f, -0.037822f, -0.085160f, -0.011236f, 
	-0.090240f, -0.054582f, -0.007821f, 0.004611f, 0.007168f, -0.102175f, -0.038398f, 0.014260f, 
	-0.066537f, -0.040216f, -0.043115f, -0.009984f, -0.037652f, -0.005154f, -0.099655f, -0.035760f, 
	-0.020955f, -0.082731f, -0.048645f, -0.038201f, 0.048713f, -0.029872f, -0.001546f, -0.021767f, 
	-0.042182f, 0.041103f, -0.017998f, -0.013182f, -0.040411f, -0.010367f, -0.056660f, -0.057716f, 
	0.029137f, -0.040980f, 0.116193f, -0.218203f, 0.057101f, 0.031677f, -0.005074f, -0.046710f, 
	0.070962f, -0.082339f, -0.011802f, 0.025786f, 0.030586f, 0.097703f, 0.001045f, 0.044805f, 
	-0.022079f, 0.161025f, 0.056936f, 0.049759f, 0.099001f, 0.125464f, 0.034099f, -0.035016f, 
	0.059028f, -0.183848f, -0.051434f, 0.082330f, 0.006862f, -0.001237f, 0.086968f, 0.022444f, 
	0.092213f, 0.023093f, 0.041743f, -0.012251f, 0.046755f, 0.035999f, -0.047937f, 0.050452f, 
	0.063406f, -0.174975f, -0.008899f, 0.016894f, -0.044617f, 0.025028f, -0.012186f, -0.036429f, 
	0.028422f, 0.027721f, 0.037668f, -0.075979f, 0.051708f, 0.061034f, -0.047077f, 0.064828f, 
	0.098160f, -0.022041f, 0.018609f, 0.116479f, 0.020128f, 0.128086f, 0.002747f, -0.044725f, 
	0.011267f, 0.020843f, 0.019706f, 0.096393f, -0.000384f, -0.023886f, -0.044095f, -0.003913f, 
	-0.078629f, -0.168067f, -0.026306f, -0.072144f, -0.011092f, -0.081457f, 0.027253f, -0.015608f, 
	-0.024424f, -0.027842f, -0.027572f, -0.061662f, -0.131676f, -0.002638f, -0.075479f, 0.038914f, 
	-0.068179f, -0.033428f, 0.032346f, 0.016144f, 0.037468f, 0.111909f, -0.024013f, -0.086118f, 
	-0.029092f, -0.066364f, -0.028097f, 0.021441f, -0.068116f, -0.042577f, -0.142315f, -0.037787f, 
	-0.116920f, -0.087364f, -0.107187f, -0.130987f, -0.000564f, 0.003998f, -0.012701f, -0.042837f, 
	-0.086091f, -0.067177f, -0.068705f, -0.038488f, -0.125019f, 0.028259f, -0.190656f, -0.062198f, 
	-0.139452f, -0.140148f, 0.010594f, 0.003572f, 0.004612f, -0.001469f, -0.064441f, -0.039235f, 
	-0.035661f, -0.032182f, -0.018566f, -0.019886f, 0.018290f, -0.106967f, -0.049716f, 0.028702f, 
	-0.157548f, -0.151323f, -0.049996f, -0.024596f, 0.005811f, 0.044842f, -0.005127f, -0.066064f, 
	-0.045916f, 0.013239f, -0.090274f, -0.005617f, -0.023758f, -0.043019f, -0.094984f, -0.021332f, 
	-0.094180f, 0.005045f, 0.030175f, 0.018134f, 0.062704f, -0.093480f, 0.023416f, -0.055090f, 
	-0.014731f, -0.078756f, 0.040100f, -0.057552f, 0.042008f, -0.016726f, 0.202927f, -0.065312f, 
	0.060181f, 0.010974f, 0.117046f, -0.101130f, 0.128566f, 0.119964f, 0.076404f, 0.013941f, 
	-0.030338f, 0.012846f, 0.036922f, 0.079149f, 0.012845f, 0.074260f, 0.049704f, -0.053580f, 
	0.067593f, -0.278657f, -0.091461f, 0.053633f, 0.018547f, 0.141265f, -0.024470f, -0.075751f, 
	0.030217f, 0.027026f, -0.052298f, 0.065247f, -0.017394f, 0.030902f, -0.048026f, 0.021392f, 
	-0.002987f, -0.214250f, 0.040124f, -0.064395f, -0.110471f, -0.042788f, -0.027516f, 0.080060f, 
	-0.021505f, -0.002507f, -0.001910f, -0.081892f, -0.052049f, -0.055695f, -0.030645f, 0.017186f, 
	0.161152f, -0.060458f, -0.006690f, -0.000488f, 0.041396f, 0.058340f, 0.005960f, -0.106446f, 
	-0.002324f, -0.026866f, -0.077452f, 0.033165f, -0.083712f, -0.045471f, 0.007643f, 0.027538f, 
	-0.046752f, -0.214661f, -0.116536f, -0.031120f, -0.054315f, -0.077206f, -0.108418f, -0.086263f, 
	-0.056092f, -0.022199f, -0.115123f, -0.090675f, -0.076471f, 0.007719f, -0.153597f, 0.009431f, 
	-0.099648f, 0.015353f, 0.051046f, -0.103136f, -0.024635f, 0.083471f, -0.033857f, -0.099168f, 
	-0.058737f, -0.060383f, -0.047097f, -0.054241f, -0.111134f, -0.069124f, -0.096021f, -0.062038f, 
	-0.136404f, -0.125736f, -0.160559f, -0.133847f, -0.027815f, 0.005727f, -0.036014f, -0.029995f, 
	-0.142042f, -0.096643f, -0.130043f, -0.029067f, -0.097107f, -0.019464f, -0.093368f, -0.049466f, 
	-0.004299f, -0.067948f, -0.072314f, -0.011678f, -0.057709f, -0.067308f, -0.052333f, -0.054608f, 
	-0.060143f, -0.046724f, -0.052883f, -0.107057f, -0.012460f, -0.075884f, 0.064121f, -0.051063f, 
	-0.002816f, 0.053471f, -0.001008f, -0.040616f, -0.029042f, -0.004708f, 0.047439f, -0.030096f, 
	0.016113f, 0.034117f, -0.089120f, 0.060242f, -0.002653f, 0.006445f, -0.002878f, -0.032647f, 
	-0.080048f, 0.017411f, -0.065493f, 0.016230f, 0.006976f, -0.047666f, 0.013312f, -0.083895f, 
	-0.041545f, -0.074086f, 0.051147f, -0.042749f, 0.009672f, -0.005979f, 0.213964f, -0.068638f, 
	0.065413f, -0.216404f, 0.181223f, -0.056187f, 0.017791f, 0.099478f, -0.057546f, 0.053173f, 
	-0.071852f, 0.004428f, 0.048551f, 0.009578f, -0.109445f, -0.050912f, -0.051174f, 0.016708f, 
	0.008032f, -0.224626f, -0.207382f, -0.004644f, 0.026792f, 0.055622f, -0.061330f, -0.161677f, 
	0.068178f, 0.054942f, 0.032233f, 0.013223f, -0.016035f, 0.003282f, 0.010717f, 0.078767f, 
	0.075502f, -0.313494f, 0.044110f, -0.129807f, -0.094623f, -0.059283f, -0.005737f, 0.123487f, 
	-0.132179f, -0.034042f, 0.078120f, -0.084585f, 0.000364f, 0.015352f, -0.017205f, -0.013040f, 
	0.111420f, -0.175393f, 0.051107f, -0.062703f, -0.041251f, 0.061632f, -0.025415f, -0.208166f, 
	-0.039507f, 0.013637f, -0.109061f, 0.075939f, -0.071750f, -0.109030f, -0.093316f, -0.023972f, 
	-0.136209f, -0.117967f, -0.084087f, -0.030524f, -0.130545f, -0.085808f, -0.105013f, -0.058333f, 
	-0.093689f, -0.089092f, -0.142324f, -0.174490f, -0.180964f, 0.001382f, -0.158545f, 0.041089f, 
	-0.084541f, -0.083396f, 0.033895f, -0.077051f, -0.141584f, 0.071082f, 0.003536f, -0.121567f, 
	-0.080186f, -0.085311f, -0.053328f, -0.103652f, -0.086334f, -0.122022f, 0.028934f, -0.089696f, 
	-0.012832f, 0.002366f, -0.060662f, -0.080710f, -0.079065f, -0.067466f, -0.101022f, -0.056334f, 
	-0.058699f, 0.003779f, -0.030787f, -0.096225f, -0.053540f, -0.098935f, -0.109034f, -0.074051f, 
	-0.032083f, -0.097402f, -0.126354f, -0.046843f, -0.056224f, -0.046110f, -0.029556f, -0.091752f, 
	-0.110019f, -0.032333f, -0.037802f, -0.052922f, -0.025753f, -0.055213f, 0.043681f, -0.040884f, 
	-0.009164f, 0.022684f, -0.010280f, -0.077852f, -0.040662f, -0.038331f, -0.017216f, -0.042598f, 
	-0.030413f, 0.014156f, -0.010143f, -0.061226f, 0.037599f, -0.116134f, 0.033223f, -0.043397f, 
	0.006247f, -0.083415f, -0.109117f, -0.105234f, -0.062818f, -0.088845f, 0.021032f, -0.022365f, 
	0.013443f, -0.042939f, 0.035794f, 0.023007f, -0.017854f, 0.041514f, 0.204828f, -0.085436f, 
	0.107653f, 0.087344f, 0.198627f, -0.039600f, 0.146617f, 0.163570f, 0.031403f, 0.039037f, 
	-0.076613f, 0.002658f, 0.082981f, 0.091536f, -0.114801f, 0.012653f, -0.047944f, 0.053696f, 
	0.044172f, -0.028645f, -0.078206f, -0.052608f, 0.029563f, -0.008245f, -0.031293f, -0.097119f, 
	-0.032695f, -0.036258f, 0.003500f, 0.039181f, 0.045124f, -0.006338f, 0.055937f, 0.033886f, 
	-0.001546f, 0.018730f, 0.040978f, -0.102528f, -0.074920f, -0.016129f, -0.027070f, 0.106986f, 
	0.030095f, -0.001895f, 0.050704f, -0.001648f, -0.020455f, -0.015958f, -0.088165f, -0.036071f, 
	0.067313f, -0.053160f, 0.020561f, -0.102258f, -0.021462f, 0.033999f, -0.020687f, -0.059743f, 
	-0.076478f, -0.005869f, -0.127667f, 0.114758f, -0.026064f, -0.044272f, -0.024031f, 0.046809f, 
	0.077194f, 0.111510f, -0.062492f, -0.008051f, -0.091446f, -0.060866f, -0.193478f, 0.012020f, 
	0.039190f, -0.062543f, -0.106750f, -0.110602f, 0.036982f, -0.135402f, -0.055059f, 0.055547f, 
	-0.063524f, 0.020091f, 0.075801f, -0.156991f, -0.131106f, 0.026981f, 0.039783f, 0.028119f, 
	-0.072973f, -0.035480f, -0.007616f, -0.058322f, 0.016573f, 0.034827f, -0.036178f, -0.004297f, 
	0.015399f, 0.104995f, 0.009809f, 0.007763f, -0.013566f, -0.045666f, -0.103000f, -0.005685f, 
	0.002638f, -0.056637f, -0.033737f, 0.021232f, 0.014697f, -0.120493f, 0.013499f, 0.003570f, 
	0.011533f, 0.035256f, -0.090663f, -0.112966f, -0.015919f, -0.145868f, -0.071521f, -0.032533f, 
	-0.053165f, -0.084679f, 0.012407f, -0.015084f, -0.028728f, -0.022487f, -0.002407f, -0.078244f, 
	-0.023827f, 0.040061f, 0.038620f, 0.018262f, -0.021213f, 0.016976f, 0.014187f, 0.054967f, 
	0.011768f, -0.027373f, 0.067008f, -0.002344f, 0.061517f, -0.040170f, 0.065756f, -0.014464f, 
	0.007475f, 0.014207f, -0.046284f, -0.075385f, 0.013325f, -0.105169f, 0.031244f, -0.020749f, 
	0.051030f, 0.051429f, 0.082862f, -0.032629f, 0.070345f, 0.059148f, -0.124761f, 0.035194f, 
	0.101414f, 0.037241f, -0.105872f, 0.108155f, -0.011737f, -0.080110f, 0.106920f, 0.068095f, 
	0.059222f, 0.158395f, 0.066362f, -0.066094f, 0.040511f, 0.106471f, 0.104520f, 0.103692f, 
	-0.033441f, 0.070341f, 0.047954f, 0.135802f, 0.016001f, -0.007173f, 0.041145f, 0.095688f, 
	-0.003017f, -0.054827f, -0.019092f, 0.013362f, 0.029758f, 0.025818f, -0.109078f, 0.077333f, 
	-0.103756f, 0.150845f, -0.083885f, 0.043989f, -0.190449f, -0.011036f, 0.002830f, 0.062612f, 
	0.087344f, 0.057368f, 0.003657f, -0.093821f, -0.069073f, -0.029289f, -0.056287f, 0.047302f, 
	-0.021192f, 0.107487f, 0.116790f, -0.128009f, -0.055624f, -0.140475f, 0.024977f, 0.022133f, 
	0.014215f, 0.050520f, -0.037703f, 0.058047f, -0.021273f, -0.009020f, 0.005086f, -0.044081f, 
	-0.069491f, 0.150885f, -0.090020f, 0.038083f, -0.146499f, -0.128439f, -0.119260f, 0.034295f, 
	0.060348f, -0.013889f, -0.060517f, -0.168014f, -0.022180f, -0.100108f, 0.012631f, 0.054849f, 
	-0.046578f, 0.056918f, 0.010814f, -0.113171f, 0.009273f, -0.096788f, -0.027647f, 0.049543f, 
	0.026360f, -0.022145f, 0.000093f, 0.048756f, 0.008315f, 0.041913f, 0.004252f, 0.014929f, 
	0.047711f, -0.007752f, -0.071793f, -0.086625f, -0.227109f, -0.155148f, 0.001845f, 0.031660f, 
	-0.005191f, 0.085447f, -0.033904f, -0.225475f, -0.040454f, 0.000220f, 0.030410f, -0.052623f, 
	0.073027f, -0.040666f, -0.120679f, -0.015259f, 0.071033f, -0.029282f, 0.078451f, 0.057701f, 
	0.032433f, 0.010403f, -0.045832f, -0.013652f, 0.033063f, 0.004289f, -0.102418f, 0.041271f, 
	0.038554f, -0.006876f, 0.010248f, -0.016700f, -0.249729f, -0.260537f, 0.013226f, 0.013949f, 
	-0.075889f, -0.003636f, -0.001222f, -0.256832f, 0.083482f, 0.025272f, 0.077926f, 0.034596f, 
	0.048543f, -0.010166f, -0.027119f, 0.085184f, 0.001019f, 0.026347f, -0.017593f, 0.027069f, 
	0.042402f, 0.147278f, 0.097997f, -0.108005f, 0.033840f, -0.004707f, -0.166595f, -0.045982f, 
	-0.018796f, 0.013762f, -0.045346f, -0.028508f, 0.108549f, 0.138486f, 0.095618f, -0.045276f, 
	-0.105767f, -0.018559f, -0.005980f, 0.176600f, 0.053296f, 0.187142f, -0.010071f, 0.035419f, 
	0.033732f, -0.214514f, -0.013537f, 0.139909f, 0.112594f, 0.060723f, 0.075580f, 0.036244f, 
	0.008226f, 0.004770f, 0.031695f, -0.178475f, 0.015924f, -0.025716f, -0.080846f, 0.005068f, 
	-0.093975f, -0.095463f, -0.042639f, -0.033258f, 0.102213f, 0.098152f, -0.075124f, -0.094969f, 
	-0.001833f, 0.037549f, -0.030532f, 0.205933f, -0.130941f, 0.140648f, -0.097477f, 0.049309f, 
	-0.027372f, -0.087052f, 0.096169f, 0.046552f, 0.002304f, -0.247749f, 0.147781f, -0.009512f, 
	0.026293f, 0.086877f, -0.030048f, 0.026495f, -0.019110f, -0.003404f, -0.082293f, 0.025376f, 
	-0.130134f, -0.047807f, -0.064423f, 0.075255f, 0.001504f, 0.024197f, -0.170766f, 0.026542f, 
	-0.019369f, 0.042290f, 0.007441f, 0.055683f, -0.067842f, -0.024777f, -0.056830f, 0.031964f, 
	-0.072740f, 0.025738f, 0.113445f, -0.093196f, -0.070393f, -0.199121f, -0.009202f, -0.049453f, 
	-0.031357f, -0.008244f, -0.026479f, 0.108230f, 0.051669f, -0.028077f, -0.082954f, -0.047323f, 
	-0.064519f, 0.003423f, -0.009260f, 0.036186f, -0.027805f, -0.020884f, -0.106614f, 0.012754f, 
	-0.057373f, -0.038745f, -0.006310f, -0.012590f, -0.077961f, 0.006661f, -0.016964f, 0.073862f, 
	-0.056127f, -0.007821f, 0.006531f, 0.029291f, 0.003928f, -0.056020f, -0.077727f, 0.023495f, 
	-0.041986f, 0.024442f, -0.009640f, 0.083359f, -0.010057f, -0.000473f, -0.148874f, 0.056360f, 
	-0.096040f, 0.060468f, -0.072734f, -0.021353f, -0.103093f, -0.181276f, 0.032560f, 0.023031f, 
	-0.053560f, -0.014179f, -0.115341f, -0.100062f, -0.028969f, -0.019411f, 0.043119f, 0.010888f, 
	0.042522f, -0.086122f, -0.033836f, -0.021110f, -0.033829f, -0.041167f, -0.041220f, 0.000552f, 
	0.018781f, 0.049879f, 0.015604f, -0.009462f, -0.006631f, -0.002401f, -0.077572f, -0.046775f, 
	-0.129094f, 0.035692f, -0.085367f, -0.026882f, 0.042115f, -0.012104f, 0.124864f, -0.017382f, 
	-0.090364f, 0.017116f, -0.104911f, 0.042556f, -0.015329f, 0.033230f, -0.036188f, -0.009045f, 
	-0.010715f, -0.129139f, -0.061041f, 0.130363f, -0.021711f, 0.007247f, -0.055156f, -0.059379f, 
	-0.000747f, -0.000237f, 0.024735f, -0.195358f, -0.006101f, 0.054783f, -0.034988f, -0.033929f, 
	-0.051840f, 0.051454f, -0.014984f, -0.050714f, 0.080679f, 0.197582f, 0.053602f, -0.044676f, 
	-0.061148f, -0.084176f, -0.023194f, 0.193389f, -0.026447f, 0.110767f, -0.025079f, -0.051790f, 
	0.077916f, -0.233366f, -0.108588f, 0.084232f, 0.090482f, -0.128384f, 0.026299f, -0.127299f, 
	0.059590f, 0.083139f, 0.002870f, -0.027148f, -0.003698f, 0.036560f, -0.016001f, 0.105957f, 
	-0.124172f, -0.213463f, 0.064203f, -0.076479f, 0.036725f, 0.135816f, -0.109743f, -0.010062f, 
	-0.005776f, -0.059294f, 0.032328f, 0.173380f, -0.010100f, 0.054794f, -0.083716f, -0.007138f, 
	0.131152f, -0.044880f, 0.104745f, -0.070033f, 0.087089f, -0.087616f, 0.032265f, -0.179122f, 
	0.042251f, -0.004926f, -0.044591f, 0.070111f, 0.013444f, 0.000955f, -0.058207f, 0.006532f, 
	-0.170042f, -0.095929f, 0.069365f, 0.016979f, -0.004756f, 0.130685f, -0.180882f, -0.020142f, 
	0.048929f, 0.054084f, -0.011827f, 0.077218f, -0.075219f, -0.040954f, -0.173987f, 0.072732f, 
	-0.065360f, 0.042250f, 0.115237f, -0.085725f, -0.060911f, -0.003157f, 0.021698f, 0.034546f, 
	-0.038742f, -0.018506f, -0.067228f, 0.078647f, -0.025689f, -0.096913f, -0.134109f, 0.151073f, 
	-0.135719f, 0.078577f, -0.097092f, 0.026725f, -0.055538f, -0.038393f, -0.076938f, -0.011741f, 
	0.055414f, 0.036951f, -0.109977f, -0.063157f, 0.041599f, -0.084740f, -0.078606f, -0.004731f, 
	0.040553f, 0.130373f, 0.110844f, -0.066270f, -0.085010f, -0.069522f, -0.034296f, 0.016186f, 
	-0.052911f, 0.051508f, -0.093194f, 0.011892f, -0.029464f, -0.009243f, -0.073389f, -0.038269f, 
	-0.046494f, 0.103289f, -0.086466f, 0.027292f, -0.027323f, -0.140755f, 0.000731f, -0.045857f, 
	-0.005789f, -0.038915f, -0.085128f, -0.102167f, 0.023198f, -0.048101f, 0.015041f, 0.008612f, 
	-0.023600f, 0.024054f, -0.003884f, -0.092009f, 0.001343f, 0.004082f, -0.049880f, 0.092469f, 
	0.057766f, -0.067457f, 0.037121f, -0.069909f, 0.022792f, 0.022846f, -0.021031f, -0.039446f, 
	0.019543f, -0.060473f, 0.067857f, 0.023140f, 0.063344f, -0.013293f, 0.050294f, -0.039023f, 
	0.005288f, -0.009523f, -0.017074f, -0.035926f, 0.009876f, -0.061288f, 0.078609f, -0.058562f, 
	0.095185f, -0.119584f, -0.178699f, -0.024844f, -0.027775f, -0.065487f, -0.095192f, -0.080708f, 
	0.016988f, 0.019409f, -0.032594f, -0.046786f, -0.051487f, 0.027417f, 0.075574f, 0.018598f, 
	-0.032657f, -0.132972f, 0.100564f, -0.169796f, 0.048027f, 0.041363f, 0.013368f, -0.043978f, 
	-0.117441f, 0.024004f, -0.037668f, 0.069565f, 0.012811f, 0.082596f, -0.033878f, 0.005596f, 
	0.106567f, -0.108391f, 0.012154f, 0.042866f, 0.078891f, -0.009099f, 0.011273f, -0.164994f, 
	0.002441f, 0.062479f, -0.031013f, 0.029004f, -0.073395f, 0.017372f, 0.026105f, 0.023006f, 
	-0.078051f, -0.232119f, 0.109154f, -0.146907f, 0.044366f, 0.089749f, -0.045427f, -0.012086f, 
	-0.098741f, -0.045114f, 0.034885f, 0.105857f, -0.057989f, 0.066595f, -0.082118f, -0.012333f, 
	0.064202f, -0.074118f, 0.066775f, 0.031050f, 0.037929f, 0.009735f, 0.049191f, -0.100243f, 
	0.014905f, -0.013698f, 0.056396f, -0.068550f, 0.037624f, 0.015714f, -0.133063f, 0.099950f, 
	-0.039762f, -0.190343f, -0.046794f, -0.062322f, 0.037018f, 0.067218f, -0.124899f, -0.002264f, 
	0.002218f, -0.086144f, 0.033326f, 0.051232f, 0.018944f, 0.035186f, -0.042685f, -0.005777f, 
	-0.006648f, 0.076920f, 0.154624f, -0.063166f, -0.002306f, -0.021786f, 0.145115f, 0.019475f, 
	-0.039320f, -0.048110f, -0.036506f, -0.129067f, -0.050223f, -0.086955f, -0.060941f, -0.044380f, 
	0.009416f, -0.022884f, -0.104814f, -0.002619f, -0.030882f, -0.033757f, 0.080753f, -0.145025f, 
	-0.059191f, 0.013753f, -0.093152f, -0.023246f, -0.047846f, 0.030633f, 0.077812f, -0.032422f, 
	0.011253f, -0.116599f, -0.076196f, 0.095142f, -0.049344f, 0.086668f, -0.029718f, 0.003388f, 
	0.008995f, -0.032061f, -0.034271f, -0.079904f, -0.033870f, -0.042984f, 0.056001f, 0.014087f, 
	0.104937f, 0.028777f, -0.049219f, -0.034182f, -0.012230f, -0.119422f, 0.152658f, 0.010442f, 
	-0.054110f, 0.035158f, -0.076280f, -0.163194f, 0.016108f, 0.074796f, 0.068060f, -0.031796f, 
	0.041650f, -0.024352f, -0.060094f, 0.060234f, 0.022022f, 0.117829f, -0.015682f, -0.004404f, 
	0.013373f, 0.034510f, -0.021727f, -0.110268f, -0.022523f, 0.048303f, 0.105217f, -0.019300f, 
	0.087472f, 0.065070f, -0.039740f, 0.037017f, 0.020640f, 0.004081f, 0.149654f, -0.004601f, 
	-0.041227f, 0.054010f, -0.045924f, -0.114594f, 0.097395f, 0.011905f, 0.095641f, -0.052656f, 
	0.124588f, -0.019710f, -0.081762f, 0.007850f, -0.000941f, 0.089048f, -0.018777f, 0.054341f, 
	0.022917f, -0.018367f, -0.019692f, -0.022910f, -0.054716f, 0.073513f, 0.065503f, -0.133216f, 
	0.079646f, 0.008737f, 0.093434f, -0.048952f, 0.039214f, -0.018174f, 0.057846f, 0.026260f, 
	0.017643f, -0.014646f, 0.052944f, 0.047672f, -0.044509f, 0.029541f, 0.112000f, -0.051182f, 
	0.042665f, -0.168307f, -0.159704f, 0.066624f, 0.003334f, 0.050519f, -0.059743f, -0.061795f, 
	-0.046463f, -0.043742f, -0.027996f, -0.077869f, -0.090980f, 0.065369f, -0.032599f, -0.062805f, 
	-0.120802f, -0.146467f, 0.057093f, -0.171137f, 0.049039f, 0.088279f, 0.066558f, 0.043478f, 
	-0.124990f, 0.009589f, 0.060501f, 0.168476f, -0.057953f, 0.051845f, 0.014571f, -0.007676f, 
	-0.047986f, -0.204919f, -0.077429f, 0.098647f, 0.048982f, -0.059986f, -0.020666f, -0.280852f, 
	0.045029f, 0.000573f, -0.028931f, 0.047846f, -0.085576f, -0.022047f, 0.019395f, 0.007693f, 
	-0.004103f, 0.020505f, 0.012114f, -0.021672f, -0.023566f, -0.015379f, 0.052248f, -0.031776f, 
	-0.015159f, -0.089320f, -0.020908f, 0.063966f, 0.073938f, 0.041936f, 0.035823f, -0.056360f, 
	0.057849f, 0.023295f, -0.025513f, -0.035119f, 0.035677f, -0.034104f, 0.008007f, -0.025246f, 
	-0.025213f, 0.036758f, 0.036020f, -0.075119f, -0.014597f, 0.028091f, 0.046295f, -0.074667f, 
	-0.008662f, 0.022186f, 0.000997f, -0.011443f, 0.063249f, 0.087310f, 0.085023f, 0.083346f, 
	0.005821f, 0.057602f, 0.061707f, 0.092880f, 0.008253f, 0.108556f, 0.050218f, 0.050358f, 
	-0.054482f, -0.023575f, -0.073001f, 0.065028f, 0.055424f, -0.053264f, 0.150425f, -0.009449f, 
	0.063102f, 0.072125f, 0.003745f, -0.026517f, 0.055113f, 0.069396f, -0.074452f, 0.139241f, 
	-0.021181f, -0.103628f, 0.018549f, 0.025405f, -0.136658f, 0.116171f, -0.083887f, 0.062841f, 
	0.017783f, 0.039314f, 0.075687f, -0.018640f, 0.048714f, 0.046826f, 0.015939f, -0.047237f, 
	0.059631f, 0.021135f, 0.136501f, -0.089254f, 0.050990f, -0.185873f, 0.090236f, -0.018205f, 
	0.041083f, 0.090791f, -0.030942f, 0.149230f, 0.018326f, 0.019149f, -0.108893f, -0.011990f, 
	-0.073609f, -0.144617f, -0.086710f, 0.035049f, -0.098537f, -0.124884f, -0.122303f, 0.040973f, 
	0.042358f, -0.009584f, 0.011456f, -0.095608f, -0.039030f, -0.133007f, -0.046710f, 0.056139f, 
	-0.019991f, 0.110746f, -0.019737f, -0.082071f, 0.049967f, 0.104535f, 0.009208f, 0.030942f, 
	-0.065448f, -0.073049f, 0.035874f, -0.068295f, -0.009661f, -0.052101f, -0.213005f, -0.074068f, 
	-0.053149f, -0.091081f, -0.098042f, 0.019903f, 0.035149f, -0.127417f, 0.007046f, -0.092046f, 
	0.016567f, -0.008514f, -0.050806f, 0.012301f, 0.034996f, 0.026740f, -0.115494f, 0.063177f, 
	-0.197682f, 0.007472f, -0.017367f, 0.022230f, -0.022985f, 0.022725f, -0.009306f, 0.008527f, 
	-0.021780f, 0.018112f, -0.012217f, 0.094396f, -0.086451f, -0.098626f, -0.085137f, -0.060313f, 
	-0.201905f, 0.048191f, -0.100142f, -0.040531f, 0.089197f, 0.079345f, 0.098271f, -0.023459f, 
	-0.015808f, -0.074655f, -0.074860f, 0.130572f, -0.143936f, 0.078122f, -0.032987f, -0.015503f, 
	-0.088373f, 0.065487f, -0.072905f, 0.004978f, -0.060229f, 0.028716f, 0.031224f, 0.015029f, 
	-0.001566f, -0.043877f, -0.020775f, -0.059987f, 0.061789f, -0.013563f, 0.101245f, -0.102637f, 
	0.004102f, 0.014773f, 0.101324f, -0.030385f, 0.020092f, 0.125207f, 0.080859f, 0.034545f, 
	0.050576f, 0.148737f, 0.079850f, 0.005623f, 0.004017f, 0.096974f, -0.003768f, 0.025179f, 
	-0.079774f, 0.004536f, -0.195578f, 0.045278f, -0.061315f, -0.050822f, 0.052901f, -0.065134f, 
	0.073385f, 0.063500f, -0.016022f, -0.098538f, 0.055269f, 0.033100f, -0.037535f, 0.077954f, 
	0.069746f, -0.069187f, 0.005467f, -0.043209f, -0.074498f, 0.078032f, -0.230474f, 0.029098f, 
	0.039282f, 0.088696f, 0.025725f, -0.100898f, 0.037172f, -0.101310f, 0.016600f, 0.028373f, 
	0.178656f, -0.068546f, 0.101120f, -0.180144f, -0.019788f, -0.162782f, 0.010240f, -0.053250f, 
	-0.039526f, 0.095805f, -0.016813f, 0.140088f, 0.003222f, 0.024516f, -0.004789f, -0.030187f, 
	-0.011834f, -0.135494f, -0.032230f, -0.028716f, -0.077757f, -0.202419f, -0.050480f, 0.018943f, 
	0.087104f, -0.026500f, -0.029460f, -0.115307f, -0.031890f, -0.029835f, -0.080028f, 0.048727f, 
	-0.034606f, 0.090787f, 0.016061f, -0.066481f, 0.015741f, 0.162274f, 0.088305f, -0.007543f, 
	-0.050406f, -0.000201f, -0.058057f, -0.012441f, -0.097444f, -0.003826f, -0.249667f, -0.095227f, 
	-0.104202f, -0.036591f, -0.205084f, -0.045130f, 0.042687f, -0.040123f, 0.001696f, -0.130586f, 
	-0.096849f, -0.029911f, -0.128057f, 0.045462f, 0.007176f, 0.009897f, -0.172167f, -0.030285f, 
	-0.194973f, 0.000296f, -0.091093f, 0.058644f, -0.033439f, 0.009377f, -0.071357f, -0.078648f, 
	-0.120787f, -0.009367f, -0.123692f, 0.092355f, -0.049083f, -0.087748f, -0.015622f, 0.047188f, 
	-0.132191f, 0.073494f, -0.180732f, 0.035734f, 0.040128f, -0.009852f, 0.108218f, -0.080222f, 
	0.013359f, 0.013311f, -0.066067f, -0.039210f, -0.044838f, 0.029921f, -0.148667f, 0.038791f, 
	-0.169771f, 0.078528f, 0.022879f, 0.026415f, -0.108909f, 0.018681f, -0.021735f, -0.012039f, 
	0.030875f, -0.040580f, 0.035368f, -0.218213f, 0.057959f, 0.109736f, 0.173777f, -0.058399f, 
	0.059425f, 0.068243f, 0.066597f, 0.119478f, -0.010375f, 0.025808f, -0.173332f, 0.057580f, 
